{"learner":{"attributes":{"scikit_learn":"{\"_estimator_type\": \"classifier\"}"},"feature_names":[],"feature_types":[],"gradient_booster":{"model":{"gbtree_model_param":{"num_parallel_tree":"1","num_trees":"200"},"iteration_indptr":[0,1,2,3,4,5,6,7,8,9,10,11,12,13,14,15,16,17,18,19,20,21,22,23,24,25,26,27,28,29,30,31,32,33,34,35,36,37,38,39,40,41,42,43,44,45,46,47,48,49,50,51,52,53,54,55,56,57,58,59,60,61,62,63,64,65,66,67,68,69,70,71,72,73,74,75,76,77,78,79,80,81,82,83,84,85,86,87,88,89,90,91,92,93,94,95,96,97,98,99,100,101,102,103,104,105,106,107,108,109,110,111,112,113,114,115,116,117,118,119,120,121,122,123,124,125,126,127,128,129,130,131,132,133,134,135,136,137,138,139,140,141,142,143,144,145,146,147,148,149,150,151,152,153,154,155,156,157,158,159,160,161,162,163,164,165,166,167,168,169,170,171,172,173,174,175,176,177,178,179,180,181,182,183,184,185,186,187,188,189,190,191,192,193,194,195,196,197,198,199,200],"tree_info":[0,0,0,0,0,0,0,0,0,0,0,0,0,0,0,0,0,0,0,0,0,0,0,0,0,0,0,0,0,0,0,0,0,0,0,0,0,0,0,0,0,0,0,0,0,0,0,0,0,0,0,0,0,0,0,0,0,0,0,0,0,0,0,0,0,0,0,0,0,0,0,0,0,0,0,0,0,0,0,0,0,0,0,0,0,0,0,0,0,0,0,0,0,0,0,0,0,0,0,0,0,0,0,0,0,0,0,0,0,0,0,0,0,0,0,0,0,0,0,0,0,0,0,0,0,0,0,0,0,0,0,0,0,0,0,0,0,0,0,0,0,0,0,0,0,0,0,0,0,0,0,0,0,0,0,0,0,0,0,0,0,0,0,0,0,0,0,0,0,0,0,0,0,0,0,0,0,0,0,0,0,0,0,0,0,0,0,0,0,0,0,0,0,0,0,0,0,0,0,0],"trees":[{"base_weights":[1.7454624E-3,-5.364707E-1,1.8589951E0,-7.271655E-1,2.625118E-1,1.4678632E0,1.162946E-1,-8.193738E-1,1.5167522E-1,1.0448111E-1,1.5446978E0,1.2999817E0,2.1553986E0,-4.919472E-1,-9.571773E-1,-7.5621164E-1,5.241864E-1,1.0904224E-1,4.0878102E-2,1.6434325E0,-6.6348416E-1,9.8611975E-1,1.6207464E0,2.1858642E0,-3.2433406E-3,-1.304517E0,-2.6559842E-1,-9.767797E-1,2.2216973E-1,-8.0811344E-2,-5.4345334E-1,2.1041767E-1,1.12014525E-1,1.4555599E-1,-9.27606E-1,1.7123997E0,-4.8193287E-2,-3.2433406E-3,-4.8193287E-2,1.8565403E0,7.572002E-1,1.6629567E0,-7.9871136E-1,2.2165313E0,1.8381648E-2,-1.5950031E0,2.3560022E-1,7.059715E-1,-3.498443E-1,-8.594233E-2,-9.4863766E-1,-9.256654E-1,1.7092226E0,-6.207845E-1,6.937923E-2,3.502617E-1,-1.165783E0,1.8946283E-1,-1.1659975E0,-1.0409198E0,6.029883E-2,1.7796472E0,-1.8456524E-2,1.9639482E0,-1.8456524E-2,9.035076E-1,-5.245545E-1,1.7253507E0,6.947935E-2,-5.52947E-2,-3.2433406E-3,2.2481613E0,2.6509508E-2,-1.6267405E0,2.888744E-2,1.1374209E0,-7.705783E-2,1.5097601E0,-1.2168463E-1,-9.132915E-1,-1.5804322E-1,1.2930671E0,-9.9625754E-1,-1.0654973E0,1.9231632E-2,9.961978E-2,9.614847E-3,-6.926407E-1,4.340417E-2,4.862958E-3,7.6163745E-1,-1.4185836E0,9.614847E-3,2.2088225E-1,-1.3379325E0,-1.3246423E0,8.64154E-3,-1.2111272E0,2.4497141E-1,1.8376185E0,-2.5718315E-2,2.0315022E0,-3.2433406E-3,6.738385E-1,1.8461405E0,1.9844763E-1,-1.1343665E0,1.7776042E0,-2.0311373E-1,7.497752E-1,-6.022486E-2,2.2701032E0,1.9231632E-2,-8.2944445E-2,9.614847E-3,-7.059154E-2,1.0689004E-1,8.30239E-2,-2.5718315E-2,-8.093584E-2,1.0375186E-1,-5.977614E-2,-1.0127666E-3,-4.481767E-3,-6.943163E-2,7.590905E-2,-4.766951E-2,-5.464868E-2,-3.8206022E-2,-6.1583575E-2,1.9231632E-2,-5.0569482E-2,-1.3889745E-2,7.038735E-3,-6.680999E-2,4.297466E-2,-6.022486E-2,-7.8399435E-2,-1.8456524E-2,1.3181694E-2,-4.8906725E-2,-7.64041E-2,-3.2433406E-3,-7.225621E-2,-3.2433406E-3,-6.572687E-2,4.9133338E-2,5.6398332E-2,-5.7963796E-2,9.490601E-2,-2.5718315E-2,1.05024256E-1,1.8381648E-2,3.74644E-2,-5.9582777E-2,9.8798506E-2,-2.5718315E-2,3.572765E-2,-4.4621583E-2,-6.9478296E-2,-3.7438233E-5,9.07614E-2,-2.3244789E-2,4.9133338E-2,-4.2722546E-2,7.0249744E-2,-4.8193287E-2,1.14633776E-1,1.9231632E-2],"categories":[],"categories_nodes":[],"categories_segments":[],"categories_sizes":[],"default_left":[0,0,0,0,0,0,0,0,0,0,0,0,0,0,0,0,0,0,0,0,0,0,0,0,0,0,0,0,0,0,0,0,0,0,0,0,0,0,0,0,0,0,0,0,0,0,0,0,0,0,0,0,0,0,0,0,0,0,0,0,0,0,0,0,0,0,0,0,0,0,0,0,0,0,0,0,0,0,0,0,0,0,0,0,0,0,0,0,0,0,0,0,0,0,0,0,0,0,0,0,0,0,0,0,0,0,0,0,0,0,0,0,0,0,0,0,0,0,0,0,0,0,0,0,0,0,0,0,0,0,0,0,0,0,0,0,0,0,0,0,0,0,0,0,0,0,0,0,0,0,0,0,0,0,0,0,0,0,0,0,0,0,0,0,0,0,0,0,0],"id":0,"left_children":[1,3,5,7,9,11,-1,13,15,17,19,21,23,25,27,29,31,-1,33,35,37,39,41,43,-1,45,47,49,51,-1,53,55,-1,57,59,61,-1,-1,-1,63,65,67,69,71,-1,73,75,77,79,-1,81,83,85,87,-1,89,91,93,95,97,-1,99,-1,101,-1,103,105,107,109,-1,-1,111,-1,113,-1,115,-1,117,119,121,123,125,127,129,-1,-1,-1,131,-1,133,135,137,-1,139,141,143,-1,145,147,149,-1,151,-1,153,155,157,159,161,163,165,-1,167,-1,-1,-1,-1,-1,-1,-1,-1,-1,-1,-1,-1,-1,-1,-1,-1,-1,-1,-1,-1,-1,-1,-1,-1,-1,-1,-1,-1,-1,-1,-1,-1,-1,-1,-1,-1,-1,-1,-1,-1,-1,-1,-1,-1,-1,-1,-1,-1,-1,-1,-1,-1,-1,-1,-1,-1,-1],"loss_changes":[3.8991438E3,4.6097644E2,1.5663525E2,1.9800061E2,1.1806321E2,5.2556885E1,0E0,9.925049E1,7.909935E1,6.8651794E1,1.5032913E1,3.7464417E1,6.405945E0,1.2043703E2,3.6151855E1,1.1584724E1,8.869713E1,0E0,5.143931E1,1.2709305E1,5.5772495E-1,3.8179688E1,2.0766632E1,4.2806396E0,0E0,6.427092E1,4.2390533E1,3.030371E1,4.6351803E1,0E0,9.240467E0,2.7564531E1,0E0,2.6570438E1,1.3222168E1,9.094147E0,0E0,0E0,0E0,1.0449753E1,3.0288582E1,1.8512024E1,8.1627154E-1,3.5907898E0,0E0,9.2344055E0,3.946253E1,2.7735477E1,5.1131283E1,0E0,1.5880103E2,3.2408571E0,4.67585E0,6.447077E0,0E0,1.8305607E1,4.8207855E0,2.1584099E1,3.4067402E0,1.0701351E1,0E0,8.733017E0,0E0,5.472183E0,0E0,2.9728653E1,7.6855297E0,1.8529297E1,7.926027E0,0E0,0E0,2.7132263E0,0E0,7.267212E0,0E0,4.4296684E1,0E0,7.2865486E0,7.350384E1,3.029287E1,2.9775497E1,1.7188885E1,3.161621E1,3.9020138E0,0E0,0E0,0E0,6.685301E0,0E0,1.3138598E1,1.2349319E1,1.1910057E0,0E0,2.2582712E1,2.0996265E0,1.9540653E0,0E0,1.0853886E1,9.229211E0,9.135208E0,0E0,3.5596313E0,0E0,1.7306015E1,9.429855E0,5.475691E0,2.6975164E0,1.5663025E1,5.2063494E0,7.9774513E0,0E0,2.7988586E0,0E0,0E0,0E0,0E0,0E0,0E0,0E0,0E0,0E0,0E0,0E0,0E0,0E0,0E0,0E0,0E0,0E0,0E0,0E0,0E0,0E0,0E0,0E0,0E0,0E0,0E0,0E0,0E0,0E0,0E0,0E0,0E0,0E0,0E0,0E0,0E0,0E0,0E0,0E0,0E0,0E0,0E0,0E0,0E0,0E0,0E0,0E0,0E0,0E0,0E0,0E0,0E0,0E0,0E0,0E0,0E0,0E0],"parents":[2147483647,0,0,1,1,2,2,3,3,4,4,5,5,7,7,8,8,9,9,10,10,11,11,12,12,13,13,14,14,15,15,16,16,18,18,19,19,20,20,21,21,22,22,23,23,25,25,26,26,27,27,28,28,30,30,31,31,33,33,34,34,35,35,39,39,40,40,41,41,42,42,43,43,45,45,46,46,47,47,48,48,50,50,51,51,52,52,53,53,55,55,56,56,57,57,58,58,59,59,61,61,63,63,65,65,66,66,67,67,68,68,71,71,73,73,75,75,77,77,78,78,79,79,80,80,81,81,82,82,83,83,87,87,89,89,90,90,91,91,93,93,94,94,95,95,97,97,98,98,99,99,101,101,103,103,104,104,105,105,106,106,107,107,108,108,109,109,111,111],"right_children":[2,4,6,8,10,12,-1,14,16,18,20,22,24,26,28,30,32,-1,34,36,38,40,42,44,-1,46,48,50,52,-1,54,56,-1,58,60,62,-1,-1,-1,64,66,68,70,72,-1,74,76,78,80,-1,82,84,86,88,-1,90,92,94,96,98,-1,100,-1,102,-1,104,106,108,110,-1,-1,112,-1,114,-1,116,-1,118,120,122,124,126,128,130,-1,-1,-1,132,-1,134,136,138,-1,140,142,144,-1,146,148,150,-1,152,-1,154,156,158,160,162,164,166,-1,168,-1,-1,-1,-1,-1,-1,-1,-1,-1,-1,-1,-1,-1,-1,-1,-1,-1,-1,-1,-1,-1,-1,-1,-1,-1,-1,-1,-1,-1,-1,-1,-1,-1,-1,-1,-1,-1,-1,-1,-1,-1,-1,-1,-1,-1,-1,-1,-1,-1,-1,-1,-1,-1,-1,-1,-1,-1],"split_conditions":[9.375E-1,9.0625E-1,1E0,9.6875E-1,9.84375E-1,9.84375E-1,1.162946E-1,8.4375E-1,8.59375E-1,8.125E-1,7.936999E-3,9.53125E-1,9.7222E-2,7.03125E-1,4.23077E-1,8.28125E-1,1E0,1.0904224E-1,3.4054995E-2,6.9767E-2,6.803E-3,8.75E-1,1.4285803E-1,1.7857E-2,-3.2433406E-3,8.28125E-1,7.1875E-1,6.71875E-1,5.1282E-2,-8.0811344E-2,8.85E-3,2.8846E-2,1.12014525E-1,2.381E-2,1.2899299E-1,1.8315002E-2,-4.8193287E-2,-3.2433406E-3,-4.8193287E-2,2.7399883E-4,9.444002E-3,4.1666E-2,6.06061E-1,2.7300045E-4,1.8381648E-2,2.2727E-2,6.71875E-1,7.65625E-1,7.8125E-1,-8.594233E-2,7.1875E-1,6.8966E-2,9.4700046E-4,1.1499971E-4,6.937923E-2,8.90625E-1,4.3939E-2,1.0588E-2,8.6957E-2,2.833E-3,6.029883E-2,3.36066E-1,-1.8456524E-2,4.7619E-2,-1.8456524E-2,9.6875E-1,7.842999E-3,5.8824E-2,8.4500015E-4,-5.52947E-2,-3.2433406E-3,1.95122E-1,2.6509508E-2,1.17647E-1,2.888744E-2,4.53125E-1,-7.705783E-2,1.2500025E-4,8.28125E-1,7.8125E-1,1.0749996E-3,1.1183001E-2,8.75E-1,1.5E-1,1.9231632E-2,9.961978E-2,9.614847E-3,9.84375E-1,4.340417E-2,1.2467012E-2,1.51515E-1,1.05263E-1,9.614847E-3,1.26582E-1,9.0909E-2,1.21212E-1,8.64154E-3,1.02564E-1,1.4422998E-2,6.173E-3,-2.5718315E-2,4.8611E-2,-3.2433406E-3,4.8913002E-2,6.329E-3,1.8692E-2,1.57895E-1,4.9154997E-2,3.6999956E-4,1.1905E-2,-6.022486E-2,9.091E-3,1.9231632E-2,-8.2944445E-2,9.614847E-3,-7.059154E-2,1.0689004E-1,8.30239E-2,-2.5718315E-2,-8.093584E-2,1.0375186E-1,-5.977614E-2,-1.0127666E-3,-4.481767E-3,-6.943163E-2,7.590905E-2,-4.766951E-2,-5.464868E-2,-3.8206022E-2,-6.1583575E-2,1.9231632E-2,-5.0569482E-2,-1.3889745E-2,7.038735E-3,-6.680999E-2,4.297466E-2,-6.022486E-2,-7.8399435E-2,-1.8456524E-2,1.3181694E-2,-4.8906725E-2,-7.64041E-2,-3.2433406E-3,-7.225621E-2,-3.2433406E-3,-6.572687E-2,4.9133338E-2,5.6398332E-2,-5.7963796E-2,9.490601E-2,-2.5718315E-2,1.05024256E-1,1.8381648E-2,3.74644E-2,-5.9582777E-2,9.8798506E-2,-2.5718315E-2,3.572765E-2,-4.4621583E-2,-6.9478296E-2,-3.7438233E-5,9.07614E-2,-2.3244789E-2,4.9133338E-2,-4.2722546E-2,7.0249744E-2,-4.8193287E-2,1.14633776E-1,1.9231632E-2],"split_indices":[0,0,1,1,1,0,0,1,0,1,6896,1,7103,0,1495,0,1,0,8040,373,59,1,7366,7416,0,1,1,0,1694,0,1840,6896,0,6914,6897,7364,0,0,0,7018,7002,8040,312,6685,0,3329,0,0,0,0,0,2683,5699,6991,0,0,7002,5790,1485,1648,0,1807,0,2913,0,0,7106,279,6889,0,0,1668,0,1262,0,0,0,6887,0,1,6788,7106,0,2795,0,0,0,1,0,7000,4816,4421,0,4140,278,256,0,1690,5754,2738,0,7106,0,7197,2833,4272,2614,6868,5687,2370,0,2739,0,0,0,0,0,0,0,0,0,0,0,0,0,0,0,0,0,0,0,0,0,0,0,0,0,0,0,0,0,0,0,0,0,0,0,0,0,0,0,0,0,0,0,0,0,0,0,0,0,0,0,0,0,0,0,0,0],"split_type":[0,0,0,0,0,0,0,0,0,0,0,0,0,0,0,0,0,0,0,0,0,0,0,0,0,0,0,0,0,0,0,0,0,0,0,0,0,0,0,0,0,0,0,0,0,0,0,0,0,0,0,0,0,0,0,0,0,0,0,0,0,0,0,0,0,0,0,0,0,0,0,0,0,0,0,0,0,0,0,0,0,0,0,0,0,0,0,0,0,0,0,0,0,0,0,0,0,0,0,0,0,0,0,0,0,0,0,0,0,0,0,0,0,0,0,0,0,0,0,0,0,0,0,0,0,0,0,0,0,0,0,0,0,0,0,0,0,0,0,0,0,0,0,0,0,0,0,0,0,0,0,0,0,0,0,0,0,0,0,0,0,0,0,0,0,0,0,0,0],"sum_hessian":[3.8986997E3,3.0232864E3,8.7541327E2,2.4408208E3,5.824658E2,4.786115E2,3.9680176E2,2.2091082E3,2.3171263E2,5.1951636E2,6.2949413E1,3.8700418E2,9.160732E1,6.5570264E2,1.5534054E3,6.711338E1,1.6459924E2,1.4451422E1,5.0506494E2,6.0500023E1,2.4493935E0,1.9766606E2,1.8933812E2,9.038262E1,1.2246968E0,1.4181989E2,5.1388275E2,1.5281766E3,2.5228754E1,1.2002028E1,5.5111355E1,1.4010532E2,2.4493937E1,4.5656696E2,4.8497993E1,5.9275326E1,1.2246968E0,1.2246968E0,1.2246968E0,3.9680176E1,1.5798589E2,1.8639885E2,2.9392724E0,8.8668045E1,1.7145755E0,1.1928547E2,2.253442E1,4.0414993E1,4.7346777E2,5.364172E1,1.4745349E3,1.4451422E1,1.0777331E1,5.364172E1,1.4696362E0,1.27858345E2,1.2246968E1,4.426054E2,1.3961543E1,4.653848E1,1.9595149E0,5.756075E1,1.7145755E0,3.79656E1,1.7145755E0,1.4206483E2,1.5921059E1,1.7929561E2,7.1032414E0,1.7145755E0,1.2246968E0,8.6708534E1,1.9595149E0,1.17815834E2,1.4696362E0,1.518624E1,7.348181E0,2.0085028E1,2.0329967E1,1.1928547E2,3.541823E2,3.012754E1,1.4444073E3,1.3226726E1,1.2246968E0,8.817817E0,1.9595149E0,5.1682205E1,1.9595149E0,7.005266E1,5.7805687E1,1.0287453E1,1.9595149E0,4.3452243E2,8.082999E0,1.2491907E1,1.4696362E0,4.114981E1,5.3886657E0,5.6336052E1,1.2246968E0,3.6740902E1,1.2246968E0,1.15611374E2,2.6453451E1,7.59312E0,8.327938E0,1.7464175E2,4.6538477E0,4.898787E0,2.2044542E0,8.548383E1,1.2246968E0,1.15856316E2,1.9595149E0,4.163969E0,1.1022271E1,1.886033E1,1.2246968E0,1.2246968E1,8.082999E0,9.038262E1,2.8902843E1,3.3654666E2,1.7635633E1,2.7678148E1,2.4493935E0,1.0169882E3,4.274192E2,1.2002028E1,1.2246968E0,2.8412966E1,2.326924E1,6.441905E1,5.633605E0,5.5601234E1,2.2044542E0,8.572878E0,1.7145755E0,4.2031595E2,1.4206483E1,6.858302E0,1.2246968E0,1.126721E1,1.2246968E0,3.9680176E1,1.4696362E0,3.429151E0,1.9595149E0,5.5111355E1,1.2246968E0,3.502633E1,1.7145755E0,1.11692345E2,3.9190297E0,2.5228754E1,1.2246968E0,5.3886657E0,2.2044542E0,6.613363E0,1.7145755E0,1.7194743E2,2.6943328E0,1.4696362E0,3.1842117E0,3.6740904E0,1.2246968E0,8.425914E1,1.2246968E0],"tree_param":{"num_deleted":"0","num_feature":"8114","num_nodes":"169","size_leaf_vector":"1"}},{"base_weights":[5.8520134E-3,-5.099474E-1,1.7568864E0,-7.0099413E-1,2.755488E-1,1.397262E0,1.0900891E-1,-7.903729E-1,1.6602513E-1,1.3131101E-1,1.4326458E0,1.1765324E0,1.8041523E0,-4.8900625E-1,-9.1813356E-1,-7.606694E-1,5.49804E-1,1.0373421E-1,6.112237E-2,1.5541447E0,-5.096091E-2,7.9055786E-1,1.5314833E0,1.8578851E0,-2.5471503E-1,-1.2279882E0,-2.8218243E-1,-9.370618E-1,2.157566E-1,-7.764756E-2,-5.7595384E-1,2.7021596E-1,1.05073564E-1,1.537064E-1,-8.3084816E-1,1.626786E0,-2.3493057E-2,1.0604276E-1,5.2493626E-1,1.5754133E0,-5.8911946E-2,1.8903755E0,-3.821227E-2,6.751607E-2,-6.326782E-2,-1.5378816E0,3.4041116E-1,-1.8010314E-1,-1.072683E0,-8.2939826E-2,-9.089649E-1,-8.583373E-1,1.4879072E0,-6.394096E-1,6.196555E-2,3.9080787E-1,-1.0665784E0,9.553184E-3,5.575003E-1,-1.0161891E0,9.07643E-1,1.6925886E0,-3.1057158E-2,6.2602115E-1,-9.7059363E-1,1.6195683E0,-5.9216183E-1,1.9281082E0,-2.4215399E-1,-1.5680572E0,9.288049E-3,1.2366867E0,-7.478764E-2,-4.3097258E-1,2.1866228E-1,-1.3039409E0,3.8593012E-1,1.2172012E0,-9.547597E-1,-5.3245664E-1,-6.865398E-2,9.8969035E-2,1.7123455E-1,-7.122246E-1,4.4079218E-2,2.7370375E-1,1.7640802E0,-1.3645359E0,4.0597063E-2,-4.2566624E-2,1.5052884E0,6.2486815E-1,-5.881797E-2,-1.2118521E0,1.2212623E-1,8.2212664E-2,-1.824805E-2,1.7490511E0,-2.6935274E-2,7.1656984E-1,-7.7768844E-1,-7.476397E-2,3.5502464E-2,1.6687311E0,-3.4888116E-1,-5.671627E-2,1.6618771E-2,1.9562122E0,-2.0415528E-2,-5.325198E-2,3.8827214E-2,-7.9600625E-2,2.5870556E-3,-6.664184E-2,1.01640336E-1,-4.00277E-2,-2.9454986E-4,6.948589E-2,-9.990989E-3,-6.9208436E-2,5.1987264E-3,6.5325245E-2,-3.581599E-2,6.951397E-2,-5.594879E-2,-5.249005E-2,-3.6472376E-2,-3.472269E-2,2.0084152E-2,5.6959357E-2,-5.312852E-2,-3.902747E-2,5.0235875E-2,-3.4293092E-3,3.6540452E-2,1.7443733E-2,1.0104983E-1,-2.8738683E-2,-7.5245656E-2,3.7656407E-4,-5.713073E-2,-2.4281036E-2,9.8132275E-2,3.3986975E-2,-6.308103E-2,-6.691357E-2,1.0328864E-2,4.895738E-2,-3.3439416E-2,8.958378E-2,-5.834937E-3,4.006348E-2,-4.2555597E-2,-6.24819E-2,9.298519E-3,8.547825E-2,-9.937507E-3,-5.9618026E-2,3.495982E-2,9.894423E-2,-2.6000842E-2],"categories":[],"categories_nodes":[],"categories_segments":[],"categories_sizes":[],"default_left":[0,0,0,0,0,0,0,0,0,0,0,0,0,0,0,0,0,0,0,0,0,0,0,0,0,0,0,0,0,0,0,0,0,0,0,0,0,0,0,0,0,0,0,0,0,0,0,0,0,0,0,0,0,0,0,0,0,0,0,0,0,0,0,0,0,0,0,0,0,0,0,0,0,0,0,0,0,0,0,0,0,0,0,0,0,0,0,0,0,0,0,0,0,0,0,0,0,0,0,0,0,0,0,0,0,0,0,0,0,0,0,0,0,0,0,0,0,0,0,0,0,0,0,0,0,0,0,0,0,0,0,0,0,0,0,0,0,0,0,0,0,0,0,0,0,0,0,0,0,0,0,0,0,0,0,0,0,0,0,0,0],"id":1,"left_children":[1,3,5,7,9,11,-1,13,15,17,19,21,23,25,27,29,31,-1,33,35,-1,37,39,41,43,45,47,49,51,-1,53,55,-1,57,59,61,-1,-1,63,65,-1,67,-1,-1,-1,69,71,73,75,-1,77,79,81,83,-1,85,87,89,91,93,95,97,-1,99,101,103,105,107,109,111,-1,113,-1,115,117,119,121,123,125,127,-1,-1,129,131,-1,133,135,137,-1,139,141,143,-1,145,147,-1,-1,149,-1,151,153,-1,-1,155,157,-1,-1,159,-1,-1,-1,-1,-1,-1,-1,-1,-1,-1,-1,-1,-1,-1,-1,-1,-1,-1,-1,-1,-1,-1,-1,-1,-1,-1,-1,-1,-1,-1,-1,-1,-1,-1,-1,-1,-1,-1,-1,-1,-1,-1,-1,-1,-1,-1,-1,-1,-1,-1,-1,-1,-1],"loss_changes":[3.5350408E3,4.539037E2,1.3252539E2,1.886095E2,9.864871E1,4.1373047E1,0E0,8.4452515E1,8.1549416E1,7.1848076E1,2.110765E1,4.2197693E1,1.910846E1,1.0031903E2,3.3414185E1,8.943985E0,6.9667496E1,0E0,4.2269547E1,1.00034485E1,0E0,5.3252647E1,2.1377197E1,1.5440796E1,1.0084959E1,7.038104E1,4.1437397E1,2.9360352E1,3.7104836E1,0E0,7.255226E0,2.2716011E1,0E0,2.6954292E1,1.6434689E1,1.0057632E1,0E0,0E0,2.0196568E1,1.6444946E1,0E0,1.3547607E1,0E0,0E0,0E0,6.5429688E0,4.2222538E1,4.5922546E1,2.0337334E1,0E0,1.4403784E2,1.7600718E0,7.665369E0,6.7048798E0,0E0,2.0039312E1,7.6644993E0,2.6751148E1,1.4965557E1,9.942783E0,5.443034E0,8.42865E0,0E0,1.6061642E1,8.641678E0,1.5953674E1,2.3632076E0,1.1294617E1,3.9410238E0,4.670227E0,0E0,3.755229E1,0E0,4.4225468E1,8.729927E1,5.9024734E0,9.883875E0,1.4243427E1,3.0006348E1,1.9022748E0,0E0,0E0,6.533082E0,6.9919033E0,0E0,1.863308E1,2.8738613E0,2.972622E-1,0E0,1.829272E1,1.1474113E1,1.306461E1,0E0,7.0219917E0,5.6428647E0,0E0,0E0,4.836899E0,0E0,1.596661E1,3.8122792E0,0E0,0E0,1.2170319E1,4.9863954E0,0E0,0E0,9.906189E0,0E0,0E0,0E0,0E0,0E0,0E0,0E0,0E0,0E0,0E0,0E0,0E0,0E0,0E0,0E0,0E0,0E0,0E0,0E0,0E0,0E0,0E0,0E0,0E0,0E0,0E0,0E0,0E0,0E0,0E0,0E0,0E0,0E0,0E0,0E0,0E0,0E0,0E0,0E0,0E0,0E0,0E0,0E0,0E0,0E0,0E0,0E0,0E0,0E0,0E0,0E0,0E0,0E0],"parents":[2147483647,0,0,1,1,2,2,3,3,4,4,5,5,7,7,8,8,9,9,10,10,11,11,12,12,13,13,14,14,15,15,16,16,18,18,19,19,21,21,22,22,23,23,24,24,25,25,26,26,27,27,28,28,30,30,31,31,33,33,34,34,35,35,38,38,39,39,41,41,45,45,46,46,47,47,48,48,50,50,51,51,52,52,53,53,55,55,56,56,57,57,58,58,59,59,60,60,61,61,63,63,64,64,65,65,66,66,67,67,68,68,69,69,71,71,73,73,74,74,75,75,76,76,77,77,78,78,79,79,82,82,83,83,85,85,86,86,87,87,89,89,90,90,91,91,93,93,94,94,97,97,99,99,100,100,103,103,104,104,107,107],"right_children":[2,4,6,8,10,12,-1,14,16,18,20,22,24,26,28,30,32,-1,34,36,-1,38,40,42,44,46,48,50,52,-1,54,56,-1,58,60,62,-1,-1,64,66,-1,68,-1,-1,-1,70,72,74,76,-1,78,80,82,84,-1,86,88,90,92,94,96,98,-1,100,102,104,106,108,110,112,-1,114,-1,116,118,120,122,124,126,128,-1,-1,130,132,-1,134,136,138,-1,140,142,144,-1,146,148,-1,-1,150,-1,152,154,-1,-1,156,158,-1,-1,160,-1,-1,-1,-1,-1,-1,-1,-1,-1,-1,-1,-1,-1,-1,-1,-1,-1,-1,-1,-1,-1,-1,-1,-1,-1,-1,-1,-1,-1,-1,-1,-1,-1,-1,-1,-1,-1,-1,-1,-1,-1,-1,-1,-1,-1,-1,-1,-1,-1,-1,-1,-1,-1],"split_conditions":[9.375E-1,9.0625E-1,1E0,9.6875E-1,9.84375E-1,9.6875E-1,1.0900891E-1,8.4375E-1,8.59375E-1,8.125E-1,2.1680016E-3,9.53125E-1,4.4763982E-2,7.03125E-1,4.23077E-1,8.28125E-1,1E0,1.0373421E-1,1.4714001E-2,1.8315002E-2,-5.096091E-2,8.75E-1,1.0576899E-1,7.3529005E-2,6.25E-2,8.28125E-1,2.3309886E-3,6.71875E-1,1.09375E-1,-7.764756E-2,8.85E-3,4.9999997E-2,1.05073564E-1,9.53125E-1,6.0606E-2,2.725E-3,-2.3493057E-2,1.0604276E-1,4.137899E-2,3.5352997E-2,-5.8911946E-2,1.6129E-2,-3.821227E-2,6.751607E-2,-6.326782E-2,1.17647E-1,6.71875E-1,8.4375E-1,2.14286E-1,-8.2939826E-2,7.1875E-1,9.4700046E-4,1.45299E-1,1.37931E-1,6.196555E-2,6.80556E-1,2.8571002E-2,6.15385E-1,3.496501E-2,1.8182E-2,9.2105E-2,3.700005E-4,-3.1057158E-2,1.9231E-2,2.6316E-2,2.850902E-2,9.53125E-1,1.9736998E-2,8.4507E-2,9.5238E-2,9.288049E-3,4.53125E-1,-7.478764E-2,7.8125E-1,7.8125E-1,4.1667E-2,7.017499E-2,3.3333004E-2,8.75E-1,2.375E-3,-6.865398E-2,9.8969035E-2,3.3299997E-4,2.725E-3,4.4079218E-2,8.90625E-1,3.968E-3,7.463E-3,4.0597063E-2,1.7544E-2,5E-2,4.992E-2,-5.881797E-2,6.667E-3,2.923999E-3,8.2212664E-2,-1.824805E-2,2.03704E-1,-2.6935274E-2,6.4100027E-3,1.5493E-1,-7.476397E-2,3.5502464E-2,1.70213E-1,1.11111E-1,-5.671627E-2,1.6618771E-2,1.66667E-1,-2.0415528E-2,-5.325198E-2,3.8827214E-2,-7.9600625E-2,2.5870556E-3,-6.664184E-2,1.01640336E-1,-4.00277E-2,-2.9454986E-4,6.948589E-2,-9.990989E-3,-6.9208436E-2,5.1987264E-3,6.5325245E-2,-3.581599E-2,6.951397E-2,-5.594879E-2,-5.249005E-2,-3.6472376E-2,-3.472269E-2,2.0084152E-2,5.6959357E-2,-5.312852E-2,-3.902747E-2,5.0235875E-2,-3.4293092E-3,3.6540452E-2,1.7443733E-2,1.0104983E-1,-2.8738683E-2,-7.5245656E-2,3.7656407E-4,-5.713073E-2,-2.4281036E-2,9.8132275E-2,3.3986975E-2,-6.308103E-2,-6.691357E-2,1.0328864E-2,4.895738E-2,-3.3439416E-2,8.958378E-2,-5.834937E-3,4.006348E-2,-4.2555597E-2,-6.24819E-2,9.298519E-3,8.547825E-2,-9.937507E-3,-5.9618026E-2,3.495982E-2,9.894423E-2,-2.6000842E-2],"split_indices":[0,0,1,1,1,0,0,1,0,1,7111,1,7103,0,1495,0,1,0,6976,7364,0,1,6873,6918,1592,1,7208,0,4294,0,1840,6872,0,1,1804,34,0,0,6107,6272,0,6984,0,0,0,1262,0,0,4407,0,0,8068,7207,1828,0,240,7124,4662,6892,4274,7212,6866,0,4495,6897,6881,0,6525,4280,4311,0,0,0,1,1,1504,8042,8047,0,2691,0,0,6873,2226,0,0,4634,4296,0,7229,1672,6844,0,1669,8016,0,0,1714,0,7003,1791,0,0,708,6881,0,0,7416,0,0,0,0,0,0,0,0,0,0,0,0,0,0,0,0,0,0,0,0,0,0,0,0,0,0,0,0,0,0,0,0,0,0,0,0,0,0,0,0,0,0,0,0,0,0,0,0,0,0,0,0,0],"split_type":[0,0,0,0,0,0,0,0,0,0,0,0,0,0,0,0,0,0,0,0,0,0,0,0,0,0,0,0,0,0,0,0,0,0,0,0,0,0,0,0,0,0,0,0,0,0,0,0,0,0,0,0,0,0,0,0,0,0,0,0,0,0,0,0,0,0,0,0,0,0,0,0,0,0,0,0,0,0,0,0,0,0,0,0,0,0,0,0,0,0,0,0,0,0,0,0,0,0,0,0,0,0,0,0,0,0,0,0,0,0,0,0,0,0,0,0,0,0,0,0,0,0,0,0,0,0,0,0,0,0,0,0,0,0,0,0,0,0,0,0,0,0,0,0,0,0,0,0,0,0,0,0,0,0,0,0,0,0,0,0,0],"sum_hessian":[3.9119907E3,3.022397E3,8.8959393E2,2.4311946E3,5.9120233E2,4.832935E2,4.063004E2,2.204071E3,2.2712363E2,5.2666455E2,6.453782E1,3.1584537E2,1.6744812E2,6.576376E2,1.5464333E3,6.6226715E1,1.6089691E2,1.7362953E1,5.0930157E2,6.1839573E1,2.6982422E0,1.5285626E2,1.629891E2,1.632843E2,4.1638246E0,1.4272903E2,5.1490857E2,1.521213E3,2.5220337E1,1.1120677E1,5.510604E1,1.3732675E2,2.3570154E1,4.621585E2,4.7143074E1,5.988651E1,1.953064E0,2.4278608E1,1.2857767E2,1.6080081E2,2.1882973E0,1.615615E2,1.7228134E0,1.4789486E0,2.684876E0,1.1919689E2,2.353214E1,4.571088E2,5.7799763E1,5.4826664E1,1.4663864E3,1.3851021E1,1.1369317E1,5.387066E1,1.2353839E0,1.266127E2,1.0714051E1,3.413288E2,1.20829704E2,4.2976784E1,4.1662874E0,5.8423355E1,1.4631538E0,1.2098175E2,7.5959115E0,1.5783835E2,2.9624622E0,1.5884673E2,2.7147524E0,1.1723473E2,1.9621528E0,1.6032686E1,7.4994545E0,2.8053757E2,1.7657124E2,4.9981422E1,7.81834E0,3.0378784E1,1.4360076E3,9.727197E0,4.1238236E0,7.912502E0,3.456815E0,5.1916958E1,1.9536998E0,1.1776937E2,8.843332E0,9.483463E0,1.2305887E0,3.3077432E2,1.0554491E1,1.1692623E2,3.9034758E0,3.661798E1,6.3588023E0,2.453887E0,1.7124003E0,5.719224E1,1.2311127E0,1.1411038E2,6.8713684E0,5.872766E0,1.7231456E0,1.5414088E2,3.6974576E0,1.7243587E0,1.2381035E0,1.5711954E2,1.7272004E0,1.4765401E0,1.2382125E0,1.1554311E2,1.6916196E0,3.6329532E0,1.2399733E1,1.4959282E2,1.3094473E2,4.5875397E1,1.3069585E2,4.7302814E1,2.678609E0,4.1592875E0,3.6590524E0,2.8660343E1,1.7184407E0,1.00740424E3,4.286033E2,8.508287E0,1.21891E0,1.9800787E0,1.4767363E0,5.0454533E1,1.4624271E0,6.782818E1,4.9941193E1,1.7210395E0,7.1222925E0,2.2001135E0,7.2833495E0,3.1731638E2,1.3457931E1,1.9601246E0,8.594367E0,1.1424298E2,2.6832464E0,3.3673317E1,2.9446645E0,2.9376361E0,3.4211664E0,5.5953644E1,1.238599E0,1.0872499E2,5.3853908E0,4.4132347E0,2.4581342E0,1.5092534E2,3.2155468E0,1.9724171E0,1.7250404E0,1.5589302E2,1.2265183E0],"tree_param":{"num_deleted":"0","num_feature":"8114","num_nodes":"161","size_leaf_vector":"1"}},{"base_weights":[9.885282E-3,-4.7790366E-1,1.6612726E0,-6.6357577E-1,2.8035077E-1,1.3648561E0,1.9292731E0,-7.847324E-1,-3.4840593E-1,3.7901297E-1,-7.858139E-1,1.4066323E0,-5.8070433E-1,1.9512688E0,-3.0515885E-1,-7.191137E-1,-1.233818E0,-2.642586E-1,-1.0655383E0,4.2590138E-1,-8.032334E-1,-9.372251E-1,7.282334E-1,1.4579971E0,-1.6997693E-1,-1.0443983E0,4.029924E-2,1.9633936E0,-2.803427E-2,6.523397E-2,-6.276308E-2,-7.6220226E-1,3.214992E-1,-9.591994E-1,-1.4663457E0,-3.2195392E-1,6.8960303E-1,-1.15128E0,7.5110435E-2,4.780711E-1,-6.768984E-1,-9.448355E-1,4.0820632E-2,-1.0226088E0,5.9845265E-2,7.2531305E-2,-4.515054E-2,1.4999653E0,-2.3331046E-1,8.99025E-1,-1.132623E0,-6.752609E-2,7.1427585E-3,1.9754503E0,-2.7037188E-2,-1.380431E0,-7.132162E-1,-4.003246E-1,1.1471322E0,-1.0697484E0,2.570342E-1,-1.4893609E0,2.0270992E-2,-2.8492066E-1,-1.2570437E0,6.745219E-2,1.8108112E0,-1.2576126E0,4.9570552E-1,5.161147E-1,-1.2465568E0,-8.716849E-1,6.850544E-2,-1.1270897E0,1.7510174E-2,-1.1111691E0,4.7287937E-2,1.5343347E0,-4.253756E-1,-5.5497694E-1,6.103165E-2,1.29501E0,-2.8083606E-2,-7.350429E-2,1.8867357E-2,1.9859368E0,-2.3908695E-2,-1.4134418E0,3.9992888E-2,-6.7373276E-1,-1.28631E0,-1.0758282E0,4.6636605E-1,1.4026746E0,-5.884996E-2,-1.1678813E0,-1.0374725E-1,-2.7978328E-1,7.6977484E-2,-1.5126384E0,1.0378574E-2,-2.3534831E-1,-9.038107E-1,-1.3793416E0,2.1415807E-2,5.902001E-1,-9.1396266E-1,1.0061612E-1,1.7709626E-2,-1.311954E0,4.3402504E-2,7.156611E-2,-5.0492324E-2,5.690056E-1,-5.6597275E-1,-7.3244125E-2,-7.756489E-3,-1.0862005E0,5.4558884E-2,-1.3565676E0,2.0833272E-1,-1.1880481E0,4.298916E-2,1.555301E0,-5.2408345E-2,-9.404536E-1,2.871576E-2,-8.495798E-1,3.824857E-2,7.4310586E-2,1.5676463E-2,1.9963081E0,-2.2588216E-2,-7.233801E-2,1.9449651E-2,-3.1757914E-2,-6.770337E-2,-6.69032E-2,5.159693E-2,-6.0076315E-2,2.1400467E-2,-1.9638458E-2,9.520626E-2,2.5862856E-2,9.666851E-2,-6.1407454E-2,5.0523076E-3,5.2766014E-2,-4.6906184E-2,-3.8117036E-2,5.160231E-2,-7.721598E-2,-1.0380877E-2,-9.585368E-3,-5.2785464E-2,-5.263395E-2,4.265542E-2,-7.757568E-2,-1.7157061E-2,1.1428771E-2,8.6127095E-2,-5.9564203E-2,2.0596594E-2,-6.8405345E-2,4.279253E-2,3.0219475E-2,-5.0918426E-2,-4.8729654E-2,3.0218868E-2,-5.9974838E-2,2.0216148E-2,-7.644938E-2,-6.232483E-3,-3.029472E-3,1.9169264E-2,-6.325633E-2,2.8509084E-2,7.899501E-2,-3.2274377E-2,-5.7169057E-2,-6.9879103E-3,-5.4182865E-2,6.0564736E-3,1.0043998E-1,-9.386829E-3],"categories":[],"categories_nodes":[],"categories_segments":[],"categories_sizes":[],"default_left":[0,0,0,0,0,0,0,0,0,0,0,0,0,0,0,0,0,0,0,0,0,0,0,0,0,0,0,0,0,0,0,0,0,0,0,0,0,0,0,0,0,0,0,0,0,0,0,0,0,0,0,0,0,0,0,0,0,0,0,0,0,0,0,0,0,0,0,0,0,0,0,0,0,0,0,0,0,0,0,0,0,0,0,0,0,0,0,0,0,0,0,0,0,0,0,0,0,0,0,0,0,0,0,0,0,0,0,0,0,0,0,0,0,0,0,0,0,0,0,0,0,0,0,0,0,0,0,0,0,0,0,0,0,0,0,0,0,0,0,0,0,0,0,0,0,0,0,0,0,0,0,0,0,0,0,0,0,0,0,0,0,0,0,0,0,0,0,0,0,0,0,0,0,0,0,0,0,0,0,0,0,0,0,0,0],"id":2,"left_children":[1,3,5,7,9,11,13,15,17,19,21,23,25,27,29,31,33,35,37,39,41,43,45,47,49,51,-1,53,-1,-1,-1,55,57,59,61,63,65,67,-1,69,71,73,-1,75,-1,-1,-1,77,79,81,83,-1,-1,85,-1,87,89,91,93,95,97,99,-1,101,103,105,107,109,111,113,115,117,-1,119,-1,121,-1,123,125,127,-1,129,-1,-1,-1,131,-1,133,-1,135,137,139,141,143,-1,145,147,149,-1,151,-1,153,155,157,-1,159,161,-1,-1,163,-1,-1,-1,165,167,-1,-1,169,-1,171,173,175,-1,177,-1,179,-1,181,-1,-1,-1,183,-1,-1,-1,-1,-1,-1,-1,-1,-1,-1,-1,-1,-1,-1,-1,-1,-1,-1,-1,-1,-1,-1,-1,-1,-1,-1,-1,-1,-1,-1,-1,-1,-1,-1,-1,-1,-1,-1,-1,-1,-1,-1,-1,-1,-1,-1,-1,-1,-1,-1,-1,-1,-1],"loss_changes":[3.1352903E3,4.2320813E2,6.787207E1,9.190381E1,6.2542393E1,3.5346985E1,2.3384644E1,5.0472534E1,4.0275887E1,3.0403084E1,1.2246925E1,3.395276E1,7.039283E0,1.5089722E1,9.873785E0,6.853735E1,1.2692871E1,3.339859E1,1.719619E1,3.0370323E1,5.59529E0,9.660202E0,7.377404E0,2.8967712E1,1.545334E1,2.976449E0,0E0,1.4875366E1,0E0,0E0,0E0,4.3316223E1,3.6968784E1,1.4275307E1,5.673004E0,1.9350906E1,2.408476E1,1.2627953E1,0E0,3.339972E1,1.0765417E1,5.0694256E0,0E0,8.904888E0,0E0,0E0,0E0,2.6694763E1,5.647769E0,4.8942556E0,4.541177E0,0E0,0E0,1.2665527E1,0E0,8.783371E0,2.9850098E1,2.0071613E1,1.877626E1,8.945694E0,6.9590964E0,4.9140015E0,0E0,1.6622963E1,4.9993134E0,1.2522204E1,2.9109573E0,8.609299E0,8.311629E0,2.8319199E1,2.4101295E0,1.0671625E1,0E0,5.6759815E0,0E0,7.6241875E0,0E0,2.2576904E1,4.497244E0,4.301198E0,0E0,6.543751E-1,0E0,0E0,0E0,1.2369873E1,0E0,6.874756E0,0E0,3.252411E1,1.1746506E1,4.122429E0,1.9695162E1,1.1421215E1,0E0,6.756653E0,1.058151E1,5.553925E0,0E0,4.4339905E0,0E0,1.8035198E1,1.1449692E1,3.0675392E0,0E0,6.095391E0,3.6197166E0,0E0,0E0,8.895645E0,0E0,0E0,0E0,2.6839218E1,1.1730612E1,0E0,0E0,3.9993649E0,0E0,3.0277653E0,1.8552998E-1,6.461937E0,0E0,2.1816956E1,0E0,7.258868E-1,0E0,1.9831624E0,0E0,0E0,0E0,1.270459E1,0E0,0E0,0E0,0E0,0E0,0E0,0E0,0E0,0E0,0E0,0E0,0E0,0E0,0E0,0E0,0E0,0E0,0E0,0E0,0E0,0E0,0E0,0E0,0E0,0E0,0E0,0E0,0E0,0E0,0E0,0E0,0E0,0E0,0E0,0E0,0E0,0E0,0E0,0E0,0E0,0E0,0E0,0E0,0E0,0E0,0E0,0E0,0E0,0E0,0E0,0E0,0E0,0E0],"parents":[2147483647,0,0,1,1,2,2,3,3,4,4,5,5,6,6,7,7,8,8,9,9,10,10,11,11,12,12,13,13,14,14,15,15,16,16,17,17,18,18,19,19,20,20,21,21,22,22,23,23,24,24,25,25,27,27,31,31,32,32,33,33,34,34,35,35,36,36,37,37,39,39,40,40,41,41,43,43,47,47,48,48,49,49,50,50,53,53,55,55,56,56,57,57,58,58,59,59,60,60,61,61,63,63,64,64,65,65,66,66,67,67,68,68,69,69,70,70,71,71,73,73,75,75,77,77,78,78,79,79,81,81,85,85,87,87,89,89,90,90,91,91,92,92,93,93,95,95,96,96,97,97,99,99,101,101,102,102,103,103,105,105,106,106,109,109,113,113,114,114,117,117,119,119,120,120,121,121,123,123,125,125,127,127,131,131],"right_children":[2,4,6,8,10,12,14,16,18,20,22,24,26,28,30,32,34,36,38,40,42,44,46,48,50,52,-1,54,-1,-1,-1,56,58,60,62,64,66,68,-1,70,72,74,-1,76,-1,-1,-1,78,80,82,84,-1,-1,86,-1,88,90,92,94,96,98,100,-1,102,104,106,108,110,112,114,116,118,-1,120,-1,122,-1,124,126,128,-1,130,-1,-1,-1,132,-1,134,-1,136,138,140,142,144,-1,146,148,150,-1,152,-1,154,156,158,-1,160,162,-1,-1,164,-1,-1,-1,166,168,-1,-1,170,-1,172,174,176,-1,178,-1,180,-1,182,-1,-1,-1,184,-1,-1,-1,-1,-1,-1,-1,-1,-1,-1,-1,-1,-1,-1,-1,-1,-1,-1,-1,-1,-1,-1,-1,-1,-1,-1,-1,-1,-1,-1,-1,-1,-1,-1,-1,-1,-1,-1,-1,-1,-1,-1,-1,-1,-1,-1,-1,-1,-1,-1,-1,-1,-1],"split_conditions":[9.375E-1,9.0625E-1,9.6875E-1,8.75E-1,3.4054995E-2,3.5352997E-2,4.4763982E-2,2.1680016E-3,4.5925997E-2,1.3135999E-2,1.4141399E-1,3.5714E-2,2.2222199E-1,3.0303E-2,6.25E-2,4.28571E-1,1.0340009E-3,1.35593E-1,5.5E-1,1.5685998E-2,1.03448E-1,9.6774E-2,9.091005E-3,1.4270004E-3,4.221E-3,7.246E-3,4.029924E-2,2.9412E-2,-2.803427E-2,6.523397E-2,-6.276308E-2,6.40625E-1,4.11765E-1,9.5238E-2,1.88679E-1,1.5150994E-2,1.90476E-1,4.5889005E-2,7.5110435E-2,1.0256E-2,1.00917E-1,7.2727E-2,4.0820632E-2,1.02564E-1,5.9845265E-2,7.2531305E-2,-4.515054E-2,2.8322995E-2,8.621E-3,1.8519E-2,1.3072E-2,-6.752609E-2,7.1427585E-3,4.7619045E-2,-2.7037188E-2,1.11111E-1,7.6899864E-4,3.3333E-2,1E-1,5.2632E-2,2.3199618E-4,1.85759E-1,2.0270992E-2,9.524003E-3,1.7789975E-3,4.5455E-2,1.7643005E-2,2.5641E-2,1.00000024E-1,1.5762992E-2,2.8069995E-2,5.128E-3,6.850544E-2,2.2222199E-1,1.7510174E-2,6.0606E-2,4.7287937E-2,2.833E-3,1.4286E-2,5.8824E-2,6.103165E-2,2.8017E-2,-2.8083606E-2,-7.350429E-2,1.8867357E-2,1.2698002E-2,-2.3908695E-2,9.346E-3,3.9992888E-2,7.5200014E-4,1.42857E-1,1.034E-3,1.75E-1,2.6087001E-2,-5.884996E-2,3.4483E-2,3.8158E-2,1.5999997E-1,7.6977484E-2,1.17647E-1,1.0378574E-2,1.0908999E-2,4.8479997E-3,2.0408E-2,2.1415807E-2,1.33333E-1,1.7195001E-2,1.0061612E-1,1.7709626E-2,4.7619E-2,4.3402504E-2,7.156611E-2,-5.0492324E-2,2.8571E-2,9.0625E-2,-7.3244125E-2,-7.756489E-3,1.6667008E-2,5.4558884E-2,6.536E-3,1.28205E-1,4.8739E-2,4.298916E-2,7.132001E-3,-5.2408345E-2,2.72727E-1,2.871576E-2,2E-3,3.824857E-2,7.4310586E-2,1.5676463E-2,2.4096E-2,-2.2588216E-2,-7.233801E-2,1.9449651E-2,-3.1757914E-2,-6.770337E-2,-6.69032E-2,5.159693E-2,-6.0076315E-2,2.1400467E-2,-1.9638458E-2,9.520626E-2,2.5862856E-2,9.666851E-2,-6.1407454E-2,5.0523076E-3,5.2766014E-2,-4.6906184E-2,-3.8117036E-2,5.160231E-2,-7.721598E-2,-1.0380877E-2,-9.585368E-3,-5.2785464E-2,-5.263395E-2,4.265542E-2,-7.757568E-2,-1.7157061E-2,1.1428771E-2,8.6127095E-2,-5.9564203E-2,2.0596594E-2,-6.8405345E-2,4.279253E-2,3.0219475E-2,-5.0918426E-2,-4.8729654E-2,3.0218868E-2,-5.9974838E-2,2.0216148E-2,-7.644938E-2,-6.232483E-3,-3.029472E-3,1.9169264E-2,-6.325633E-2,2.8509084E-2,7.899501E-2,-3.2274377E-2,-5.7169057E-2,-6.9879103E-3,-5.4182865E-2,6.0564736E-3,1.0043998E-1,-9.386829E-3],"split_indices":[0,0,0,0,8040,6272,7103,6889,6896,6890,8022,5699,6272,5745,1592,4662,6995,1694,5720,7081,4391,6977,6896,8025,6998,2478,0,7384,0,0,0,0,4219,1591,4416,7195,2614,6068,0,6111,3025,4187,0,1690,0,0,0,6219,2531,269,1575,0,0,6317,0,599,6900,4511,5750,1717,6982,8035,0,6976,5767,7104,8039,6769,6896,7014,6109,3855,0,6890,0,5693,0,6164,1984,2981,0,5676,0,0,0,5656,0,1344,0,6480,1638,138,1807,7111,0,4499,7366,6788,0,7184,0,6688,6603,1585,0,344,6975,0,0,296,0,0,0,5735,7014,0,0,7118,0,61,1482,5805,0,6805,0,6219,0,1680,0,0,0,5491,0,0,0,0,0,0,0,0,0,0,0,0,0,0,0,0,0,0,0,0,0,0,0,0,0,0,0,0,0,0,0,0,0,0,0,0,0,0,0,0,0,0,0,0,0,0,0,0,0,0,0,0,0],"split_type":[0,0,0,0,0,0,0,0,0,0,0,0,0,0,0,0,0,0,0,0,0,0,0,0,0,0,0,0,0,0,0,0,0,0,0,0,0,0,0,0,0,0,0,0,0,0,0,0,0,0,0,0,0,0,0,0,0,0,0,0,0,0,0,0,0,0,0,0,0,0,0,0,0,0,0,0,0,0,0,0,0,0,0,0,0,0,0,0,0,0,0,0,0,0,0,0,0,0,0,0,0,0,0,0,0,0,0,0,0,0,0,0,0,0,0,0,0,0,0,0,0,0,0,0,0,0,0,0,0,0,0,0,0,0,0,0,0,0,0,0,0,0,0,0,0,0,0,0,0,0,0,0,0,0,0,0,0,0,0,0,0,0,0,0,0,0,0,0,0,0,0,0,0,0,0,0,0,0,0,0,0,0,0,0,0],"sum_hessian":[3.8902297E3,3.003703E3,8.86527E2,2.4129692E3,5.9073364E2,4.2383994E2,4.62687E2,1.7418735E3,6.7109564E2,5.412877E2,4.944591E1,4.152015E2,8.638443E0,4.5830225E2,4.3847723E0,1.5220751E3,2.1979845E2,6.018445E2,6.925115E1,5.212543E2,2.0033417E1,4.5297E1,4.1489124E0,4.021742E2,1.3027304E1,6.658689E0,1.9797542E0,4.5631805E2,1.9842072E0,1.4888654E0,2.895907E0,1.4618135E3,6.0261593E1,1.0312792E2,1.1667053E2,5.681423E2,3.370223E1,6.754726E1,1.703889E0,4.9825024E2,2.300404E1,1.8805899E1,1.2275171E0,4.405524E1,1.2417601E0,2.9522426E0,1.1966697E0,3.9254666E2,9.627552E0,6.20398E0,6.8233237E0,5.184414E0,1.474275E0,4.5434167E2,1.9763823E0,1.0532901E2,1.3564845E3,3.2426926E1,2.7834667E1,9.46456E1,8.48232E0,1.1545519E2,1.2153352E0,5.477537E2,2.0388523E1,2.2356768E1,1.134546E1,6.3672832E1,3.8744273E0,4.8818216E2,1.0068087E1,2.1529528E1,1.474513E0,1.6599495E1,2.2064044E0,4.2575195E1,1.4800448E0,3.858617E2,6.684955E0,8.389727E0,1.2378249E0,4.9700603E0,1.2339191E0,5.598524E0,1.2247992E0,4.5259793E2,1.7437449E0,1.0410453E2,1.22448E0,1.2710883E3,8.539623E1,1.8087849E1,1.4339078E1,2.5434565E1,2.4001021E0,8.5727806E1,8.917797E0,6.5306563E0,1.9516635E0,1.1400001E2,1.4551854E0,5.0841092E2,3.9342834E1,1.917842E1,1.2101054E0,1.48471155E1,7.509652E0,9.631515E0,1.7139444E0,6.2458908E1,1.2139243E0,2.419899E0,1.4545285E0,4.6588455E2,2.2297613E1,8.10468E0,1.963407E0,1.9811058E1,1.7184685E0,1.4151823E1,2.447672E0,4.135916E1,1.2160355E0,3.8314883E2,2.7128615E0,4.4509273E0,2.234028E0,7.1502066E0,1.2395202E0,3.7293026E0,1.2407581E0,4.5086078E2,1.73715E0,1.02408806E2,1.6957209E0,1.2047153E3,6.637296E1,8.394501E1,1.4512286E0,1.687812E1,1.2097282E0,9.430617E0,4.908461E0,1.0271755E1,1.516281E1,8.187145E1,3.8563542E0,3.6218004E0,5.2959967E0,5.080619E0,1.4500375E0,1.1111909E2,2.880924E0,4.839023E2,2.4508589E1,3.6639145E1,2.7036905E0,1.6019375E1,3.1590428E0,1.2164213E1,2.6829026E0,6.294609E0,1.2150431E0,6.1241463E1,1.2174449E0,4.563318E2,9.552759E0,1.665121E1,5.6464014E0,1.8593033E1,1.2180254E0,1.2202773E1,1.9490505E0,1.2228945E0,1.2247772E0,3.9890854E1,1.4683068E0,3.791925E2,3.9563134E0,3.2095232E0,1.2414038E0,5.667247E0,1.4829599E0,4.483766E2,2.4841814E0],"tree_param":{"num_deleted":"0","num_feature":"8114","num_nodes":"185","size_leaf_vector":"1"}},{"base_weights":[-8.1135944E-4,-4.628595E-1,1.5670811E0,-6.401513E-1,2.5246075E-1,1.2285942E0,9.813973E-2,-6.943394E-1,6.544154E-1,1.2118892E-1,1.3002769E0,1.0816665E0,1.8182118E0,-4.0886945E-1,-8.0583763E-1,-2.6408044E-1,9.474379E-1,9.6569575E-2,5.7499506E-2,1.3976109E0,-4.5077693E-2,8.0091244E-1,1.363458E0,1.847354E0,-9.711293E-3,-1.1508368E0,-2.1127242E-1,-9.0014774E-1,-3.4639937E-1,9.691729E-2,-7.780361E-1,3.7890393E-1,9.969565E-2,1.6146432E-1,-8.9446664E-1,1.4594901E0,-4.8459757E-2,1.616197E0,5.778568E-1,1.4208658E0,3.0636255E-2,1.8750012E0,4.575129E-3,-1.4504564E0,3.0828536E-1,7.284932E-1,-2.8889036E-1,-4.3360516E-1,-9.6542877E-1,-6.6709524E-1,4.7189468E-1,-8.771869E-1,2.1710742E-2,5.6473184E-1,-6.698672E-2,2.0738648E-1,-8.7181616E-1,-9.8258436E-1,4.307267E-2,1.5189914E0,-3.0630171E-2,1.7157573E0,-2.1482086E-2,7.0312226E-1,-5.4277474E-1,1.4550784E0,-6.075826E-1,7.984912E-1,-6.384067E-2,1.8953573E0,1.1369328E-2,-1.4815956E0,1.0848769E-2,1.1904101E0,-7.1431585E-2,1.4835039E0,-9.069901E-2,-1.0976475E0,-1.7144817E-1,-7.821656E-2,7.502058E-2,-9.8285854E-1,-1.4658473E-1,-7.7807695E-2,-5.6490475E-1,5.587441E-1,-6.3545965E-2,-1.0029542E0,3.2485425E-3,6.8731225E-1,-4.9679004E-2,1.6877319E-1,1.4203048E0,-1.0813022E0,3.397968E-1,-1.0461328E0,4.0676504E-2,1.5708759E0,-2.7664695E-2,1.8036233E0,-1.6130574E-2,5.012E-1,1.5596101E0,-8.7938786E-1,8.187669E-1,1.4980402E0,-2.010902E-1,-5.2775364E-2,1.8919654E-3,2.1080467E-1,6.8016455E-2,1.9160906E0,1.1728453E-2,-7.535123E-2,2.352057E-2,-6.2740944E-2,9.766459E-2,8.422025E-2,-4.718281E-2,-7.500058E-2,9.42516E-2,-8.166925E-2,4.1038137E-2,-3.7443084E-3,-4.6740916E-2,6.034676E-2,-1.7810017E-2,-4.6714988E-2,-6.471725E-2,-3.0164568E-2,6.434356E-2,-2.3717152E-2,-6.730955E-2,3.2121394E-2,-5.340436E-2,-5.3894218E-2,-6.6133577E-4,4.0470142E-2,-4.644112E-2,1.0112872E-2,-5.7566643E-2,9.687295E-2,-3.3193488E-2,-6.309182E-2,1.1129617E-2,-2.5068328E-2,4.7820956E-2,-5.5600185E-2,3.9285667E-2,8.054251E-2,-8.557553E-3,9.3726374E-2,-8.508015E-3,1.7951308E-2,8.619415E-2,8.4525146E-2,-2.9777303E-2,-6.423476E-2,2.0850943E-2,6.517673E-2,-4.451218E-3,7.665968E-2,-2.6856387E-2,-3.8044933E-2,3.1343196E-2,-1.1173272E-2,3.4587853E-2,9.681946E-2,1.3371504E-2],"categories":[],"categories_nodes":[],"categories_segments":[],"categories_sizes":[],"default_left":[0,0,0,0,0,0,0,0,0,0,0,0,0,0,0,0,0,0,0,0,0,0,0,0,0,0,0,0,0,0,0,0,0,0,0,0,0,0,0,0,0,0,0,0,0,0,0,0,0,0,0,0,0,0,0,0,0,0,0,0,0,0,0,0,0,0,0,0,0,0,0,0,0,0,0,0,0,0,0,0,0,0,0,0,0,0,0,0,0,0,0,0,0,0,0,0,0,0,0,0,0,0,0,0,0,0,0,0,0,0,0,0,0,0,0,0,0,0,0,0,0,0,0,0,0,0,0,0,0,0,0,0,0,0,0,0,0,0,0,0,0,0,0,0,0,0,0,0,0,0,0,0,0,0,0,0,0,0,0,0,0,0,0,0,0,0,0,0,0],"id":3,"left_children":[1,3,5,7,9,11,-1,13,15,17,19,21,23,25,27,29,31,-1,33,35,-1,37,39,41,-1,43,45,47,49,-1,51,53,-1,55,57,59,-1,61,63,65,67,69,-1,71,73,75,77,79,81,83,85,87,-1,89,-1,91,93,95,-1,97,-1,99,-1,101,103,105,107,109,-1,111,-1,113,-1,115,-1,117,119,121,123,-1,125,127,129,-1,131,133,-1,135,-1,137,-1,139,141,143,145,147,-1,149,-1,151,-1,153,155,157,159,161,163,-1,-1,165,-1,167,-1,-1,-1,-1,-1,-1,-1,-1,-1,-1,-1,-1,-1,-1,-1,-1,-1,-1,-1,-1,-1,-1,-1,-1,-1,-1,-1,-1,-1,-1,-1,-1,-1,-1,-1,-1,-1,-1,-1,-1,-1,-1,-1,-1,-1,-1,-1,-1,-1,-1,-1,-1,-1,-1,-1,-1,-1],"loss_changes":[2.8083682E3,3.7988934E2,1.1577734E2,1.6879938E2,8.174341E1,3.946466E1,0E0,7.3000854E1,2.633776E1,6.1021152E1,1.5445145E1,2.9391937E1,5.867737E0,9.492527E1,7.143042E1,2.8930403E1,4.3094963E1,0E0,5.0941547E1,1.0755302E1,0E0,3.460707E1,1.4561432E1,4.3279114E0,0E0,6.003087E1,3.769084E1,4.140149E1,7.474251E1,0E0,2.82755E0,1.640329E1,0E0,2.2177225E1,8.689091E0,8.642838E0,0E0,9.175224E0,2.2141388E1,1.3582275E1,9.958676E0,2.627777E0,0E0,6.2015533E0,3.8539097E1,2.45561E1,4.4961437E1,9.80966E1,1.7036133E1,1.7670944E1,1.2885902E1,2.3340282E0,0E0,9.262552E0,0E0,2.0585283E1,5.4228745E0,6.4133263E0,0E0,7.437973E0,0E0,7.693161E0,0E0,2.3406357E1,8.121504E0,1.3125305E1,1.1212827E0,1.7685966E0,0E0,2.6478577E0,0E0,6.2335205E0,0E0,3.321299E1,0E0,1.1636959E1,5.8182056E1,6.309803E1,3.0613525E1,0E0,5.8251442E1,1.6615845E1,1.7970646E1,0E0,1.2429558E1,1.12121315E1,0E0,1.2430267E0,0E0,9.084581E0,0E0,1.9331308E1,1.5927372E1,4.334608E0,2.3970757E0,6.605797E0,0E0,4.44429E0,0E0,5.667259E0,0E0,1.9311396E1,8.400154E0,7.5926533E0,1.7526743E0,1.3400543E1,2.9978461E0,0E0,0E0,1.0372063E0,0E0,2.4506226E0,0E0,0E0,0E0,0E0,0E0,0E0,0E0,0E0,0E0,0E0,0E0,0E0,0E0,0E0,0E0,0E0,0E0,0E0,0E0,0E0,0E0,0E0,0E0,0E0,0E0,0E0,0E0,0E0,0E0,0E0,0E0,0E0,0E0,0E0,0E0,0E0,0E0,0E0,0E0,0E0,0E0,0E0,0E0,0E0,0E0,0E0,0E0,0E0,0E0,0E0,0E0,0E0,0E0,0E0,0E0,0E0,0E0],"parents":[2147483647,0,0,1,1,2,2,3,3,4,4,5,5,7,7,8,8,9,9,10,10,11,11,12,12,13,13,14,14,15,15,16,16,18,18,19,19,21,21,22,22,23,23,25,25,26,26,27,27,28,28,30,30,31,31,33,33,34,34,35,35,37,37,38,38,39,39,40,40,41,41,43,43,44,44,45,45,46,46,47,47,48,48,49,49,50,50,51,51,53,53,55,55,56,56,57,57,59,59,61,61,63,63,64,64,65,65,66,66,67,67,69,69,71,71,73,73,75,75,76,76,77,77,78,78,80,80,81,81,82,82,84,84,85,85,87,87,89,89,91,91,92,92,93,93,94,94,95,95,97,97,99,99,101,101,102,102,103,103,104,104,105,105,106,106,109,109,111,111],"right_children":[2,4,6,8,10,12,-1,14,16,18,20,22,24,26,28,30,32,-1,34,36,-1,38,40,42,-1,44,46,48,50,-1,52,54,-1,56,58,60,-1,62,64,66,68,70,-1,72,74,76,78,80,82,84,86,88,-1,90,-1,92,94,96,-1,98,-1,100,-1,102,104,106,108,110,-1,112,-1,114,-1,116,-1,118,120,122,124,-1,126,128,130,-1,132,134,-1,136,-1,138,-1,140,142,144,146,148,-1,150,-1,152,-1,154,156,158,160,162,164,-1,-1,166,-1,168,-1,-1,-1,-1,-1,-1,-1,-1,-1,-1,-1,-1,-1,-1,-1,-1,-1,-1,-1,-1,-1,-1,-1,-1,-1,-1,-1,-1,-1,-1,-1,-1,-1,-1,-1,-1,-1,-1,-1,-1,-1,-1,-1,-1,-1,-1,-1,-1,-1,-1,-1,-1,-1,-1,-1,-1,-1],"split_conditions":[9.375E-1,9.0625E-1,1E0,9.84375E-1,9.84375E-1,9.84375E-1,9.813973E-2,8.4375E-1,8.59375E-1,8.125E-1,2.1680016E-3,9.53125E-1,3.1401E-2,7.03125E-1,9.53125E-1,8.4375E-1,1E0,9.6569575E-2,2.7342E-2,1.2900084E-3,-4.5077693E-2,8.75E-1,3.9473996E-2,1.7857E-2,-9.711293E-3,8.28125E-1,7.1875E-1,7.8125E-1,8.90625E-1,9.691729E-2,9.5238E-2,1.3636008E-2,9.969565E-2,1.4286E-2,2.1E-1,2.725E-3,-4.8459757E-2,9.059999E-4,9.444002E-3,3.8460996E-2,1.35135E-1,1.76471E-1,4.575129E-3,1.17647E-1,6.71875E-1,7.65625E-1,7.5E-1,6.71875E-1,4.66667E-1,8.125E-1,6.7568E-2,3.04348E-1,2.1710742E-2,4.329E-3,-6.698672E-2,3.6E-1,2.2222199E-1,8.3333E-2,4.307267E-2,6.9399923E-4,-3.0630171E-2,3.3333E-2,-2.1482086E-2,9.6875E-1,1.36364E-1,5.8824E-2,6.7568E-2,7.126E-3,-6.384067E-2,5.45455E-1,1.1369328E-2,9.5238E-2,1.0848769E-2,4.53125E-1,-7.1431585E-2,2.3199618E-4,8.28125E-1,8.59375E-1,1.4564991E-2,-7.821656E-2,7.1875E-1,1.2421995E-2,3.01887E-1,-7.7807695E-2,2.2388E-2,2.833E-3,-6.3545965E-2,5.0633E-2,3.2485425E-3,1.6892001E-2,-4.9679004E-2,2.5E-2,1.70213E-1,2.375E-3,9.0625E-1,1.2899299E-1,4.0676504E-2,8.065E-3,-2.7664695E-2,9.346E-3,-1.6130574E-2,6.5789E-2,8.1799924E-4,1.21212E-1,8E-3,4.9154997E-2,3.4375E-1,-5.2775364E-2,1.8919654E-3,8.163E-3,6.8016455E-2,4.751E-3,1.1728453E-2,-7.535123E-2,2.352057E-2,-6.2740944E-2,9.766459E-2,8.422025E-2,-4.718281E-2,-7.500058E-2,9.42516E-2,-8.166925E-2,4.1038137E-2,-3.7443084E-3,-4.6740916E-2,6.034676E-2,-1.7810017E-2,-4.6714988E-2,-6.471725E-2,-3.0164568E-2,6.434356E-2,-2.3717152E-2,-6.730955E-2,3.2121394E-2,-5.340436E-2,-5.3894218E-2,-6.6133577E-4,4.0470142E-2,-4.644112E-2,1.0112872E-2,-5.7566643E-2,9.687295E-2,-3.3193488E-2,-6.309182E-2,1.1129617E-2,-2.5068328E-2,4.7820956E-2,-5.5600185E-2,3.9285667E-2,8.054251E-2,-8.557553E-3,9.3726374E-2,-8.508015E-3,1.7951308E-2,8.619415E-2,8.4525146E-2,-2.9777303E-2,-6.423476E-2,2.0850943E-2,6.517673E-2,-4.451218E-3,7.665968E-2,-2.6856387E-2,-3.8044933E-2,3.1343196E-2,-1.1173272E-2,3.4587853E-2,9.681946E-2,1.3371504E-2],"split_indices":[0,0,1,1,1,0,0,1,0,1,7111,1,7120,0,1,0,1,0,8040,6867,0,1,8040,7416,0,1,1,0,0,0,1678,6896,0,6890,6066,34,0,6716,7002,5901,2634,863,0,1262,0,0,1,0,4508,0,6897,1820,0,4381,0,5334,6890,4373,0,6168,0,4287,0,0,4298,279,3197,2660,0,1315,0,4311,0,0,0,6982,0,0,6977,0,0,8040,240,0,6889,2896,0,3024,0,7080,0,6197,4168,2685,1,6897,0,228,0,262,0,4294,7730,1694,4272,6868,279,0,0,1384,0,1826,0,0,0,0,0,0,0,0,0,0,0,0,0,0,0,0,0,0,0,0,0,0,0,0,0,0,0,0,0,0,0,0,0,0,0,0,0,0,0,0,0,0,0,0,0,0,0,0,0,0,0,0,0,0,0,0,0],"split_type":[0,0,0,0,0,0,0,0,0,0,0,0,0,0,0,0,0,0,0,0,0,0,0,0,0,0,0,0,0,0,0,0,0,0,0,0,0,0,0,0,0,0,0,0,0,0,0,0,0,0,0,0,0,0,0,0,0,0,0,0,0,0,0,0,0,0,0,0,0,0,0,0,0,0,0,0,0,0,0,0,0,0,0,0,0,0,0,0,0,0,0,0,0,0,0,0,0,0,0,0,0,0,0,0,0,0,0,0,0,0,0,0,0,0,0,0,0,0,0,0,0,0,0,0,0,0,0,0,0,0,0,0,0,0,0,0,0,0,0,0,0,0,0,0,0,0,0,0,0,0,0,0,0,0,0,0,0,0,0,0,0,0,0,0,0,0,0,0,0],"sum_hessian":[3.874594E3,2.9932166E3,8.813775E2,2.3987842E3,5.944325E2,4.7725012E2,4.0412738E2,2.3028547E3,9.592935E1,5.292438E2,6.518872E1,3.843163E2,9.293381E1,6.4812396E2,1.6547307E3,2.3225729E1,7.270362E1,1.6991123E1,5.122527E2,6.2778774E1,2.4099476E0,1.944372E2,1.8987912E2,9.1688095E1,1.2457118E0,1.3529051E2,5.128335E2,1.372114E3,2.8261673E2,3.8700767E0,1.9355654E1,4.7992245E1,2.4711376E1,4.6256595E2,4.9686726E1,6.1552856E1,1.2259212E0,4.0427185E1,1.5401001E2,1.8197498E2,7.904144E0,9.0199974E1,1.4881184E0,1.12247314E2,2.3043192E1,3.8485195E1,4.743483E2,1.6936421E2,1.2027498E3,2.0317545E2,7.944129E1,1.8147736E1,1.2079169E0,4.3915306E1,4.0769386E0,4.4364816E2,1.8917791E1,4.7731808E1,1.9549191E0,6.0094147E1,1.4587089E0,3.870496E1,1.722226E0,1.3886058E2,1.5149428E1,1.792346E2,2.7403722E0,5.2248855E0,2.6792586E0,8.895063E1,1.2493409E0,1.10298935E2,1.9483818E0,1.5490635E1,7.552557E0,1.9605135E1,1.8880058E1,5.9089104E1,4.152592E2,5.190301E1,1.174612E2,1.1774857E3,2.5264103E1,1.9479103E1,1.8369635E2,7.6317566E1,3.1237218E0,1.5953586E1,2.1941504E0,4.1230927E1,2.6843817E0,4.3106436E2,1.2583797E1,1.6220795E1,2.6969974E0,4.6504E1,1.2278048E0,5.8862347E1,1.2317979E0,3.7215893E1,1.4890677E0,1.1365169E2,2.52089E1,1.2430393E1,2.7190356E0,1.7479579E2,4.4388123E0,1.242617E0,1.4977552E0,3.2258394E0,1.9990461E0,8.7702034E1,1.2486013E0,1.09105576E2,1.1933606E0,3.5302968E0,1.1960338E1,1.8389053E1,1.2160817E0,1.1160163E1,7.7198963E0,4.6306168E1,1.2782937E1,3.696044E2,4.5654774E1,3.190767E1,8.555353E1,1.0221398E3,1.553459E2,1.9598919E1,5.6651835E0,1.660554E2,1.7640945E1,7.315938E1,3.158194E0,1.4747977E1,1.2056087E0,3.8799034E1,2.431893E0,4.212268E2,9.837556E0,1.0138491E1,2.4453073E0,1.4276375E1,1.944419E0,1.2198532E0,1.4771442E0,4.5269142E1,1.2348597E0,5.7615543E1,1.246803E0,3.597389E1,1.2420017E0,1.0297175E2,1.0679941E1,2.3968765E1,1.2401352E0,9.476654E0,2.953739E0,1.4883201E0,1.2307155E0,1.7207027E2,2.7255192E0,2.6965623E0,1.74225E0,1.9765271E0,1.2493124E0,8.646296E1,1.2390699E0],"tree_param":{"num_deleted":"0","num_feature":"8114","num_nodes":"169","size_leaf_vector":"1"}},{"base_weights":[-5.6291684E-3,-4.508478E-1,1.4988799E0,-6.804967E-1,6.571827E-2,1.1790557E0,9.363129E-2,-7.10742E-1,2.6147696E-1,-2.524707E-1,6.746471E-1,9.73931E-1,1.5614797E0,-4.3888146E-1,-8.277673E-1,-1.10390194E-1,8.064861E-1,1.4653939E0,-3.37874E-1,4.8648474E-1,1.4612459E0,6.306153E-1,1.2775345E0,1.6056601E0,-3.099405E-1,-1.1475023E0,-2.2680798E-1,-7.6641023E-1,-1.2060475E0,9.038668E-2,-3.5949576E-1,1.052589E0,-5.856926E-2,5.7257396E-1,1.0092727E-1,-8.423373E-1,-6.347342E-2,5.9885967E-1,-5.8875394E-1,1.5137953E0,-2.8973756E-2,9.235244E-2,3.7637806E-1,1.3369156E0,-5.3967863E-1,1.6325017E0,-3.771017E-2,5.6146692E-2,-5.8523048E-2,-1.4117477E0,1.6609897E-1,-1.21933006E-1,-9.0079844E-1,-8.031637E-1,5.3841287E-1,-1.23911E0,4.1804346E-1,-4.943177E-1,7.275795E-2,1.2326921E0,-5.119049E-2,-6.8686716E-2,8.560293E-2,-8.8746804E-1,1.2812729E0,2.0899298E-2,-1.0521334E0,6.42525E-1,-1.118111E0,-8.2974607E-1,7.196097E-2,1.5672823E0,-1.6949123E-2,4.733669E-1,-9.854884E-1,1.3789258E0,-4.8496768E-2,2.3432314E-2,-6.4065695E-2,1.6597264E0,-3.7367035E-2,-1.4439E0,3.3763714E-2,1.0510855E0,-7.008124E-2,-1.9769762E-1,1.3132402E0,-1.0345595E0,1.0846577E0,-7.573118E-2,-7.7429706E-1,-4.197614E-1,1.4119259E0,-1.2814225E0,1.0399299E-1,7.7560484E-2,-5.0132334E-2,-5.897021E-1,4.7871035E-2,1.4067578E0,-4.9020134E-2,-9.135371E-1,8.7617594E-1,1.2132888E-2,8.3819196E-2,-4.57304E-2,9.050365E-1,-1.3077352E0,8.054096E-1,5.452799E-1,1.4920336E0,-6.806395E-2,-4.1971332E-3,-1.0776154E0,4.316946E-1,1.6067889E0,2.5400494E-3,5.4125047E-1,-6.869496E-2,-1.2509238E0,1.6644718E-2,1.4209945E0,-6.0673356E-1,1.6858306E0,-3.3131074E-2,-7.342367E-2,7.8034713E-3,-6.191984E-2,9.224402E-2,3.1029407E-2,-1.37807755E-2,7.661624E-2,-4.7376662E-2,-5.600953E-2,6.8643354E-2,-1.2606448E-3,7.545744E-2,5.5123515E-2,-4.114867E-2,-4.8364032E-2,1.5452852E-2,9.307027E-2,1.8779961E-3,-6.5463796E-2,2.316021E-2,-4.327643E-2,8.3014555E-2,-4.4197317E-2,-5.5289413E-3,7.524111E-2,-5.22848E-3,-4.699616E-2,4.2555526E-2,6.760182E-2,2.2384327E-5,-4.4551026E-4,-7.593837E-2,7.839181E-2,-1.3212486E-2,-7.034265E-2,1.9776454E-2,7.326682E-2,-2.2818165E-2,2.9048664E-2,-6.572444E-2,8.568975E-2,-5.132375E-2,-6.233572E-2,2.9233838E-2,5.8018006E-2,-3.120712E-2,5.687089E-2,8.9740835E-2,3.0697152E-2,-5.437382E-2,-7.2956584E-2,-6.109929E-3,7.243823E-2,-5.5371623E-2,1.68823E-2,-5.7868887E-2,8.565193E-2,-2.3609182E-2],"categories":[],"categories_nodes":[],"categories_segments":[],"categories_sizes":[],"default_left":[0,0,0,0,0,0,0,0,0,0,0,0,0,0,0,0,0,0,0,0,0,0,0,0,0,0,0,0,0,0,0,0,0,0,0,0,0,0,0,0,0,0,0,0,0,0,0,0,0,0,0,0,0,0,0,0,0,0,0,0,0,0,0,0,0,0,0,0,0,0,0,0,0,0,0,0,0,0,0,0,0,0,0,0,0,0,0,0,0,0,0,0,0,0,0,0,0,0,0,0,0,0,0,0,0,0,0,0,0,0,0,0,0,0,0,0,0,0,0,0,0,0,0,0,0,0,0,0,0,0,0,0,0,0,0,0,0,0,0,0,0,0,0,0,0,0,0,0,0,0,0,0,0,0,0,0,0,0,0,0,0,0,0,0,0,0,0,0,0,0,0,0,0,0,0,0,0,0,0,0,0,0,0],"id":4,"left_children":[1,3,5,7,9,11,-1,13,15,17,19,21,23,25,27,29,31,33,35,37,39,41,43,45,47,49,51,53,55,-1,57,59,-1,61,-1,63,65,67,69,71,-1,-1,73,75,77,79,-1,-1,-1,81,83,85,87,89,91,93,95,97,-1,99,-1,-1,-1,101,103,105,107,109,111,113,-1,115,-1,117,119,121,-1,-1,-1,123,-1,125,-1,127,-1,129,131,133,135,-1,137,139,141,143,145,-1,-1,147,-1,149,-1,151,153,-1,-1,155,157,159,161,163,165,-1,-1,167,169,171,-1,173,-1,175,-1,177,179,181,-1,-1,-1,-1,-1,-1,-1,-1,-1,-1,-1,-1,-1,-1,-1,-1,-1,-1,-1,-1,-1,-1,-1,-1,-1,-1,-1,-1,-1,-1,-1,-1,-1,-1,-1,-1,-1,-1,-1,-1,-1,-1,-1,-1,-1,-1,-1,-1,-1,-1,-1,-1,-1,-1,-1,-1,-1,-1,-1],"loss_changes":[2.5776597E3,3.5230786E2,1.02829956E2,5.875299E1,1.7741049E2,3.5836548E1,0E0,6.3011475E1,1.3198326E1,8.8748505E1,4.579666E1,3.1779724E1,1.4106934E1,9.014381E1,3.1371155E1,1.9441504E1,1.4061258E1,1.3006638E1,7.93842E1,3.117215E1,7.328308E0,4.5289425E1,1.8519043E1,1.1427277E1,7.0287595E0,4.8247253E1,3.270568E1,5.7979797E1,1.0851837E1,0E0,9.439287E0,1.02240505E1,0E0,2.9777428E1,0E0,2.0506088E1,3.1117E1,1.8068947E1,1.3236E1,6.3705597E0,0E0,0E0,1.6877176E1,1.6843384E1,5.0360174E0,1.1572784E1,0E0,0E0,0E0,8.70932E0,3.4853756E1,4.406871E1,1.768229E1,2.2804932E1,2.8608921E1,1.0866333E1,8.94041E0,5.2620735E0,0E0,1.0048939E1,0E0,0E0,0E0,9.925964E0,1.4869709E0,2.0332287E1,1.4979115E1,1.788301E1,1.420876E0,7.5492764E0,0E0,3.360138E0,0E0,1.5372438E1,3.4205217E0,1.4023163E1,0E0,0E0,0E0,1.0694275E1,0E0,4.704605E0,0E0,3.1271585E1,0E0,2.4626657E1,1.1523235E1,1.3686642E1,2.122301E0,0E0,1.0359235E2,6.9764423E0,1.0888519E1,9.507324E0,1.1535932E1,0E0,0E0,4.4771404E0,0E0,3.3105164E0,0E0,9.929932E0,1.4169011E0,0E0,0E0,1.7410471E1,1.9158857E1,4.9735336E0,4.13817E0,1.4348736E1,1.4420853E1,0E0,0E0,6.131998E0,4.136145E0,2.8969727E0,0E0,1.4074902E1,0E0,1.5504189E0,0E0,1.2458374E1,2.45498E0,9.998108E0,0E0,0E0,0E0,0E0,0E0,0E0,0E0,0E0,0E0,0E0,0E0,0E0,0E0,0E0,0E0,0E0,0E0,0E0,0E0,0E0,0E0,0E0,0E0,0E0,0E0,0E0,0E0,0E0,0E0,0E0,0E0,0E0,0E0,0E0,0E0,0E0,0E0,0E0,0E0,0E0,0E0,0E0,0E0,0E0,0E0,0E0,0E0,0E0,0E0,0E0,0E0,0E0,0E0,0E0,0E0,0E0,0E0,0E0,0E0],"parents":[2147483647,0,0,1,1,2,2,3,3,4,4,5,5,7,7,8,8,9,9,10,10,11,11,12,12,13,13,14,14,15,15,16,16,17,17,18,18,19,19,20,20,21,21,22,22,23,23,24,24,25,25,26,26,27,27,28,28,30,30,31,31,33,33,35,35,36,36,37,37,38,38,39,39,42,42,43,43,44,44,45,45,49,49,50,50,51,51,52,52,53,53,54,54,55,55,56,56,57,57,59,59,63,63,64,64,65,65,66,66,67,67,68,68,69,69,71,71,73,73,74,74,75,75,79,79,81,81,83,83,85,85,86,86,87,87,88,88,90,90,91,91,92,92,93,93,94,94,97,97,99,99,101,101,102,102,105,105,106,106,107,107,108,108,109,109,110,110,113,113,114,114,115,115,117,117,119,119,121,121,122,122,123,123],"right_children":[2,4,6,8,10,12,-1,14,16,18,20,22,24,26,28,30,32,34,36,38,40,42,44,46,48,50,52,54,56,-1,58,60,-1,62,-1,64,66,68,70,72,-1,-1,74,76,78,80,-1,-1,-1,82,84,86,88,90,92,94,96,98,-1,100,-1,-1,-1,102,104,106,108,110,112,114,-1,116,-1,118,120,122,-1,-1,-1,124,-1,126,-1,128,-1,130,132,134,136,-1,138,140,142,144,146,-1,-1,148,-1,150,-1,152,154,-1,-1,156,158,160,162,164,166,-1,-1,168,170,172,-1,174,-1,176,-1,178,180,182,-1,-1,-1,-1,-1,-1,-1,-1,-1,-1,-1,-1,-1,-1,-1,-1,-1,-1,-1,-1,-1,-1,-1,-1,-1,-1,-1,-1,-1,-1,-1,-1,-1,-1,-1,-1,-1,-1,-1,-1,-1,-1,-1,-1,-1,-1,-1,-1,-1,-1,-1,-1,-1,-1,-1,-1,-1,-1,-1],"split_conditions":[9.375E-1,8.90625E-1,1E0,9.84375E-1,9.53125E-1,9.6875E-1,9.363129E-2,8.4375E-1,8.75E-1,8.125E-1,1E0,9.53125E-1,4.4763982E-2,7.03125E-1,8.4500015E-4,8.4375E-1,1.5873015E-2,7.96875E-1,9.0625E-1,1.255E-2,1.8520057E-3,8.75E-1,4.7619E-2,6.0600042E-3,6.25E-2,8.28125E-1,5.7139993E-3,6.47059E-1,3.33333E-1,9.038668E-2,6.9767E-2,1.5240004E-3,-5.856926E-2,9.0625E-1,1.0092727E-1,5.19231E-1,4.2402E-2,4.6875E-2,3.15789E-1,7.956997E-3,-2.8973756E-2,9.235244E-2,3.9869994E-3,3.5352997E-2,4.219E-3,4.7619045E-2,-3.771017E-2,5.6146692E-2,-5.8523048E-2,1.19048E-1,6.71875E-1,3.4E-1,2.85714E-1,6.71875E-1,1.49254E-1,9.6774E-2,2.009999E-4,1.1905E-2,7.275795E-2,2.4900213E-4,-5.119049E-2,-6.8686716E-2,8.560293E-2,1.4285803E-1,1.90476E-1,1.31148E-1,4.7619E-1,8.85E-3,4.5455E-2,1.8868E-2,7.196097E-2,4.329E-3,-1.6949123E-2,9.0909E-2,2.1739E-2,4.9154997E-2,-4.8496768E-2,2.3432314E-2,-6.4065695E-2,7.3529005E-2,-3.7367035E-2,3.5714E-2,3.3763714E-2,4.53125E-1,-7.008124E-2,7.1875E-1,1.0749996E-3,3.3333302E-1,2.66667E-1,-7.573118E-2,7.1875E-1,9.091005E-3,3.2258E-2,7.519E-3,1.14754E-1,7.7560484E-2,-5.0132334E-2,8.59375E-1,4.7871035E-2,9.5238E-2,-4.9020134E-2,2.10526E-1,4.5455E-2,1.2132888E-2,8.3819196E-2,7.007003E-3,1.4422998E-2,6.6667E-2,4.8387E-2,8.3333E-2,1.1364E-2,-6.806395E-2,-4.1971332E-3,1.71429E-1,5.8824E-2,9.21875E-1,2.5400494E-3,1.588E-3,-6.869496E-2,1.5493E-1,1.6644718E-2,6.66667E-1,8.6957E-2,4.3137997E-2,-3.3131074E-2,-7.342367E-2,7.8034713E-3,-6.191984E-2,9.224402E-2,3.1029407E-2,-1.37807755E-2,7.661624E-2,-4.7376662E-2,-5.600953E-2,6.8643354E-2,-1.2606448E-3,7.545744E-2,5.5123515E-2,-4.114867E-2,-4.8364032E-2,1.5452852E-2,9.307027E-2,1.8779961E-3,-6.5463796E-2,2.316021E-2,-4.327643E-2,8.3014555E-2,-4.4197317E-2,-5.5289413E-3,7.524111E-2,-5.22848E-3,-4.699616E-2,4.2555526E-2,6.760182E-2,2.2384327E-5,-4.4551026E-4,-7.593837E-2,7.839181E-2,-1.3212486E-2,-7.034265E-2,1.9776454E-2,7.326682E-2,-2.2818165E-2,2.9048664E-2,-6.572444E-2,8.568975E-2,-5.132375E-2,-6.233572E-2,2.9233838E-2,5.8018006E-2,-3.120712E-2,5.687089E-2,8.9740835E-2,3.0697152E-2,-5.437382E-2,-7.2956584E-2,-6.109929E-3,7.243823E-2,-5.5371623E-2,1.68823E-2,-5.7868887E-2,8.565193E-2,-2.3609182E-2],"split_indices":[0,0,1,1,1,0,0,1,0,1,1,1,7103,0,6889,0,7104,1,0,6976,7267,1,6872,5810,1592,1,6872,3016,6894,0,4212,7339,0,0,0,1486,6873,6973,2634,6999,0,0,7199,6272,3099,6317,0,0,0,625,0,4662,8016,0,1495,7184,6107,319,0,6546,0,0,0,5692,134,3107,2630,1569,4421,4274,0,702,0,7364,1585,6868,0,0,0,6918,0,2822,0,0,0,1,6788,7045,1284,0,0,7111,6917,1871,1817,0,0,0,0,3803,0,8042,632,0,0,5537,8040,6985,4272,6913,7009,0,0,1694,1775,0,0,6039,0,1791,0,1939,1460,7181,0,0,0,0,0,0,0,0,0,0,0,0,0,0,0,0,0,0,0,0,0,0,0,0,0,0,0,0,0,0,0,0,0,0,0,0,0,0,0,0,0,0,0,0,0,0,0,0,0,0,0,0,0,0,0,0,0,0,0],"split_type":[0,0,0,0,0,0,0,0,0,0,0,0,0,0,0,0,0,0,0,0,0,0,0,0,0,0,0,0,0,0,0,0,0,0,0,0,0,0,0,0,0,0,0,0,0,0,0,0,0,0,0,0,0,0,0,0,0,0,0,0,0,0,0,0,0,0,0,0,0,0,0,0,0,0,0,0,0,0,0,0,0,0,0,0,0,0,0,0,0,0,0,0,0,0,0,0,0,0,0,0,0,0,0,0,0,0,0,0,0,0,0,0,0,0,0,0,0,0,0,0,0,0,0,0,0,0,0,0,0,0,0,0,0,0,0,0,0,0,0,0,0,0,0,0,0,0,0,0,0,0,0,0,0,0,0,0,0,0,0,0,0,0,0,0,0,0,0,0,0,0,0,0,0,0,0,0,0,0,0,0,0,0,0],"sum_hessian":[3.8461895E3,2.9684558E3,8.7773364E2,2.054689E3,9.1376697E2,4.7522546E2,4.0250818E2,1.9910062E3,6.3682644E1,6.005445E2,3.1322244E2,3.1162354E2,1.6360191E2,6.0057214E2,1.3904342E3,3.8328228E1,2.5354416E1,2.7676695E1,5.728678E2,2.5406581E2,5.9156635E1,1.476911E2,1.6393243E2,1.5996742E2,3.6344917E0,1.3732025E2,4.6325186E2,1.1989847E3,1.914494E2,3.6863408E0,3.4641884E1,2.296477E1,2.389647E0,1.1366154E1,1.6310541E1,2.0109718E2,3.7177066E2,2.304266E2,2.3639212E1,5.7923298E1,1.2333393E0,2.4448547E1,1.2324255E2,1.5900107E2,4.931371E0,1.5847314E2,1.4942853E0,1.2493012E0,2.3851905E0,1.14260735E2,2.3059525E1,4.0189645E2,6.1355408E1,1.1665116E3,3.247311E1,1.8786205E2,3.587363E0,3.2923397E1,1.7184867E0,2.1505732E1,1.4590368E0,4.1212454E0,7.244909E0,1.9748239E2,3.6147795E0,3.4344016E2,2.8330484E1,2.2532208E2,5.1045256E0,2.1656528E1,1.9826822E0,5.644782E1,1.4754796E0,1.1565808E2,7.5844746E0,1.5655232E2,2.4487386E0,2.2459183E0,2.685453E0,1.5697992E2,1.4932164E0,1.12830635E2,1.4300942E0,1.4949831E1,8.1096945E0,3.825627E2,1.9333725E1,5.793147E1,3.4239388E0,4.347739E1,1.1230343E3,1.5733819E1,1.6739292E1,1.8216899E2,5.6930475E0,1.9445149E0,1.6428481E0,3.1450768E1,1.4726317E0,2.027537E1,1.2303628E0,1.9508086E2,2.4015431E0,1.4410058E0,2.1737738E0,3.2025372E2,2.318645E1,2.5163872E1,3.1666126E0,2.0365154E2,2.1670547E1,3.8766832E0,1.2278423E0,1.8221737E1,3.434791E0,5.4956566E1,1.491251E0,1.1224045E2,3.417629E0,6.3559694E0,1.2285049E0,1.5358286E2,2.969477E0,1.5550606E2,1.4738731E0,1.1120487E2,1.6257664E0,3.7046611E0,1.124517E1,3.2655315E1,3.499074E2,1.7919422E1,1.4143037E0,5.6457973E1,1.4734924E0,1.2074791E0,2.2164595E0,2.784364E1,1.0951907E3,8.797543E0,6.9362764E0,1.234692E1,4.392372E0,1.7955194E2,2.6170526E0,3.781287E0,1.9117608E0,1.8961195E1,1.2489573E1,1.9043983E1,1.231387E0,1.9266733E2,2.413525E0,1.2036139E0,1.1979291E0,3.1342535E2,6.828366E0,1.4580672E1,8.605777E0,2.3944498E1,1.2193724E0,1.9732443E0,1.1933683E0,2.0049124E2,3.1602898E0,2.021048E1,1.4600677E0,1.6766178E1,1.4555591E0,1.973691E0,1.4611001E0,1.7734755E1,3.722181E1,1.0804145E2,4.1990023E0,5.118982E0,1.236988E0,1.5233673E2,1.2461259E0,1.2361833E0,1.7332937E0,1.537735E2,1.7325566E0],"tree_param":{"num_deleted":"0","num_feature":"8114","num_nodes":"183","size_leaf_vector":"1"}},{"base_weights":[2.1133912E-3,-4.238066E-1,1.426092E0,-5.8929497E-1,2.4134436E-1,1.1207149E0,8.9709245E-2,-6.664074E-1,1.3347095E-1,1.138529E-1,1.262398E0,9.225867E-1,1.4832484E0,-3.8966888E-1,-7.845872E-1,-5.801421E-1,4.181531E-1,8.7919675E-2,5.662913E-2,1.3584498E0,-4.451574E-2,6.1563015E-1,1.2131032E0,1.5268545E0,-5.2167153E-1,-1.0925149E0,-1.9878559E-1,-3.908319E-1,-8.345822E-1,-7.0914306E-2,-3.9474687E-1,1.7389509E-1,9.2267506E-2,1.4641139E-1,-7.6015335E-1,1.4154437E0,-3.0989489E-2,8.85918E-2,3.8152912E-1,1.2796544E0,-6.0967E-1,1.5616275E0,-4.5664687E-2,1.7507434E-2,-5.467822E-2,-1.3797436E0,2.618783E-1,-1.0839339E-1,-9.3517905E-1,-7.405412E-2,6.507469E-2,-9.6494824E-1,-6.2273306E-1,-4.682823E-1,6.8154894E-2,2.681163E-1,-1.3535584E0,1.8283312E-1,-1.2367152E0,-8.575573E-1,5.3959984E-2,1.4666166E0,-2.987945E-2,4.45371E-1,-6.840977E-2,1.3295343E0,-5.137099E-1,2.301002E-2,-6.505164E-2,1.5969089E0,-2.7051452E-1,-1.4117986E0,2.4288373E-2,1.0059338E0,-6.7525886E-2,-1.5769708E-1,1.621649E0,-1.1624749E0,5.4449152E-2,-1.0934196E0,4.039029E-1,-8.87483E-1,-1.2289939E0,-6.496341E-1,1.4395918E0,-5.561136E-1,8.012629E-1,3.5826373E-1,-1.0224787E0,-7.25549E-2,-1.9955061E-2,2.3708485E-1,-6.9487774E-1,-1.4360204E0,-7.3903934E-3,-1.0084515E0,3.2256E-1,1.5142587E0,-1.2898839E-2,5.2331907E-1,-1.0560589E0,1.3699929E0,-5.5043805E-1,-6.300317E-2,2.743424E-2,1.6242682E0,-2.9289117E-2,-5.3493626E-2,2.4211084E-2,-7.182163E-2,1.9699666E-3,-6.182891E-2,8.896207E-2,3.852106E-2,-1.20438E-2,9.911445E-2,-2.0891132E-2,-3.313079E-2,-7.146981E-2,5.6546897E-2,-5.1203437E-2,-3.0506868E-3,-7.618859E-2,2.3433259E-3,8.412652E-2,-4.914198E-2,-2.8595079E-2,-6.3089475E-2,3.236863E-2,-7.665461E-2,-2.9566964E-2,2.2353781E-2,8.355288E-2,-3.124315E-2,5.349755E-2,5.829152E-2,-3.7477113E-4,1.1946066E-2,7.998187E-2,-6.33902E-2,-2.9157326E-3,8.300879E-3,5.4549452E-2,-4.6523068E-2,3.8420293E-2,-7.5885646E-2,-2.2842614E-2,-5.4953177E-2,4.6335567E-2,8.1408106E-2,-4.6895694E-2,7.777789E-2,-1.089209E-2,2.9278323E-2,-6.1944783E-2,-6.962208E-2,2.9503684E-3,7.0159875E-2,-4.618098E-2,-5.3245135E-2,1.56154875E-2,8.233245E-2,-3.5061624E-2],"categories":[],"categories_nodes":[],"categories_segments":[],"categories_sizes":[],"default_left":[0,0,0,0,0,0,0,0,0,0,0,0,0,0,0,0,0,0,0,0,0,0,0,0,0,0,0,0,0,0,0,0,0,0,0,0,0,0,0,0,0,0,0,0,0,0,0,0,0,0,0,0,0,0,0,0,0,0,0,0,0,0,0,0,0,0,0,0,0,0,0,0,0,0,0,0,0,0,0,0,0,0,0,0,0,0,0,0,0,0,0,0,0,0,0,0,0,0,0,0,0,0,0,0,0,0,0,0,0,0,0,0,0,0,0,0,0,0,0,0,0,0,0,0,0,0,0,0,0,0,0,0,0,0,0,0,0,0,0,0,0,0,0,0,0,0,0,0,0,0,0,0,0,0,0,0,0,0,0,0,0,0,0],"id":5,"left_children":[1,3,5,7,9,11,-1,13,15,17,19,21,23,25,27,29,31,-1,33,35,-1,37,39,41,43,45,47,49,51,-1,53,55,-1,57,59,61,-1,-1,63,65,67,69,-1,-1,-1,71,73,75,77,-1,79,81,83,85,-1,87,89,91,93,95,-1,97,-1,99,-1,101,103,-1,-1,105,107,109,-1,111,-1,113,115,117,119,121,123,125,127,129,131,133,135,137,139,-1,-1,141,143,145,-1,147,149,151,-1,153,155,157,159,-1,-1,161,-1,-1,-1,-1,-1,-1,-1,-1,-1,-1,-1,-1,-1,-1,-1,-1,-1,-1,-1,-1,-1,-1,-1,-1,-1,-1,-1,-1,-1,-1,-1,-1,-1,-1,-1,-1,-1,-1,-1,-1,-1,-1,-1,-1,-1,-1,-1,-1,-1,-1,-1,-1,-1,-1,-1,-1,-1],"loss_changes":[2.3330012E3,3.2607434E2,9.7542725E1,1.322558E2,7.674207E1,3.3592346E1,0E0,6.977869E1,4.685524E1,4.9416496E1,1.4745232E1,2.7555115E1,1.5690186E1,8.608374E1,2.9215576E1,9.672373E0,5.705816E1,0E0,3.747491E1,7.987404E0,0E0,4.164309E1,2.0434708E1,1.5595062E1,2.5625575E0,5.372162E1,3.3653038E1,8.506915E1,3.6150757E1,0E0,7.7876253E0,2.0748575E1,0E0,2.3393364E1,9.994759E0,7.222107E0,0E0,0E0,1.5276093E1,1.4694672E1,5.3211575E0,1.1098114E1,0E0,0E0,0E0,7.46257E0,3.115923E1,3.8877228E1,1.2504524E1,0E0,4.8135353E1,1.5721985E1,2.9215637E1,6.448103E0,0E0,1.5985712E1,2.0243645E-1,2.1543013E1,2.3764763E0,8.985405E0,0E0,5.350281E0,0E0,1.5466297E1,0E0,1.2366882E1,4.6243143E0,0E0,0E0,1.0627655E1,2.9147613E0,4.048584E0,0E0,3.2668762E1,0E0,3.4242393E1,1.0121342E1,5.0600395E0,1.4261232E1,1.2242802E1,4.3170864E1,1.8670654E1,1.2130188E1,2.5043686E1,8.322296E-1,6.3630285E0,1.1565609E0,1.8318213E1,2.060707E0,0E0,0E0,2.5523096E1,9.812072E0,1.0398102E-1,0E0,8.621906E0,1.18471575E1,4.551239E0,0E0,1.4087193E1,2.5654402E0,1.2700592E1,2.0768793E0,0E0,0E0,9.4973755E0,0E0,0E0,0E0,0E0,0E0,0E0,0E0,0E0,0E0,0E0,0E0,0E0,0E0,0E0,0E0,0E0,0E0,0E0,0E0,0E0,0E0,0E0,0E0,0E0,0E0,0E0,0E0,0E0,0E0,0E0,0E0,0E0,0E0,0E0,0E0,0E0,0E0,0E0,0E0,0E0,0E0,0E0,0E0,0E0,0E0,0E0,0E0,0E0,0E0,0E0,0E0,0E0,0E0,0E0,0E0,0E0,0E0],"parents":[2147483647,0,0,1,1,2,2,3,3,4,4,5,5,7,7,8,8,9,9,10,10,11,11,12,12,13,13,14,14,15,15,16,16,18,18,19,19,21,21,22,22,23,23,24,24,25,25,26,26,27,27,28,28,30,30,31,31,33,33,34,34,35,35,38,38,39,39,40,40,41,41,45,45,46,46,47,47,48,48,50,50,51,51,52,52,53,53,55,55,56,56,57,57,58,58,59,59,61,61,63,63,65,65,66,66,69,69,70,70,71,71,73,73,75,75,76,76,77,77,78,78,79,79,80,80,81,81,82,82,83,83,84,84,85,85,86,86,87,87,88,88,91,91,92,92,93,93,95,95,96,96,97,97,99,99,100,100,101,101,102,102,105,105],"right_children":[2,4,6,8,10,12,-1,14,16,18,20,22,24,26,28,30,32,-1,34,36,-1,38,40,42,44,46,48,50,52,-1,54,56,-1,58,60,62,-1,-1,64,66,68,70,-1,-1,-1,72,74,76,78,-1,80,82,84,86,-1,88,90,92,94,96,-1,98,-1,100,-1,102,104,-1,-1,106,108,110,-1,112,-1,114,116,118,120,122,124,126,128,130,132,134,136,138,140,-1,-1,142,144,146,-1,148,150,152,-1,154,156,158,160,-1,-1,162,-1,-1,-1,-1,-1,-1,-1,-1,-1,-1,-1,-1,-1,-1,-1,-1,-1,-1,-1,-1,-1,-1,-1,-1,-1,-1,-1,-1,-1,-1,-1,-1,-1,-1,-1,-1,-1,-1,-1,-1,-1,-1,-1,-1,-1,-1,-1,-1,-1,-1,-1,-1,-1,-1,-1,-1,-1],"split_conditions":[9.375E-1,9.0625E-1,1E0,9.6875E-1,9.84375E-1,9.6875E-1,8.9709245E-2,8.4375E-1,8.59375E-1,8.125E-1,2.1680016E-3,9.53125E-1,6.3635975E-2,7.03125E-1,7.8125E-1,8.28125E-1,1E0,8.7919675E-2,2.7342E-2,2.725E-3,-4.451574E-2,8.75E-1,4.7619E-2,1.6129E-2,8.3333E-2,8.28125E-1,2.3309886E-3,6.71875E-1,9.21875E-1,-7.0914306E-2,8.85E-3,1.2477994E-2,9.2267506E-2,1.0256E-2,1.2899299E-1,5.740002E-4,-3.0989489E-2,8.85918E-2,9.0909E-2,2.5E-2,2.1780133E-3,4.9999997E-2,-4.5664687E-2,1.7507434E-2,-5.467822E-2,4.5455E-2,6.71875E-1,6.66667E-1,1.45833E-1,-7.405412E-2,8.59375E-1,9.0625E-1,2.88085E-1,5.988E-3,6.8154894E-2,4.9999997E-2,1.3333E-2,6.4100027E-3,2.8069995E-2,4E-2,5.3959984E-2,1.8315002E-2,-2.987945E-2,4E-2,-6.840977E-2,3.4392E-2,1.11111E-1,2.301002E-2,-6.505164E-2,2.4329992E-3,2.08333E-1,2.10526E-1,2.4288373E-2,4.53125E-1,-6.7525886E-2,7.1875E-1,3.3333302E-1,8.939998E-4,8.928603E-2,7.03125E-1,7.65625E-1,8.75E-1,9.59998E-5,8.125E-1,2E-3,2.833E-3,3.7037E-2,9.0909E-2,6.944E-3,-7.25549E-2,-1.9955061E-2,4.1916E-2,2.5E-1,4.2254E-2,-7.3903934E-3,8.3333E-2,1.4286011E-2,4.329E-3,-1.2898839E-2,1.2285E-2,9.375E-1,2.2917002E-2,9.53125E-1,-6.300317E-2,2.743424E-2,6.9843E-2,-2.9289117E-2,-5.3493626E-2,2.4211084E-2,-7.182163E-2,1.9699666E-3,-6.182891E-2,8.896207E-2,3.852106E-2,-1.20438E-2,9.911445E-2,-2.0891132E-2,-3.313079E-2,-7.146981E-2,5.6546897E-2,-5.1203437E-2,-3.0506868E-3,-7.618859E-2,2.3433259E-3,8.412652E-2,-4.914198E-2,-2.8595079E-2,-6.3089475E-2,3.236863E-2,-7.665461E-2,-2.9566964E-2,2.2353781E-2,8.355288E-2,-3.124315E-2,5.349755E-2,5.829152E-2,-3.7477113E-4,1.1946066E-2,7.998187E-2,-6.33902E-2,-2.9157326E-3,8.300879E-3,5.4549452E-2,-4.6523068E-2,3.8420293E-2,-7.5885646E-2,-2.2842614E-2,-5.4953177E-2,4.6335567E-2,8.1408106E-2,-4.6895694E-2,7.777789E-2,-1.089209E-2,2.9278323E-2,-6.1944783E-2,-6.962208E-2,2.9503684E-3,7.0159875E-2,-4.618098E-2,-5.3245135E-2,1.56154875E-2,8.233245E-2,-3.5061624E-2],"split_indices":[0,0,1,1,1,0,0,1,0,1,7111,1,5754,0,0,0,1,0,8040,34,0,1,6872,6984,240,1,7208,0,1,0,1840,7020,0,6111,6897,7360,0,0,7364,6881,8038,7160,0,0,0,3329,0,5648,1703,0,1,1,8042,1583,0,6872,1956,7095,6109,7084,0,7364,0,7201,0,6272,6881,0,0,6963,1752,118,0,0,0,1,7111,6896,6896,0,0,0,6309,0,1804,5288,5348,4524,3803,0,0,2630,7095,1585,0,4373,5799,1714,0,1739,1,8085,0,0,0,7938,0,0,0,0,0,0,0,0,0,0,0,0,0,0,0,0,0,0,0,0,0,0,0,0,0,0,0,0,0,0,0,0,0,0,0,0,0,0,0,0,0,0,0,0,0,0,0,0,0,0,0,0,0,0,0,0,0],"split_type":[0,0,0,0,0,0,0,0,0,0,0,0,0,0,0,0,0,0,0,0,0,0,0,0,0,0,0,0,0,0,0,0,0,0,0,0,0,0,0,0,0,0,0,0,0,0,0,0,0,0,0,0,0,0,0,0,0,0,0,0,0,0,0,0,0,0,0,0,0,0,0,0,0,0,0,0,0,0,0,0,0,0,0,0,0,0,0,0,0,0,0,0,0,0,0,0,0,0,0,0,0,0,0,0,0,0,0,0,0,0,0,0,0,0,0,0,0,0,0,0,0,0,0,0,0,0,0,0,0,0,0,0,0,0,0,0,0,0,0,0,0,0,0,0,0,0,0,0,0,0,0,0,0,0,0,0,0,0,0,0,0,0,0],"sum_hessian":[3.8446602E3,2.9600076E3,8.8465247E2,2.3703765E3,5.896313E2,4.8572772E2,3.9892477E2,2.1419302E3,2.2844617E2,5.251688E2,6.4462456E1,3.1637198E2,1.6935574E2,6.4226117E2,1.499669E3,6.484964E1,1.6359653E2,1.6659752E1,5.0850906E2,6.2062267E1,2.4001937E0,1.5534999E2,1.6102199E2,1.659841E2,3.3716426E0,1.3616573E2,5.0609546E2,1.6995332E2,1.3297157E3,1.0541779E1,5.430786E1,1.4064725E2,2.2949266E1,4.5888797E2,4.9621082E1,6.0600822E1,1.4614426E0,2.5051924E1,1.3029807E2,1.5563747E2,5.3845124E0,1.6400697E2,1.9771297E0,1.4891896E0,1.882453E0,1.1232585E2,2.3839876E1,4.5178598E2,5.430947E1,4.9450127E1,1.20503204E2,8.209632E2,5.0875244E2,5.2831383E1,1.4764773E0,1.3325204E2,7.3952055E0,4.4795972E2,1.0928265E1,4.7632454E1,1.9886302E0,5.93632E1,1.2376204E0,1.2643049E2,3.8675833E0,1.5167741E2,3.9600554E0,2.244912E0,3.1396003E0,1.6103433E2,2.9726307E0,1.10667465E2,1.6583825E0,1.6569738E1,7.270138E0,4.4015118E2,1.1634819E1,4.4023567E1,1.0285905E1,2.6764635E1,9.373856E1,6.3811523E2,1.8284798E2,5.028779E2,5.874568E0,4.993844E1,2.8929448E0,1.2522739E2,8.024666E0,6.237439E0,1.1577663E0,4.225703E2,2.5389395E1,8.96805E0,1.9602145E0,4.2361427E1,5.2710238E0,5.788605E1,1.4771507E0,1.2080998E2,5.620503E0,1.4874751E2,2.9299014E0,2.2167118E0,1.7433437E0,1.5929349E2,1.7408446E0,1.2408615E0,1.7317693E0,1.0883026E2,1.8372104E0,4.09515E0,1.2474588E1,3.552275E1,4.0462842E2,9.9104E0,1.7244191E0,1.6537155E1,2.7486412E1,5.12347E0,5.1624346E0,8.210233E0,1.8554403E1,7.408747E1,1.9651094E1,4.8841928E2,1.4969594E2,1.8002893E2,2.8190515E0,2.956231E1,4.7331558E2,1.6653051E0,4.209263E0,4.8503452E1,1.4349867E0,1.6897448E0,1.2031999E0,1.1533212E2,9.895261E0,6.1459446E0,1.8787211E0,3.9120612E2,3.1364212E1,2.2182257E1,3.2071388E0,7.769808E0,1.1982422E0,4.087935E1,1.482079E0,2.4458742E0,2.8251493E0,5.6637547E1,1.2485042E0,1.1733309E2,3.476894E0,4.1268134E0,1.4936898E0,1.470075E2,1.7400126E0,1.6886364E0,1.2412649E0,1.580642E2,1.2293017E0],"tree_param":{"num_deleted":"0","num_feature":"8114","num_nodes":"163","size_leaf_vector":"1"}},{"base_weights":[-3.3385353E-3,-3.664369E-1,1.0969332E0,-4.3155372E-1,2.2806445E-1,5.661686E-1,1.5832481E0,-3.7099344E-1,-1.0144591E0,3.1130984E-1,-1.1880621E0,6.331311E-1,-9.6636385E-1,1.599106E0,-6.7013985E-1,-4.039932E-1,3.563835E-1,-7.814181E-1,-1.3979194E0,3.9447048E-1,-4.6975797E-1,-1.3415768E0,1.855551E-2,6.7446536E-1,-1.1966414E0,-1.1194007E0,3.613991E-2,1.6069521E0,-3.1428616E-2,-5.671682E-2,1.22588035E-2,-7.307785E-2,-3.861316E-1,-2.6663697E-1,9.442041E-1,-8.1877965E-1,6.125452E-2,-1.4393418E0,3.491644E-2,3.1399557E-1,9.339862E-2,-8.3113563E-1,6.971284E-1,-1.461348E0,3.6076107E-4,7.040513E-1,-1.2393188E0,-1.4658955E-2,-7.0693046E-2,-1.2360404E0,1.3773166E-2,1.6152855E0,-1.5438802E-2,-1.3365158E-1,-4.7626454E-1,-6.2533057E-1,1.1593248E0,1.635742E0,1.5317458E-1,-6.865048E-1,-1.3917047E0,-1.4599825E0,3.1398223E-3,3.5457462E-1,-1.0358876E0,-2.4244826E-1,-7.1058795E-2,7.99614E-2,-4.196371E-1,-7.609475E-2,-2.1835847E-2,7.482985E-1,-6.096324E-1,-7.2859876E-2,-6.967965E-3,-1.3746506E0,-1.1837913E-4,1.6202967E0,-1.01073E-2,-9.71595E-2,-1.262191E0,-4.4949058E-1,-1.168058E0,-7.6169646E-1,8.564541E-1,1.5654548E0,-3.2027315E-2,1.7226382E0,-7.563632E-3,1.1222211E0,-6.3549304E-1,-7.24265E-1,4.938495E-2,-1.4959553E0,7.6572048E-3,-1.4814641E0,-3.5778251E-3,3.9092836E-1,-1.0438577E0,-6.2185325E-2,-9.0278574E-4,-6.0085016E-1,6.979243E-1,-4.82924E-2,2.1143647E-2,7.784139E-1,-9.927117E-1,-8.934305E-1,4.576306E-2,-7.417933E-2,-2.099926E-3,1.6251266E0,1.3820926E-2,-2.9690913E-3,-5.7452884E-2,-7.031607E-2,2.103976E-2,-2.098855E-2,-5.4017957E-2,-6.1211344E-2,3.3286E-2,-1.9510059E-2,-6.421889E-2,6.258842E-2,-1.4911698E-3,3.0425931E-3,9.527805E-2,9.0363786E-2,-2.7317356E-3,7.8662924E-2,-4.7128033E-2,-6.184673E-2,2.9483212E-2,-3.8135495E-2,4.223381E-2,-7.662162E-2,-1.9309727E-2,-7.516557E-2,-4.04717E-3,2.1209603E-2,-5.6289393E-2,-6.520303E-2,1.9333312E-4,-4.648786E-2,3.9714403E-2,7.039314E-2,-2.171062E-2,4.0558554E-2,-4.3129623E-2,-7.315967E-2,3.6596056E-2,-5.6765903E-2,3.6969617E-2,8.149936E-2,1.3906226E-2],"categories":[],"categories_nodes":[],"categories_segments":[],"categories_sizes":[],"default_left":[0,0,0,0,0,0,0,0,0,0,0,0,0,0,0,0,0,0,0,0,0,0,0,0,0,0,0,0,0,0,0,0,0,0,0,0,0,0,0,0,0,0,0,0,0,0,0,0,0,0,0,0,0,0,0,0,0,0,0,0,0,0,0,0,0,0,0,0,0,0,0,0,0,0,0,0,0,0,0,0,0,0,0,0,0,0,0,0,0,0,0,0,0,0,0,0,0,0,0,0,0,0,0,0,0,0,0,0,0,0,0,0,0,0,0,0,0,0,0,0,0,0,0,0,0,0,0,0,0,0,0,0,0,0,0,0,0,0,0,0,0,0,0,0,0,0,0,0,0,0,0,0,0,0,0],"id":6,"left_children":[1,3,5,7,9,11,13,15,17,19,21,23,25,27,29,31,33,35,37,39,41,43,-1,45,47,49,-1,51,-1,-1,-1,-1,53,55,57,59,-1,61,-1,63,-1,65,67,69,-1,71,73,-1,-1,75,-1,77,-1,79,81,83,85,87,89,91,93,95,-1,97,99,101,-1,-1,103,-1,-1,105,107,-1,-1,109,-1,111,-1,113,115,117,119,121,123,125,-1,127,-1,129,131,133,-1,135,-1,137,-1,139,141,-1,-1,143,145,-1,-1,147,149,151,-1,-1,-1,153,-1,-1,-1,-1,-1,-1,-1,-1,-1,-1,-1,-1,-1,-1,-1,-1,-1,-1,-1,-1,-1,-1,-1,-1,-1,-1,-1,-1,-1,-1,-1,-1,-1,-1,-1,-1,-1,-1,-1,-1,-1,-1,-1],"loss_changes":[1.517945E3,1.10690125E2,2.4244824E2,9.052722E1,3.3692974E1,4.7031677E1,1.863208E1,5.6175354E1,2.0513733E1,1.7578121E1,4.3040257E0,3.3631805E1,5.806719E0,9.544556E0,2.0366497E0,4.162558E1,3.7547707E1,1.2446991E1,8.831009E0,2.8174793E1,1.1637199E1,2.3841476E0,0E0,2.4939713E1,1.5377693E0,3.2884007E0,0E0,8.271362E0,0E0,0E0,0E0,0E0,4.994998E1,2.6411179E1,2.8534016E1,1.0447235E1,0E0,2.842102E0,0E0,1.3031157E1,0E0,6.76853E0,7.465785E0,1.7285156E-1,0E0,2.482428E1,1.4345942E0,0E0,0E0,2.8871841E0,0E0,4.7436523E0,0E0,2.3745365E1,2.9465607E1,8.891609E0,8.636977E0,4.6042633E0,2.0314577E1,8.567959E0,4.617588E0,2.5051117E0,0E0,1.1856205E1,1.4586401E0,4.2805624E0,0E0,0E0,2.1598353E0,0E0,0E0,2.2060379E1,6.967755E0,0E0,0E0,2.1434765E0,0E0,2.6903076E0,0E0,2.2284248E1,4.9750347E0,2.8804169E1,6.9647446E0,6.851862E0,1.4061682E0,4.393072E0,0E0,4.1234665E0,0E0,1.2536793E1,1.1618934E1,8.006111E0,0E0,4.4527817E-1,0E0,2.5146637E0,0E0,1.158746E1,1.6348042E0,0E0,0E0,4.7914424E0,3.524177E0,0E0,0E0,2.2183807E1,7.0292153E0,5.771433E0,0E0,0E0,0E0,2.7008057E0,0E0,0E0,0E0,0E0,0E0,0E0,0E0,0E0,0E0,0E0,0E0,0E0,0E0,0E0,0E0,0E0,0E0,0E0,0E0,0E0,0E0,0E0,0E0,0E0,0E0,0E0,0E0,0E0,0E0,0E0,0E0,0E0,0E0,0E0,0E0,0E0,0E0,0E0,0E0,0E0,0E0,0E0,0E0],"parents":[2147483647,0,0,1,1,2,2,3,3,4,4,5,5,6,6,7,7,8,8,9,9,10,10,11,11,12,12,13,13,14,14,15,15,16,16,17,17,18,18,19,19,20,20,21,21,23,23,24,24,25,25,27,27,32,32,33,33,34,34,35,35,37,37,39,39,41,41,42,42,43,43,45,45,46,46,49,49,51,51,53,53,54,54,55,55,56,56,57,57,58,58,59,59,60,60,61,61,63,63,64,64,65,65,68,68,71,71,72,72,75,75,77,77,79,79,80,80,81,81,82,82,83,83,84,84,85,85,87,87,89,89,90,90,91,91,93,93,95,95,97,97,98,98,101,101,102,102,105,105,106,106,107,107,111,111],"right_children":[2,4,6,8,10,12,14,16,18,20,22,24,26,28,30,32,34,36,38,40,42,44,-1,46,48,50,-1,52,-1,-1,-1,-1,54,56,58,60,-1,62,-1,64,-1,66,68,70,-1,72,74,-1,-1,76,-1,78,-1,80,82,84,86,88,90,92,94,96,-1,98,100,102,-1,-1,104,-1,-1,106,108,-1,-1,110,-1,112,-1,114,116,118,120,122,124,126,-1,128,-1,130,132,134,-1,136,-1,138,-1,140,142,-1,-1,144,146,-1,-1,148,150,152,-1,-1,-1,154,-1,-1,-1,-1,-1,-1,-1,-1,-1,-1,-1,-1,-1,-1,-1,-1,-1,-1,-1,-1,-1,-1,-1,-1,-1,-1,-1,-1,-1,-1,-1,-1,-1,-1,-1,-1,-1,-1,-1,-1,-1,-1,-1],"split_conditions":[9.6875E-1,9.53125E-1,1E0,1.0558002E-2,3.7878998E-2,5.194801E-2,2.3867002E-2,5.55556E-1,4.2857E-2,3.9473996E-2,1.0753E-2,1.70371E-1,9.346E-3,4.3290004E-2,4.0724E-2,6.875E-1,2.38095E-1,3.125E-1,1.2857097E-1,9.33333E-1,2.6000012E-4,3.07692E-1,1.855551E-2,4.9707003E-2,1.3333E-2,9.174E-3,3.613991E-2,7.6899864E-4,-3.1428616E-2,-5.671682E-2,1.22588035E-2,-7.307785E-2,8.4375E-1,3.2E-1,8.939998E-4,4.5449995E-3,6.125452E-2,4.54545E-1,3.491644E-2,4.7619E-2,9.339862E-2,3.4780018E-3,3.931001E-3,6.47059E-1,3.6076107E-4,1.7857E-2,4.3478E-2,-1.4658955E-2,-7.0693046E-2,9.804E-3,1.3773166E-2,2.4609864E-3,-1.5438802E-2,3.700005E-4,4E-2,1.2899299E-1,2.05517E-1,2.10526E-1,2.8489977E-3,5.55556E-1,2.04545E-1,1.8478301E-1,3.1398223E-3,5.9520006E-3,2.04545E-1,1.50538E-1,-7.1058795E-2,7.99614E-2,1.14286E-1,-7.609475E-2,-2.1835847E-2,4.9154997E-2,5.6604E-2,-7.2859876E-2,-6.967965E-3,1.70213E-1,-1.1837913E-4,1.94444E-1,-1.01073E-2,1.9231007E-2,1.15942E-1,2.1038E-2,7.6923E-2,1.12319E-1,5.6776E-2,8.857801E-2,-3.2027315E-2,2.0370299E-1,-7.563632E-3,1.6666698E-1,2.5E-1,2.63158E-1,4.938495E-2,8.772E-3,7.6572048E-3,1E0,-3.5778251E-3,1.04444E-1,9.804E-3,-6.2185325E-2,-9.0278574E-4,8.85E-3,3.9338E-2,-4.82924E-2,2.1143647E-2,8.231E-2,2E-3,7.0707E-2,4.576306E-2,-7.417933E-2,-2.099926E-3,3.91304E-1,1.3820926E-2,-2.9690913E-3,-5.7452884E-2,-7.031607E-2,2.103976E-2,-2.098855E-2,-5.4017957E-2,-6.1211344E-2,3.3286E-2,-1.9510059E-2,-6.421889E-2,6.258842E-2,-1.4911698E-3,3.0425931E-3,9.527805E-2,9.0363786E-2,-2.7317356E-3,7.8662924E-2,-4.7128033E-2,-6.184673E-2,2.9483212E-2,-3.8135495E-2,4.223381E-2,-7.662162E-2,-1.9309727E-2,-7.516557E-2,-4.04717E-3,2.1209603E-2,-5.6289393E-2,-6.520303E-2,1.9333312E-4,-4.648786E-2,3.9714403E-2,7.039314E-2,-2.171062E-2,4.0558554E-2,-4.3129623E-2,-7.315967E-2,3.6596056E-2,-5.6765903E-2,3.6969617E-2,8.149936E-2,1.3906226E-2],"split_indices":[1,1,1,6995,6916,5728,6999,4662,5803,8040,111,7104,1854,5804,6895,1,1495,1688,7184,240,6901,4654,0,7415,4400,4481,0,6900,0,0,0,0,1,3046,6896,5695,0,4398,0,6716,0,7338,6999,3107,0,6987,4814,0,0,4636,0,7468,0,6775,7520,6897,5728,6976,7215,577,1585,7229,0,6939,4034,2630,0,0,1486,0,0,6868,4317,0,0,4398,0,2523,0,7186,4382,6908,3417,6896,7215,7007,0,7080,0,7080,6692,1796,0,1779,0,7258,0,6896,1784,0,0,79,8042,0,0,7832,4401,1610,0,0,0,2622,0,0,0,0,0,0,0,0,0,0,0,0,0,0,0,0,0,0,0,0,0,0,0,0,0,0,0,0,0,0,0,0,0,0,0,0,0,0,0,0,0,0,0],"split_type":[0,0,0,0,0,0,0,0,0,0,0,0,0,0,0,0,0,0,0,0,0,0,0,0,0,0,0,0,0,0,0,0,0,0,0,0,0,0,0,0,0,0,0,0,0,0,0,0,0,0,0,0,0,0,0,0,0,0,0,0,0,0,0,0,0,0,0,0,0,0,0,0,0,0,0,0,0,0,0,0,0,0,0,0,0,0,0,0,0,0,0,0,0,0,0,0,0,0,0,0,0,0,0,0,0,0,0,0,0,0,0,0,0,0,0,0,0,0,0,0,0,0,0,0,0,0,0,0,0,0,0,0,0,0,0,0,0,0,0,0,0,0,0,0,0,0,0,0,0,0,0,0,0,0,0],"sum_hessian":[3.79754E3,2.8557778E3,9.417623E2,2.5741055E3,2.816724E2,4.5133694E2,4.9042535E2,2.3333237E3,2.4078159E2,2.6677075E2,1.4901648E1,4.3300412E2,1.8332825E1,4.8728653E2,3.138841E0,2.2324846E3,1.0083909E2,1.5165428E2,8.9127304E1,2.4154797E2,2.5222767E1,1.3693005E1,1.2086431E0,4.2405615E2,8.947959E0,1.7119144E1,1.2136791E0,4.8585394E2,1.432568E0,1.9238758E0,1.2149652E0,3.5736507E1,2.1967483E3,4.9219074E1,5.1620014E1,1.494632E2,2.1910932E0,8.770756E1,1.4197476E0,2.3018935E2,1.1358637E1,1.9478212E1,5.7445526E0,1.2499604E1,1.1934001E0,4.182228E2,5.833365E0,2.1898003E0,6.7581587E0,1.5903173E1,1.2159716E0,4.8390576E2,1.9481826E0,5.785628E2,1.6181854E3,3.977527E1,9.443804E0,2.6972294E1,2.464772E1,1.2321419E2,2.6249006E1,8.6546394E1,1.161161E0,2.2418735E2,6.0020027E0,1.0456545E1,9.021668E0,2.9387085E0,2.805844E0,1.1343965E1,1.15564E0,4.0501166E2,1.3211123E1,4.597854E0,1.2355108E0,1.4194108E1,1.7090656E0,4.8268335E2,1.2224228E0,5.614927E2,1.7070152E1,1.5594797E3,5.8705643E1,3.6868305E1,2.906962E0,7.8114395E0,1.6323642E0,2.57559E1,1.2163951E0,1.0869404E1,1.37783165E1,1.2105138E2,2.1628094E0,2.4619278E1,1.6297292E0,8.5161766E1,1.3846294E0,2.1920921E2,4.978126E0,4.800026E0,1.2019767E0,7.832438E0,2.624107E0,1.6134373E0,1.1924069E0,3.9866855E2,6.3431263E0,1.1487321E1,1.7238034E0,1.3016808E1,1.1773006E0,4.8074628E2,1.9370657E0,5.4304626E2,1.8446411E1,1.5875012E1,1.1951404E0,1.4909098E3,6.856992E1,5.7283447E1,1.4221961E0,2.2571894E1,1.4296413E1,1.7251077E0,1.1818542E0,1.6575384E0,6.153901E0,2.456899E1,1.186907E0,9.116104E0,1.7532992E0,9.235103E0,4.5432143E0,1.1865769E2,2.3936856E0,2.3467064E1,1.1522133E0,8.378143E1,1.3803353E0,2.1520969E2,3.9995272E0,3.7917764E0,1.1863495E0,6.6081295E0,1.2243084E0,1.4630901E0,1.1610168E0,3.91362E2,7.3065467E0,5.1026964E0,1.2404298E0,1.0270527E1,1.2167935E0,4.788084E2,1.9378706E0],"tree_param":{"num_deleted":"0","num_feature":"8114","num_nodes":"155","size_leaf_vector":"1"}},{"base_weights":[2.7832885E-3,-3.9194158E-1,1.3319093E0,-5.4829395E-1,2.2451551E-1,1.05309E0,8.347469E-2,-6.184725E-1,9.247042E-2,1.0978954E-1,1.1234246E0,8.69653E-1,1.4003989E0,-3.3293933E-1,-7.40664E-1,-6.583499E-1,3.90243E-1,8.3987534E-2,5.9457958E-2,1.1782525E0,-4.9659137E-2,9.266777E-1,-3.9324865E-1,1.4488639E0,-4.1783515E-1,-8.6553615E-1,-9.148331E-2,-6.9617635E-1,-1.1697422E0,-7.001174E-2,-4.726286E-1,1.4848684E-1,8.545037E-2,1.3922E-1,-7.035802E-1,1.2422392E0,-3.7838012E-2,9.693673E-1,-6.290512E-1,4.9239787E-1,-1.0379895E0,1.4842515E0,-2.1342164E-2,5.1608056E-2,-5.842627E-2,-1.0110918E0,3.1229678E-1,6.2588276E-3,-8.774604E-1,-7.254851E-1,9.497353E-2,-1.2162931E0,1.8735544E-1,-5.4506564E-1,5.5402614E-2,2.6195356E-1,-9.744182E-1,1.732495E-1,-1.1246341E0,-8.409062E-1,6.5239537E-1,1.2964433E0,-4.4504993E-2,1.0171497E0,-5.09263E-1,-1.0964698E0,2.4894485E-2,8.589639E-1,-3.0942265E-2,-3.380727E-3,-6.819647E-2,1.5205437E0,-4.120713E-1,-1.3060398E0,-5.2848905E-1,1.0335983E0,-6.445251E-2,7.058708E-2,-1.0523686E0,-1.3928309E-1,-1.2683784E0,-7.1410544E-2,-7.004006E-1,6.6885436E-1,-9.502327E-1,-1.2430078E0,3.784284E-2,7.746627E-1,-4.4561762E-2,-6.0906875E-1,5.02823E-2,3.3055612E-1,-6.940214E-2,-1.2218539E0,3.972246E-2,2.153802E-1,-8.9396363E-1,-1.2487236E0,7.8896293E-4,-9.780825E-1,3.7918192E-1,8.322487E-2,-4.709151E-2,1.3468909E0,-3.35456E-2,1.0487981E0,-8.038997E-1,-7.324935E-1,2.2326158E-2,-7.321979E-2,1.2047127E-2,3.5083205E-1,6.1809648E-2,1.5525935E0,-3.107886E-2,8.357202E-3,-3.8403817E-2,-6.692132E-2,2.3984445E-2,5.335004E-2,-5.1188685E-2,-5.7654947E-2,8.499665E-2,9.376771E-4,7.056608E-2,-6.0046595E-2,3.2244455E-2,-3.0028988E-2,8.099766E-2,-6.7601286E-2,2.3977844E-2,5.359217E-2,-3.702316E-2,4.8022352E-2,-6.1672956E-2,1.4749549E-2,-7.075945E-2,-6.408223E-2,1.0947394E-2,7.789247E-2,-1.1982178E-2,-3.5081066E-2,2.7201021E-2,1.1150272E-2,6.1699867E-2,-6.768915E-2,-1.0569288E-3,1.2061777E-2,-6.8606004E-2,-5.2634306E-2,1.7291551E-2,-6.995811E-2,-3.0649934E-4,-5.2872326E-2,4.310843E-2,6.953987E-2,-4.9177732E-2,6.9682665E-2,-2.6124453E-2,5.3803593E-2,-4.4094916E-2,-6.70234E-2,1.0869014E-2,-5.2123167E-2,2.1098716E-2,-1.2529204E-2,3.760306E-2,7.900487E-2,-3.7449863E-2],"categories":[],"categories_nodes":[],"categories_segments":[],"categories_sizes":[],"default_left":[0,0,0,0,0,0,0,0,0,0,0,0,0,0,0,0,0,0,0,0,0,0,0,0,0,0,0,0,0,0,0,0,0,0,0,0,0,0,0,0,0,0,0,0,0,0,0,0,0,0,0,0,0,0,0,0,0,0,0,0,0,0,0,0,0,0,0,0,0,0,0,0,0,0,0,0,0,0,0,0,0,0,0,0,0,0,0,0,0,0,0,0,0,0,0,0,0,0,0,0,0,0,0,0,0,0,0,0,0,0,0,0,0,0,0,0,0,0,0,0,0,0,0,0,0,0,0,0,0,0,0,0,0,0,0,0,0,0,0,0,0,0,0,0,0,0,0,0,0,0,0,0,0,0,0,0,0,0,0,0,0,0,0,0,0,0,0,0,0],"id":7,"left_children":[1,3,5,7,9,11,-1,13,15,17,19,21,23,25,27,29,31,-1,33,35,-1,37,39,41,43,45,47,49,51,-1,53,55,-1,57,59,61,-1,63,65,67,69,71,-1,-1,-1,73,75,77,79,81,83,85,87,89,-1,91,93,95,97,99,101,103,-1,105,107,109,-1,111,-1,-1,-1,113,115,117,119,121,-1,123,125,127,129,-1,131,133,135,137,-1,139,-1,141,-1,143,-1,145,-1,147,149,151,-1,153,155,-1,-1,157,-1,159,161,163,-1,-1,-1,165,-1,167,-1,-1,-1,-1,-1,-1,-1,-1,-1,-1,-1,-1,-1,-1,-1,-1,-1,-1,-1,-1,-1,-1,-1,-1,-1,-1,-1,-1,-1,-1,-1,-1,-1,-1,-1,-1,-1,-1,-1,-1,-1,-1,-1,-1,-1,-1,-1,-1,-1,-1,-1,-1,-1,-1,-1],"loss_changes":[1.9858962E3,2.8142358E2,7.98241E1,1.0475812E2,6.0843582E1,2.9196655E1,0E0,7.297443E1,5.183664E1,4.141441E1,8.922585E0,2.305223E1,1.5000732E1,8.1035866E1,2.722467E1,8.416296E0,5.2612625E1,0E0,3.11428E1,9.059036E0,0E0,2.0648315E1,8.683755E0,1.1210175E1,6.6675973E0,3.4027725E1,3.3432846E1,3.098639E1,8.852371E0,0E0,6.8103676E0,1.8249146E1,0E0,2.0092657E1,9.568609E0,8.534172E0,0E0,2.1293976E1,5.110084E0,3.264041E0,2.6292515E0,1.140509E1,0E0,0E0,0E0,2.4255035E1,2.7196154E1,2.649616E1,1.3712883E1,2.1665955E1,2.973606E1,7.9053497E0,4.1073556E0,5.8231134E0,0E0,1.5066839E1,6.736141E0,2.0487988E1,1.7551956E0,7.805666E0,9.663836E0,7.124237E0,0E0,1.727945E1,2.4332654E0,3.520164E0,0E0,6.1344004E-1,0E0,0E0,0E0,1.153009E1,8.9707035E-1,6.893387E0,5.495102E1,2.5263178E1,0E0,2.5457335E1,6.3945637E0,1.5408427E1,5.2312965E0,0E0,8.908234E1,1.888291E1,1.0612708E1,7.6654205E0,0E0,3.5726554E0,0E0,5.828909E0,0E0,1.1842262E1,0E0,1.8644066E0,0E0,1.8187761E1,3.775669E0,2.0613098E0,0E0,6.7846184E0,8.550646E0,0E0,0E0,6.099266E0,0E0,1.5732513E1,3.2712119E0,3.4391046E0,0E0,0E0,0E0,1.0870407E0,0E0,1.0799408E1,0E0,0E0,0E0,0E0,0E0,0E0,0E0,0E0,0E0,0E0,0E0,0E0,0E0,0E0,0E0,0E0,0E0,0E0,0E0,0E0,0E0,0E0,0E0,0E0,0E0,0E0,0E0,0E0,0E0,0E0,0E0,0E0,0E0,0E0,0E0,0E0,0E0,0E0,0E0,0E0,0E0,0E0,0E0,0E0,0E0,0E0,0E0,0E0,0E0,0E0,0E0,0E0,0E0,0E0,0E0],"parents":[2147483647,0,0,1,1,2,2,3,3,4,4,5,5,7,7,8,8,9,9,10,10,11,11,12,12,13,13,14,14,15,15,16,16,18,18,19,19,21,21,22,22,23,23,24,24,25,25,26,26,27,27,28,28,30,30,31,31,33,33,34,34,35,35,37,37,38,38,39,39,40,40,41,41,45,45,46,46,47,47,48,48,49,49,50,50,51,51,52,52,53,53,55,55,56,56,57,57,58,58,59,59,60,60,61,61,63,63,64,64,65,65,67,67,71,71,72,72,73,73,74,74,75,75,77,77,78,78,79,79,80,80,82,82,83,83,84,84,85,85,87,87,89,89,91,91,93,93,95,95,96,96,97,97,99,99,100,100,103,103,105,105,106,106,107,107,111,111,113,113],"right_children":[2,4,6,8,10,12,-1,14,16,18,20,22,24,26,28,30,32,-1,34,36,-1,38,40,42,44,46,48,50,52,-1,54,56,-1,58,60,62,-1,64,66,68,70,72,-1,-1,-1,74,76,78,80,82,84,86,88,90,-1,92,94,96,98,100,102,104,-1,106,108,110,-1,112,-1,-1,-1,114,116,118,120,122,-1,124,126,128,130,-1,132,134,136,138,-1,140,-1,142,-1,144,-1,146,-1,148,150,152,-1,154,156,-1,-1,158,-1,160,162,164,-1,-1,-1,166,-1,168,-1,-1,-1,-1,-1,-1,-1,-1,-1,-1,-1,-1,-1,-1,-1,-1,-1,-1,-1,-1,-1,-1,-1,-1,-1,-1,-1,-1,-1,-1,-1,-1,-1,-1,-1,-1,-1,-1,-1,-1,-1,-1,-1,-1,-1,-1,-1,-1,-1,-1,-1,-1,-1,-1,-1],"split_conditions":[9.375E-1,9.0625E-1,1E0,9.6875E-1,9.84375E-1,9.6875E-1,8.347469E-2,8.4375E-1,8.59375E-1,8.125E-1,1.2900084E-3,3.5714E-2,3.4483E-2,7.34375E-1,2.8408997E-2,8.28125E-1,1E0,8.3987534E-2,2.7342E-2,1.8315002E-2,-4.9659137E-2,2.5E-2,5.519986E-4,6.666702E-2,5.5556E-2,8.28125E-1,1.3889E-2,1E0,1.0119E-1,-7.001174E-2,3.11688E-1,2.8846E-2,8.545037E-2,1.0256E-2,5.0633E-2,2.9629998E-2,-3.7838012E-2,2.2435993E-2,1.85185E-1,9.259E-3,1.6666993E-2,1.3730019E-2,-2.1342164E-2,5.1608056E-2,-5.842627E-2,7.03125E-1,6.71875E-1,5.2630007E-3,8.939998E-4,6.71875E-1,1.9231007E-2,5.6679964E-2,1.04167E-1,1.13208E-1,5.5402614E-2,1.2309998E-3,2.75E-1,3.2258E-2,5.2632E-2,5.8824E-2,5E-2,5.115E-3,-4.4504993E-2,1.9231007E-2,1.2048E-2,1.05263E-1,2.4894485E-2,6.993E-3,-3.0942265E-2,-3.380727E-3,-6.819647E-2,3.0303E-2,1.25E-1,4.5455E-2,7.1875E-1,4.53125E-1,-6.445251E-2,6.66667E-1,3.07692E-1,8.37838E-1,2.009999E-4,-7.1410544E-2,7.1875E-1,1.66667E-1,1.818201E-2,2.2556E-2,3.784284E-2,9.4700046E-4,-4.4561762E-2,6.024E-3,5.02823E-2,2.9412E-2,-6.940214E-2,4.6154E-2,3.972246E-2,4.9999997E-2,2.2500002E-1,5.6604E-2,7.8896293E-4,1.02804E-1,6.4100027E-3,8.322487E-2,-4.709151E-2,2.725E-3,-3.35456E-2,1.3333E-2,9.53125E-1,1.11111E-1,2.2326158E-2,-7.321979E-2,1.2047127E-2,2.10526E-1,6.1809648E-2,6.25E-2,-3.107886E-2,8.357202E-3,-3.8403817E-2,-6.692132E-2,2.3984445E-2,5.335004E-2,-5.1188685E-2,-5.7654947E-2,8.499665E-2,9.376771E-4,7.056608E-2,-6.0046595E-2,3.2244455E-2,-3.0028988E-2,8.099766E-2,-6.7601286E-2,2.3977844E-2,5.359217E-2,-3.702316E-2,4.8022352E-2,-6.1672956E-2,1.4749549E-2,-7.075945E-2,-6.408223E-2,1.0947394E-2,7.789247E-2,-1.1982178E-2,-3.5081066E-2,2.7201021E-2,1.1150272E-2,6.1699867E-2,-6.768915E-2,-1.0569288E-3,1.2061777E-2,-6.8606004E-2,-5.2634306E-2,1.7291551E-2,-6.995811E-2,-3.0649934E-4,-5.2872326E-2,4.310843E-2,6.953987E-2,-4.9177732E-2,6.9682665E-2,-2.6124453E-2,5.3803593E-2,-4.4094916E-2,-6.70234E-2,1.0869014E-2,-5.2123167E-2,2.1098716E-2,-1.2529204E-2,3.760306E-2,7.900487E-2,-3.7449863E-2],"split_indices":[0,0,1,1,1,0,0,1,0,1,6867,5699,7103,0,6889,0,1,0,8040,7364,0,6881,7000,7160,1592,1,7208,709,6999,0,3099,6896,0,6111,4506,6999,0,7572,4177,290,6896,7384,0,0,0,0,0,6883,6896,0,8040,5731,6889,916,0,7183,136,6906,3358,1334,6903,718,0,5696,837,1966,0,3003,0,0,0,5745,1976,3329,1,0,0,5648,4491,3048,5836,0,0,6923,5799,1804,0,8068,0,5354,0,1591,0,2631,0,6782,6906,2003,0,4378,7080,0,0,34,0,979,0,1902,0,0,0,5699,0,7189,0,0,0,0,0,0,0,0,0,0,0,0,0,0,0,0,0,0,0,0,0,0,0,0,0,0,0,0,0,0,0,0,0,0,0,0,0,0,0,0,0,0,0,0,0,0,0,0,0,0,0,0,0,0,0],"split_type":[0,0,0,0,0,0,0,0,0,0,0,0,0,0,0,0,0,0,0,0,0,0,0,0,0,0,0,0,0,0,0,0,0,0,0,0,0,0,0,0,0,0,0,0,0,0,0,0,0,0,0,0,0,0,0,0,0,0,0,0,0,0,0,0,0,0,0,0,0,0,0,0,0,0,0,0,0,0,0,0,0,0,0,0,0,0,0,0,0,0,0,0,0,0,0,0,0,0,0,0,0,0,0,0,0,0,0,0,0,0,0,0,0,0,0,0,0,0,0,0,0,0,0,0,0,0,0,0,0,0,0,0,0,0,0,0,0,0,0,0,0,0,0,0,0,0,0,0,0,0,0,0,0,0,0,0,0,0,0,0,0,0,0,0,0,0,0,0,0],"sum_hessian":[3.7832666E3,2.9175234E3,8.6574316E2,2.3273474E3,5.9017584E2,4.7639566E2,3.893475E2,2.0976418E3,2.297057E2,5.243733E2,6.580257E1,3.140362E2,1.6235948E2,6.29761E2,1.4678807E3,6.488646E1,1.6481924E2,1.5283115E1,5.0909018E2,6.457322E1,1.229351E0,3.0072363E2,1.331256E1,1.5834203E2,4.017456E0,1.9563974E2,4.3412125E2,1.3323616E3,1.3551921E2,1.1681986E1,5.3204475E1,1.4022565E2,2.4593597E1,4.616504E2,4.743978E1,6.285283E1,1.720389E0,2.930589E2,7.664712E0,5.7080283E0,7.604532E0,1.5561485E2,2.727171E0,1.2425187E0,2.7749376E0,1.742479E2,2.1391848E1,3.869884E2,4.7132866E1,1.2848464E3,4.751506E1,1.3112514E2,4.3940687E0,5.14996E1,1.7048756E0,1.2805293E2,1.21727085E1,4.503866E2,1.1263817E1,4.3422073E1,4.017705E0,6.1677006E1,1.1758225E0,2.841874E2,8.871503E0,5.4367595E0,2.2279525E0,4.462881E0,1.2451472E0,2.215645E0,5.388887E0,1.5288702E2,2.7278256E0,1.070915E2,6.715639E1,1.4993022E1,6.3988266E0,3.656997E2,2.1288681E1,1.6788029E1,3.0344837E1,4.2355267E1,1.2424912E3,3.0905928E1,1.6609133E1,1.2973863E2,1.3865079E0,3.0273943E0,1.3666747E0,5.004145E1,1.4581478E0,1.2370909E2,4.3438396E0,1.0950199E1,1.2225087E0,4.3404965E2,1.633693E1,1.0072811E1,1.191006E0,3.921179E1,4.2102866E0,2.430568E0,1.5871371E0,6.04425E1,1.2345068E0,2.7974963E2,4.4377646E0,7.381195E0,1.4903076E0,4.189318E0,1.247441E0,2.723849E0,1.7390321E0,1.5090445E2,1.9825791E0,1.2403288E0,1.487497E0,1.0542987E2,1.6616285E0,1.5635267E1,5.1521126E1,3.331055E0,1.1661967E1,3.5306406E2,1.2635664E1,1.9844126E1,1.4445552E0,1.3822252E1,2.965777E0,2.9175165E1,1.1696719E0,2.6897022E1,1.2155942E3,2.7227524E1,3.6784046E0,4.6150036E0,1.1994129E1,1.26518326E2,3.22031E0,1.4059371E0,1.6214573E0,4.6685753E1,3.3556957E0,1.1166295E2,1.2046142E1,9.751291E0,1.1989083E0,4.279281E2,6.121546E0,1.4616587E1,1.7203428E0,8.872617E0,1.2001941E0,3.799842E1,1.2133684E0,2.4046352E0,1.8056514E0,5.921571E1,1.226791E0,2.7628934E2,3.4603097E0,2.704379E0,1.7333854E0,5.8953395E0,1.4858556E0,1.2402521E0,1.483597E0,1.4943222E2,1.4722264E0],"tree_param":{"num_deleted":"0","num_feature":"8114","num_nodes":"169","size_leaf_vector":"1"}},{"base_weights":[5.2905297E-3,-3.7101275E-1,1.2836415E0,-6.1852103E-1,-3.935064E-2,1.0151024E0,8.077776E-2,-1.1032094E0,-5.6534684E-1,9.99815E-2,-9.619903E-2,1.075685E0,9.6757695E-2,-1.138023E0,7.548848E-1,-2.2798215E-1,-6.924619E-1,-3.5463864E-1,4.236429E-1,1.1092E0,-6.150187E-1,5.144732E-1,-1.0987009E0,-1.1661192E0,5.600112E-1,5.5942398E-2,-1.1123718E-3,-6.1336404E-1,9.947159E-2,1.0701759E0,-7.482754E-1,-6.3109696E-1,-4.064896E-2,2.5802457E-1,1.2173599E0,1.1372249E0,-7.991773E-1,3.8535316E-2,-6.3744605E-2,8.6844236E-1,-8.9867276E-1,1.08905155E-2,-6.81162E-2,-1.1876065E0,4.750265E-2,4.322351E-2,-5.8578927E-4,-7.6950014E-1,1.1054859E0,1.1478697E0,-5.2014694E-2,1.2584623E0,-4.8043873E-2,-6.888922E-1,-1.2134005E0,-6.593812E-1,1.2450743E0,4.5983054E-2,-7.614848E-1,-2.9408172E-1,4.390534E-1,1.2699984E0,-4.824556E-2,1.1646088E0,-5.316374E-1,-1.1587154E0,8.937888E-3,-3.9837924E-1,3.799985E-2,1.0515096E0,-4.967671E-2,-6.712803E-2,1.3734651E-2,-1.2158326E0,2.974205E-1,3.683009E-2,-1.0005552E0,1.3162924E0,-3.142589E-2,1.6319013E0,-6.8404324E-2,6.2951036E-2,-1.1489825E0,1.387293E0,-5.1896777E-2,-7.176182E-1,6.089849E-1,-1.2685152E0,7.579546E-1,-6.827189E-1,7.0297986E-1,-4.1418374E-3,8.939628E-2,7.6406464E-2,6.600137E-3,-9.991279E-1,3.421525E-1,-3.817249E-1,1.2617261E0,5.451056E-1,-5.453436E-1,1.3118496E0,-2.8210137E-2,1.206079E0,5.083557E-2,-6.789579E-2,2.0015088E-1,-6.747075E-2,-2.0458447E-2,-4.302728E-2,1.3736053E-2,1.3672681E0,-3.2552525E-1,-6.2430948E-2,6.1218846E-3,5.187739E-2,-3.922576E-2,3.1626627E-2,-7.258512E-2,-7.716111E-2,-3.656929E-2,7.604794E-2,-2.5995223E-2,9.1317795E-2,-3.195087E-2,-1.2290162E-3,6.726374E-2,-6.435623E-2,1.0520865E-2,7.6279454E-2,-3.790077E-2,-1.0852282E-2,-3.8174324E-2,5.259328E-2,-5.9467983E-2,-6.566716E-2,7.7723465E-3,6.89665E-2,-1.9631712E-2,-3.5489544E-2,2.1146914E-2,6.0038634E-2,-4.513676E-2,2.9739644E-3,-4.7279537E-2,-5.5746533E-2,3.8117167E-2,6.501808E-2,-3.6614973E-2,-1.1351362E-2,-6.980715E-2,1.6295573E-2,7.460862E-2,2.9336026E-2,-6.400582E-2,-3.7022606E-2,6.5988384E-2,6.736739E-2,-1.5975537E-2,6.1905015E-2,-9.308829E-3,-1.7469171E-2,5.226626E-2,3.7112392E-2,-3.931872E-2,7.3705055E-2,5.0014984E-3,-4.463123E-2,2.8251065E-2],"categories":[],"categories_nodes":[],"categories_segments":[],"categories_sizes":[],"default_left":[0,0,0,0,0,0,0,0,0,0,0,0,0,0,0,0,0,0,0,0,0,0,0,0,0,0,0,0,0,0,0,0,0,0,0,0,0,0,0,0,0,0,0,0,0,0,0,0,0,0,0,0,0,0,0,0,0,0,0,0,0,0,0,0,0,0,0,0,0,0,0,0,0,0,0,0,0,0,0,0,0,0,0,0,0,0,0,0,0,0,0,0,0,0,0,0,0,0,0,0,0,0,0,0,0,0,0,0,0,0,0,0,0,0,0,0,0,0,0,0,0,0,0,0,0,0,0,0,0,0,0,0,0,0,0,0,0,0,0,0,0,0,0,0,0,0,0,0,0,0,0,0,0,0,0,0,0,0,0,0,0,0,0,0,0,0,0,0,0],"id":8,"left_children":[1,3,5,7,9,11,-1,13,15,-1,17,19,21,23,25,27,29,31,33,35,37,39,41,43,45,-1,-1,47,49,51,53,55,57,59,61,63,65,67,-1,69,71,-1,-1,73,-1,-1,-1,75,77,79,81,83,-1,85,87,89,91,93,95,97,99,101,-1,103,105,107,-1,109,-1,111,-1,-1,-1,113,115,117,119,121,-1,123,-1,125,127,129,-1,131,133,135,137,139,141,-1,-1,-1,143,145,147,149,151,153,155,157,-1,159,161,-1,163,-1,-1,-1,-1,165,167,-1,-1,-1,-1,-1,-1,-1,-1,-1,-1,-1,-1,-1,-1,-1,-1,-1,-1,-1,-1,-1,-1,-1,-1,-1,-1,-1,-1,-1,-1,-1,-1,-1,-1,-1,-1,-1,-1,-1,-1,-1,-1,-1,-1,-1,-1,-1,-1,-1,-1,-1,-1,-1,-1,-1,-1],"loss_changes":[1.8091676E3,2.3849344E2,7.459485E1,4.2257874E1,1.4424564E2,2.634961E1,0E0,1.14313965E1,6.422769E1,0E0,1.6271341E2,2.595166E1,1.5808149E1,8.326019E0,1.0451481E0,5.2100895E1,1.08034546E2,7.017867E1,5.2564552E1,2.431482E1,4.0649014E0,1.2436219E1,3.150628E0,8.337082E0,5.834048E-1,0E0,0E0,5.1727127E1,3.5603962E1,1.4160622E1,2.8363037E1,2.3640152E1,2.374906E1,3.3519753E1,9.171852E0,2.0348877E1,2.6406355E0,2.083394E0,0E0,7.569845E0,3.05582E0,0E0,0E0,6.9588165E0,0E0,0E0,0E0,3.2524223E1,6.7478504E0,3.669504E1,2.4854448E1,1.0737377E1,0E0,3.5474213E1,1.3822769E1,1.3969696E1,5.0013847E0,1.9832916E1,1.1042311E1,1.1811726E1,2.6604477E1,5.9584503E0,0E0,1.9571716E1,4.9012165E0,1.9032049E-1,0E0,1.5349815E0,0E0,8.234697E0,0E0,0E0,0E0,6.938385E0,3.8081791E0,3.6212395E1,1.8674347E1,6.3392773E0,0E0,1.184874E1,0E0,2.0103712E1,3.7811584E0,1.0112019E1,0E0,2.0954956E1,1.7889336E1,7.5786743E0,3.290839E0,1.2801254E1,7.1894197E0,0E0,0E0,0E0,1.678035E1,7.7498016E0,9.16141E0,1.2147613E1,5.193825E-1,1.8067917E1,1.0077393E1,4.296768E0,0E0,1.8498474E1,6.8539257E0,0E0,3.2211835E0,0E0,0E0,0E0,0E0,1.851551E0,2.599915E0,0E0,0E0,0E0,0E0,0E0,0E0,0E0,0E0,0E0,0E0,0E0,0E0,0E0,0E0,0E0,0E0,0E0,0E0,0E0,0E0,0E0,0E0,0E0,0E0,0E0,0E0,0E0,0E0,0E0,0E0,0E0,0E0,0E0,0E0,0E0,0E0,0E0,0E0,0E0,0E0,0E0,0E0,0E0,0E0,0E0,0E0,0E0,0E0,0E0,0E0,0E0,0E0,0E0,0E0,0E0,0E0],"parents":[2147483647,0,0,1,1,2,2,3,3,4,4,5,5,7,7,8,8,10,10,11,11,12,12,13,13,14,14,15,15,16,16,17,17,18,18,19,19,20,20,21,21,22,22,23,23,24,24,27,27,28,28,29,29,30,30,31,31,32,32,33,33,34,34,35,35,36,36,37,37,39,39,40,40,43,43,47,47,48,48,49,49,50,50,51,51,53,53,54,54,55,55,56,56,57,57,58,58,59,59,60,60,61,61,63,63,64,64,65,65,67,67,69,69,73,73,74,74,75,75,76,76,77,77,79,79,81,81,82,82,83,83,85,85,86,86,87,87,88,88,89,89,90,90,94,94,95,95,96,96,97,97,98,98,99,99,100,100,101,101,103,103,104,104,106,106,111,111,112,112],"right_children":[2,4,6,8,10,12,-1,14,16,-1,18,20,22,24,26,28,30,32,34,36,38,40,42,44,46,-1,-1,48,50,52,54,56,58,60,62,64,66,68,-1,70,72,-1,-1,74,-1,-1,-1,76,78,80,82,84,-1,86,88,90,92,94,96,98,100,102,-1,104,106,108,-1,110,-1,112,-1,-1,-1,114,116,118,120,122,-1,124,-1,126,128,130,-1,132,134,136,138,140,142,-1,-1,-1,144,146,148,150,152,154,156,158,-1,160,162,-1,164,-1,-1,-1,-1,166,168,-1,-1,-1,-1,-1,-1,-1,-1,-1,-1,-1,-1,-1,-1,-1,-1,-1,-1,-1,-1,-1,-1,-1,-1,-1,-1,-1,-1,-1,-1,-1,-1,-1,-1,-1,-1,-1,-1,-1,-1,-1,-1,-1,-1,-1,-1,-1,-1,-1,-1,-1,-1,-1,-1,-1,-1],"split_conditions":[9.375E-1,8.75E-1,1E0,6.875E-1,7.8125E-1,1.9658E-2,8.077776E-2,7.1429E-2,8.4375E-1,9.99815E-2,9.53125E-1,6.1403997E-2,1.3514E-2,5.7143E-2,8.160025E-4,7.8125E-1,7.1875E-1,9.0625E-1,1E0,6.25E-2,6.024E-3,3.0252999E-2,1.9490123E-3,2.7027E-2,1.2048E-2,5.5942398E-2,-1.1123718E-3,8.59375E-1,7.96875E-1,1.1183001E-2,3.3333004E-2,2.91667E-1,2.000001E-2,8.90625E-1,9.4700046E-4,1.6129E-2,1.0608003E-2,7.33333E-1,-6.3744605E-2,5.115E-3,1.94444E-1,1.08905155E-2,-6.81162E-2,6.0606E-2,4.750265E-2,4.322351E-2,-5.8578927E-4,7.1875E-1,2.8489977E-3,8.59375E-1,5.7839993E-3,7.489994E-4,-4.8043873E-2,9.16667E-1,5.5E-1,1.94444E-1,7.246E-3,8.125E-1,9.375E-1,2.54902E-1,1.255E-2,1.6670004E-3,-4.824556E-2,2.3843005E-2,9.53125E-1,9.53125E-1,8.937888E-3,9.6875E-1,3.799985E-2,2E-2,-4.967671E-2,-6.712803E-2,1.3734651E-2,3.80769E-1,6.441001E-3,7.65625E-1,7.5E-1,1.1236E-2,-3.142589E-2,1.2500025E-4,-6.8404324E-2,4.28571E-1,8.1081E-2,4.1799992E-4,-5.1896777E-2,7.8125E-1,2.1700002E-4,1.03226006E-1,4.751E-3,6.875E-1,6.024E-3,-4.1418374E-3,8.939628E-2,7.6406464E-2,1.8519E-2,7.1428597E-1,1.049E-2,8.4500015E-4,7.3171E-2,3.9216E-2,4.329E-3,4.329E-3,-2.8210137E-2,2.5E-2,4.2105E-2,-6.789579E-2,1.1700019E-4,-6.747075E-2,-2.0458447E-2,-4.302728E-2,1.3736053E-2,3.4483E-2,9.5745E-2,-6.2430948E-2,6.1218846E-3,5.187739E-2,-3.922576E-2,3.1626627E-2,-7.258512E-2,-7.716111E-2,-3.656929E-2,7.604794E-2,-2.5995223E-2,9.1317795E-2,-3.195087E-2,-1.2290162E-3,6.726374E-2,-6.435623E-2,1.0520865E-2,7.6279454E-2,-3.790077E-2,-1.0852282E-2,-3.8174324E-2,5.259328E-2,-5.9467983E-2,-6.566716E-2,7.7723465E-3,6.89665E-2,-1.9631712E-2,-3.5489544E-2,2.1146914E-2,6.0038634E-2,-4.513676E-2,2.9739644E-3,-4.7279537E-2,-5.5746533E-2,3.8117167E-2,6.501808E-2,-3.6614973E-2,-1.1351362E-2,-6.980715E-2,1.6295573E-2,7.460862E-2,2.9336026E-2,-6.400582E-2,-3.7022606E-2,6.5988384E-2,6.736739E-2,-1.5975537E-2,6.1905015E-2,-9.308829E-3,-1.7469171E-2,5.226626E-2,3.7112392E-2,-3.931872E-2,7.3705055E-2,5.0014984E-3,-4.463123E-2,2.8251065E-2],"split_indices":[0,0,1,0,1,7002,0,2035,1,0,1,7468,6889,3285,7884,1,0,0,1,7197,2008,6976,7104,5116,3958,0,0,0,1,7106,5752,134,8040,0,6894,3852,5689,4764,0,295,1594,0,0,1607,0,0,0,1,7215,0,6995,5737,0,344,5720,8047,4190,1,1,1590,6976,7364,0,8015,1,1,0,0,0,6995,0,0,0,5797,7119,0,1,5392,0,6887,0,4662,4194,7541,0,0,6995,6887,1591,1544,4036,0,0,0,1600,7262,7002,6889,4298,5719,611,3299,0,6881,4271,0,5592,0,0,0,0,4371,1594,0,0,0,0,0,0,0,0,0,0,0,0,0,0,0,0,0,0,0,0,0,0,0,0,0,0,0,0,0,0,0,0,0,0,0,0,0,0,0,0,0,0,0,0,0,0,0,0,0,0,0,0,0,0,0,0],"split_type":[0,0,0,0,0,0,0,0,0,0,0,0,0,0,0,0,0,0,0,0,0,0,0,0,0,0,0,0,0,0,0,0,0,0,0,0,0,0,0,0,0,0,0,0,0,0,0,0,0,0,0,0,0,0,0,0,0,0,0,0,0,0,0,0,0,0,0,0,0,0,0,0,0,0,0,0,0,0,0,0,0,0,0,0,0,0,0,0,0,0,0,0,0,0,0,0,0,0,0,0,0,0,0,0,0,0,0,0,0,0,0,0,0,0,0,0,0,0,0,0,0,0,0,0,0,0,0,0,0,0,0,0,0,0,0,0,0,0,0,0,0,0,0,0,0,0,0,0,0,0,0,0,0,0,0,0,0,0,0,0,0,0,0,0,0,0,0,0,0],"sum_hessian":[3.7589006E3,2.9045957E3,8.54305E2,1.6628224E3,1.2417733E3,4.7447943E2,3.7982556E2,1.6243785E2,1.5003845E3,3.275555E1,1.2090178E3,4.4495468E2,2.9524767E1,1.5983075E2,2.6070905E0,4.1137756E2,1.089007E3,8.077583E2,4.0125952E2,4.36643E2,8.31166E0,2.230176E1,7.223007E0,1.5753734E2,2.2934177E0,1.4760714E0,1.1310191E0,1.8857253E2,2.2280504E2,3.2866943E1,1.05614E3,4.2901434E2,3.7874393E2,3.3308295E2,6.817657E1,4.3072186E2,5.9211397E0,4.648891E0,3.6627684E0,1.8142761E1,4.159E0,1.2340494E0,5.9889574E0,1.563882E2,1.149142E0,1.1623852E0,1.1310325E0,1.7337581E2,1.5196718E1,2.7298899E1,1.9550615E2,3.0426664E1,2.4402804E0,9.3876715E2,1.1737279E2,4.232817E2,5.73264E0,3.3894482E2,3.9799103E1,8.209204E1,2.5099092E2,6.697901E1,1.1975615E0,4.2406564E2,6.6562395E0,4.1942596E0,1.7268798E0,3.1743393E0,1.4745518E0,1.6914974E1,1.2277874E0,2.91286E0,1.24614E0,1.5364903E2,2.7391589E0,3.880292E1,1.3457289E2,1.3764261E1,1.4324565E0,2.3189058E1,4.1098413E0,1.7781335E2,1.7692793E1,2.9185223E1,1.2414417E0,9.1887665E2,1.9890505E1,1.1452738E2,2.845411E0,4.1664334E2,6.6383557E0,1.9093742E0,3.8232656E0,7.7947183E0,3.3115012E2,3.282556E1,6.973541E0,7.842857E1,3.6634638E0,2.2698352E2,2.4007395E1,6.576327E1,1.2157414E0,4.087629E2,1.5302726E1,2.7244213E0,3.931818E0,2.7055933E0,1.4886665E0,1.7169564E0,1.4573828E0,1.3765576E1,3.1493971E0,1.5004019E2,3.6088521E0,1.6508658E0,1.088293E0,2.8123224E1,1.0679696E1,4.304913E1,9.1523766E1,1.2538386E1,1.2258747E0,2.154036E1,1.6486984E0,1.6736954E2,1.0443807E1,1.6108969E1,1.5838237E0,2.7689129E1,1.4960933E0,7.76116E1,8.412651E2,1.6293077E1,3.597426E0,1.1110728E2,3.4201002E0,1.7185206E0,1.1268904E0,4.0703513E2,9.608222E0,5.2599044E0,1.3784515E0,3.1461572E2,1.6534395E1,3.114507E1,1.6804937E0,3.57503E0,3.3985105E0,6.9112755E1,9.315819E0,1.2009227E0,2.462541E0,2.225871E2,4.3964267E0,2.227972E1,1.7276738E0,6.4533134E1,1.2301353E0,3.9968112E2,9.081768E0,1.1374066E1,3.9286597E0,2.6972756E0,1.2345424E0,1.25447645E1,1.2208117E0,1.9226937E0,1.2267033E0],"tree_param":{"num_deleted":"0","num_feature":"8114","num_nodes":"169","size_leaf_vector":"1"}},{"base_weights":[3.6371434E-3,-3.6188728E-1,1.2356219E0,-6.031987E-1,-4.0057953E-2,9.651418E-1,7.837596E-2,-1.0970948E0,-5.5046105E-1,9.521353E-2,-9.366375E-2,8.45678E-1,1.4594556E0,-1.1265006E0,4.4258878E-2,-2.4390341E-1,-6.670024E-1,-3.3609748E-1,3.984031E-1,9.088529E-1,-7.472628E-2,1.4884063E0,-1.8051641E-2,-1.1666994E0,2.4066593E-1,-6.097534E-1,7.374453E-2,9.5414597E-1,-7.207792E-1,-6.056886E-1,-3.2404758E-2,2.3706278E-1,1.2323811E0,9.471024E-1,-6.5444005E-1,3.8199344E-1,-9.3908376E-1,1.5157102E0,-1.3565756E-2,-1.2031698E0,-6.232031E-2,4.956405E-2,-4.3766327E-2,-7.826311E-1,1.1955104E0,1.2543621E0,-9.497998E-2,1.1237851E0,-4.6581537E-2,-6.633889E-1,-1.1753219E0,-6.311108E-1,1.3316483E0,2.4498748E-2,-9.3706614E-1,-2.981249E-1,4.1214624E-1,1.2887031E0,-4.7128577E-2,9.9650127E-1,-3.4615546E-1,-1.11529E0,4.1739833E-2,6.3149303E-1,-4.702899E-2,-1.156833E0,1.3051433E-2,1.5423117E0,6.2638083E-3,-1.2254107E0,2.0429103E-2,-7.215763E-1,5.78653E-2,-9.613937E-3,-1.0067205E0,1.3657124E0,-2.7219806E-2,1.6559645E0,-6.3805915E-2,-1.931769E-3,-1.2684458E0,1.249178E0,-5.5753987E-2,-6.862823E-1,3.9833307E-1,-1.2393514E0,8.734281E-1,-6.469813E-1,7.095258E-2,6.1288537E-3,8.887986E-2,7.524041E-2,-9.3012387E-1,-1.1202257E0,5.0874263E-2,-1.3206309E-1,-1.1115565E0,5.143943E-1,-6.112937E-1,1.3366427E0,-6.7504286E-3,1.0326965E0,-4.5647496E-1,-6.269813E-1,4.3646507E-2,-6.871893E-2,-8.510581E-3,8.4305596E-1,-4.9943116E-2,-8.613235E-3,-7.0065096E-2,1.5637245E0,9.470964E-4,-6.238532E-2,1.7986456E-2,-5.0728757E-2,4.2031854E-3,2.8337998E-2,-7.097953E-2,-7.501745E-2,-3.7558965E-2,7.799685E-2,-2.6065085E-2,9.099454E-2,-2.8281504E-2,5.989211E-3,-4.0551372E-2,-7.319412E-2,2.3505911E-2,6.9009714E-2,-5.2993782E-2,-3.6770403E-2,-1.0977953E-2,-3.6644664E-2,5.1756162E-2,-6.519901E-2,-1.3260381E-2,7.254799E-2,-1.72166E-2,-3.3061396E-2,6.7235E-2,6.620814E-3,-4.074637E-2,-5.7545125E-2,3.7342675E-2,-6.603129E-2,3.640141E-2,-1.19724E-2,5.7641454E-2,-6.424848E-2,1.9925555E-2,2.7829204E-2,-6.062193E-2,-4.721554E-2,5.0838213E-2,6.871191E-2,-5.671365E-3,5.299514E-2,-4.3455426E-2,-4.3966584E-2,5.0384235E-2,-4.445485E-2,3.4903698E-2,5.0945707E-2,-1.2453495E-2,7.928329E-2,1.1233719E-3],"categories":[],"categories_nodes":[],"categories_segments":[],"categories_sizes":[],"default_left":[0,0,0,0,0,0,0,0,0,0,0,0,0,0,0,0,0,0,0,0,0,0,0,0,0,0,0,0,0,0,0,0,0,0,0,0,0,0,0,0,0,0,0,0,0,0,0,0,0,0,0,0,0,0,0,0,0,0,0,0,0,0,0,0,0,0,0,0,0,0,0,0,0,0,0,0,0,0,0,0,0,0,0,0,0,0,0,0,0,0,0,0,0,0,0,0,0,0,0,0,0,0,0,0,0,0,0,0,0,0,0,0,0,0,0,0,0,0,0,0,0,0,0,0,0,0,0,0,0,0,0,0,0,0,0,0,0,0,0,0,0,0,0,0,0,0,0,0,0,0,0,0,0,0,0,0,0,0,0,0,0,0,0,0,0,0,0],"id":9,"left_children":[1,3,5,7,9,11,-1,13,15,-1,17,19,21,23,-1,25,27,29,31,33,35,37,-1,39,41,43,45,47,49,51,53,55,57,59,61,63,65,67,-1,69,71,-1,-1,73,75,77,79,81,-1,83,85,87,89,91,93,95,97,99,-1,101,103,105,-1,107,-1,109,-1,111,-1,113,-1,115,-1,117,119,121,-1,123,-1,125,127,129,-1,131,