{"learner":{"attributes":{"scikit_learn":"{\"_estimator_type\": \"classifier\"}"},"feature_names":[],"feature_types":[],"gradient_booster":{"model":{"gbtree_model_param":{"num_parallel_tree":"1","num_trees":"400"},"iteration_indptr":[0,1,2,3,4,5,6,7,8,9,10,11,12,13,14,15,16,17,18,19,20,21,22,23,24,25,26,27,28,29,30,31,32,33,34,35,36,37,38,39,40,41,42,43,44,45,46,47,48,49,50,51,52,53,54,55,56,57,58,59,60,61,62,63,64,65,66,67,68,69,70,71,72,73,74,75,76,77,78,79,80,81,82,83,84,85,86,87,88,89,90,91,92,93,94,95,96,97,98,99,100,101,102,103,104,105,106,107,108,109,110,111,112,113,114,115,116,117,118,119,120,121,122,123,124,125,126,127,128,129,130,131,132,133,134,135,136,137,138,139,140,141,142,143,144,145,146,147,148,149,150,151,152,153,154,155,156,157,158,159,160,161,162,163,164,165,166,167,168,169,170,171,172,173,174,175,176,177,178,179,180,181,182,183,184,185,186,187,188,189,190,191,192,193,194,195,196,197,198,199,200,201,202,203,204,205,206,207,208,209,210,211,212,213,214,215,216,217,218,219,220,221,222,223,224,225,226,227,228,229,230,231,232,233,234,235,236,237,238,239,240,241,242,243,244,245,246,247,248,249,250,251,252,253,254,255,256,257,258,259,260,261,262,263,264,265,266,267,268,269,270,271,272,273,274,275,276,277,278,279,280,281,282,283,284,285,286,287,288,289,290,291,292,293,294,295,296,297,298,299,300,301,302,303,304,305,306,307,308,309,310,311,312,313,314,315,316,317,318,319,320,321,322,323,324,325,326,327,328,329,330,331,332,333,334,335,336,337,338,339,340,341,342,343,344,345,346,347,348,349,350,351,352,353,354,355,356,357,358,359,360,361,362,363,364,365,366,367,368,369,370,371,372,373,374,375,376,377,378,379,380,381,382,383,384,385,386,387,388,389,390,391,392,393,394,395,396,397,398,399,400],"tree_info":[0,0,0,0,0,0,0,0,0,0,0,0,0,0,0,0,0,0,0,0,0,0,0,0,0,0,0,0,0,0,0,0,0,0,0,0,0,0,0,0,0,0,0,0,0,0,0,0,0,0,0,0,0,0,0,0,0,0,0,0,0,0,0,0,0,0,0,0,0,0,0,0,0,0,0,0,0,0,0,0,0,0,0,0,0,0,0,0,0,0,0,0,0,0,0,0,0,0,0,0,0,0,0,0,0,0,0,0,0,0,0,0,0,0,0,0,0,0,0,0,0,0,0,0,0,0,0,0,0,0,0,0,0,0,0,0,0,0,0,0,0,0,0,0,0,0,0,0,0,0,0,0,0,0,0,0,0,0,0,0,0,0,0,0,0,0,0,0,0,0,0,0,0,0,0,0,0,0,0,0,0,0,0,0,0,0,0,0,0,0,0,0,0,0,0,0,0,0,0,0,0,0,0,0,0,0,0,0,0,0,0,0,0,0,0,0,0,0,0,0,0,0,0,0,0,0,0,0,0,0,0,0,0,0,0,0,0,0,0,0,0,0,0,0,0,0,0,0,0,0,0,0,0,0,0,0,0,0,0,0,0,0,0,0,0,0,0,0,0,0,0,0,0,0,0,0,0,0,0,0,0,0,0,0,0,0,0,0,0,0,0,0,0,0,0,0,0,0,0,0,0,0,0,0,0,0,0,0,0,0,0,0,0,0,0,0,0,0,0,0,0,0,0,0,0,0,0,0,0,0,0,0,0,0,0,0,0,0,0,0,0,0,0,0,0,0,0,0,0,0,0,0,0,0,0,0,0,0,0,0,0,0,0,0,0,0,0,0,0,0,0,0,0,0,0,0,0,0,0,0,0,0,0,0,0,0,0,0,0,0,0,0,0,0,0,0,0,0,0,0],"trees":[{"base_weights":[5.0595682E-2,1.553473E0,-9.3137175E-1,1.7236513E0,-1.070339E0,-2.8964394E-1,-1.4737583E0,2.0356536E-1,3.7445433E-2,-1.3492851E-1,-1.2840832E-2,1.5122133E-1,-5.9372216E-2,2.9120225E-2,-1.5323137E-1],"categories":[],"categories_nodes":[],"categories_segments":[],"categories_sizes":[],"default_left":[0,0,0,0,0,0,0,0,0,0,0,0,0,0,0],"id":0,"left_children":[1,3,5,7,9,11,13,-1,-1,-1,-1,-1,-1,-1,-1],"loss_changes":[2.670142E2,3.376552E1,3.7673187E1,2.765924E1,1.1329055E0,2.9051542E1,6.551834E0,0E0,0E0,0E0,0E0,0E0,0E0,0E0,0E0],"parents":[2147483647,0,0,1,1,2,2,3,3,4,4,5,5,6,6],"right_children":[2,4,6,8,10,12,14,-1,-1,-1,-1,-1,-1,-1,-1],"split_conditions":[6.4100027E-3,1.33333E-1,3.7037E-2,8.333403E-2,3.33333E-1,5.83333E-1,5.8824E-2,2.0356536E-1,3.7445433E-2,-1.3492851E-1,-1.2840832E-2,1.5122133E-1,-5.9372216E-2,2.9120225E-2,-1.5323137E-1],"split_indices":[5752,7080,8040,7228,313,3016,1367,0,0,0,0,0,0,0,0],"split_type":[0,0,0,0,0,0,0,0,0,0,0,0,0,0,0],"sum_hessian":[1.789509E2,7.048829E1,1.0846261E2,6.651712E1,3.9711711E0,5.0384235E1,5.8078377E1,5.361081E1,1.2906306E1,2.7301803E0,1.240991E0,6.701351E0,4.3682884E1,1.7373874E0,5.6340992E1],"tree_param":{"num_deleted":"0","num_feature":"8114","num_nodes":"15","size_leaf_vector":"1"}},{"base_weights":[2.230473E-2,9.3752617E-1,-1.2451181E0,1.2353076E0,-9.169268E-1,5.676845E-1,-1.37605E0,1.400855E-1,-1.448295E-1,-1.24094225E-1,9.529007E-2,-8.7257236E-2,1.5627383E-1,-1.427729E-1,8.223877E-2],"categories":[],"categories_nodes":[],"categories_segments":[],"categories_sizes":[],"default_left":[0,0,0,0,0,0,0,0,0,0,0,0,0,0,0],"id":1,"left_children":[1,3,5,7,9,11,13,-1,-1,-1,-1,-1,-1,-1,-1],"loss_changes":[2.048219E2,5.7746407E1,1.8356827E1,4.1462296E1,1.0124001E1,9.526611E0,9.053528E0,0E0,0E0,0E0,0E0,0E0,0E0,0E0,0E0],"parents":[2147483647,0,0,1,1,2,2,3,3,4,4,5,5,6,6],"right_children":[2,4,6,8,10,12,14,-1,-1,-1,-1,-1,-1,-1,-1],"split_conditions":[1.4286011E-2,3.5293996E-2,4.545003E-3,1.34615E-1,3.4375E-1,6E-1,5E-1,1.400855E-1,-1.448295E-1,-1.24094225E-1,9.529007E-2,-8.7257236E-2,1.5627383E-1,-1.427729E-1,8.223877E-2],"split_indices":[5799,5728,7104,5596,5720,59,5127,0,0,0,0,0,0,0,0],"split_type":[0,0,0,0,0,0,0,0,0,0,0,0,0,0,0],"sum_hessian":[1.7456842E2,1.01519936E2,7.3048485E1,8.776139E1,1.3758542E1,4.6959195E0,6.835257E1,8.311231E1,4.649077E0,1.201316E1,1.7453823E0,1.9690193E0,2.7269003E0,6.712521E1,1.227353E0],"tree_param":{"num_deleted":"0","num_feature":"8114","num_nodes":"15","size_leaf_vector":"1"}},{"base_weights":[-3.5046708E-2,1.0906192E0,-8.961549E-1,1.2903247E0,-1.51771E-1,-2.4865091E-1,-1.4043125E0,1.4976394E-1,-6.109167E-2,1.09204855E-2,-1.5068206E-1,-1.4974457E-1,3.293771E-2],"categories":[],"categories_nodes":[],"categories_segments":[],"categories_sizes":[],"default_left":[0,0,0,0,0,0,0,0,0,0,0,0,0],"id":2,"left_children":[1,3,5,7,-1,9,11,-1,-1,-1,-1,-1,-1],"loss_changes":[1.7157613E2,4.192804E1,3.2641777E1,2.9221458E1,0E0,2.0562054E1,9.52919E0,0E0,0E0,0E0,0E0,0E0,0E0],"parents":[2147483647,0,0,1,1,2,2,3,3,5,5,6,6],"right_children":[2,4,6,8,-1,10,12,-1,-1,-1,-1,-1,-1],"split_conditions":[2.962999E-3,2.0833E-2,6.340001E-3,5.5556E-2,-1.51771E-1,6.25E-2,2.85714E-1,1.4976394E-1,-6.109167E-2,1.09204855E-2,-1.5068206E-1,-1.4974457E-1,3.293771E-2],"split_indices":[6889,7201,6995,5728,0,5594,5318,0,0,0,0,0,0],"split_type":[0,0,0,0,0,0,0,0,0,0,0,0,0],"sum_hessian":[1.7499838E2,7.573233E1,9.926606E1,7.081567E1,4.916664E0,4.430329E1,5.4962765E1,6.404443E1,6.771236E0,3.5203667E1,9.099625E0,5.229003E1,2.6727333E0],"tree_param":{"num_deleted":"0","num_feature":"8114","num_nodes":"13","size_leaf_vector":"1"}},{"base_weights":[1.61397E-2,7.974439E-1,-1.1055155E0,1.2393534E0,3.5643417E-3,-5.439819E-1,-1.3900056E0,1.5427051E-1,-2.0102372E-3,3.232742E-2,-1.1812874E-1,3.773145E-2,-1.0903052E-1,-1.4464524E-1,4.530729E-2],"categories":[],"categories_nodes":[],"categories_segments":[],"categories_sizes":[],"default_left":[0,0,0,0,0,0,0,0,0,0,0,0,0,0,0],"id":3,"left_children":[1,3,5,7,9,11,13,-1,-1,-1,-1,-1,-1,-1,-1],"loss_changes":[1.5722829E2,3.7090958E1,1.1012344E1,2.5981918E1,1.5085005E1,1.3706762E1,5.6753616E0,0E0,0E0,0E0,0E0,0E0,0E0,0E0,0E0],"parents":[2147483647,0,0,1,1,2,2,3,3,4,4,5,5,6,6],"right_children":[2,4,6,8,10,12,14,-1,-1,-1,-1,-1,-1,-1,-1],"split_conditions":[1.9231007E-2,1.1029005E-2,3.2738E-2,1.00000024E-1,6.7273006E-2,1.6562998E-2,5.2632E-2,1.5427051E-1,-2.0102372E-3,3.232742E-2,-1.1812874E-1,3.773145E-2,-1.0903052E-1,-1.4464524E-1,4.530729E-2],"split_indices":[5799,5752,6896,7228,8040,5728,297,0,0,0,0,0,0,0,0],"split_type":[0,0,0,0,0,0,0,0,0,0,0,0,0,0,0],"sum_hessian":[1.774059E2,1.0473815E2,7.266775E1,6.692405E1,3.7814102E1,2.5415049E1,4.72527E1,5.375239E1,1.3171661E1,3.0351488E1,7.462615E0,9.575943E0,1.5839106E1,4.6057327E1,1.1953702E0],"tree_param":{"num_deleted":"0","num_feature":"8114","num_nodes":"15","size_leaf_vector":"1"}},{"base_weights":[-3.7209786E-2,9.646343E-1,-7.1976966E-1,1.3064514E-1,1.388449E0,-2.2205378E-1,-1.1372259E0,9.848595E-2,-1.1054789E-1,1.5180469E-1,-8.6000055E-2,5.1708903E-2,-8.383348E-2,-6.575193E-2,-1.3560408E-1],"categories":[],"categories_nodes":[],"categories_segments":[],"categories_sizes":[],"default_left":[0,0,0,0,0,0,0,0,0,0,0,0,0,0,0],"id":4,"left_children":[1,3,5,7,9,11,13,-1,-1,-1,-1,-1,-1,-1,-1],"loss_changes":[1.1768379E2,2.4473625E1,2.100877E1,2.7072002E1,1.4752388E1,2.2261946E1,4.9244614E0,0E0,0E0,0E0,0E0,0E0,0E0,0E0,0E0],"parents":[2147483647,0,0,1,1,2,2,3,3,4,4,5,5,6,6],"right_children":[2,4,6,8,10,12,14,-1,-1,-1,-1,-1,-1,-1,-1],"split_conditions":[6.4100027E-3,9.0625E-1,3.7037E-2,4.167E-3,4.6439003E-2,5.0595E-2,6.1220005E-3,9.848595E-2,-1.1054789E-1,1.5180469E-1,-8.6000055E-2,5.1708903E-2,-8.383348E-2,-6.575193E-2,-1.3560408E-1],"split_indices":[5752,1,8040,4185,8040,6872,6995,0,0,0,0,0,0,0,0],"split_type":[0,0,0,0,0,0,0,0,0,0,0,0,0,0,0],"sum_hessian":[1.7008263E2,6.875399E1,1.0132863E2,2.3607344E1,4.514665E1,4.691989E1,5.4408733E1,1.4080433E1,9.52691E0,4.299341E1,2.153242E0,2.140661E1,2.5513283E1,1.8298326E1,3.611041E1],"tree_param":{"num_deleted":"0","num_feature":"8114","num_nodes":"15","size_leaf_vector":"1"}},{"base_weights":[-5.6053363E-3,8.295886E-1,-7.493585E-1,1.163483E0,6.8384275E-2,-8.031973E-3,-1.1541111E0,1.2540013E-1,-1.10755615E-1,-4.2440485E-2,1.1493333E-1,5.741827E-2,-7.175857E-2,-1.20811515E-1,5.812778E-2],"categories":[],"categories_nodes":[],"categories_segments":[],"categories_sizes":[],"default_left":[0,0,0,0,0,0,0,0,0,0,0,0,0,0,0],"id":5,"left_children":[1,3,5,7,9,11,13,-1,-1,-1,-1,-1,-1,-1,-1],"loss_changes":[1.0708145E2,2.055935E1,2.7349606E1,1.29794235E1,1.4242324E1,1.41308155E1,6.2289276E0,0E0,0E0,0E0,0E0,0E0,0E0,0E0,0E0],"parents":[2147483647,0,0,1,1,2,2,3,3,4,4,5,5,6,6],"right_children":[2,4,6,8,10,12,14,-1,-1,-1,-1,-1,-1,-1,-1],"split_conditions":[2.4999999E-2,1.1029005E-2,9.091005E-3,1.33333E-1,3.75E-1,4.6439003E-2,6.25E-2,1.2540013E-1,-1.10755615E-1,-4.2440485E-2,1.1493333E-1,5.741827E-2,-7.175857E-2,-1.20811515E-1,5.812778E-2],"split_indices":[5803,5752,7364,7080,3959,8016,4380,0,0,0,0,0,0,0,0],"split_type":[0,0,0,0,0,0,0,0,0,0,0,0,0,0,0],"sum_hessian":[1.7038368E2,8.0203804E1,9.017987E1,5.5382404E1,2.4821402E1,3.220836E1,5.7971516E1,5.369027E1,1.692136E0,1.7466192E1,7.355209E0,1.779648E1,1.4411877E1,5.65166E1,1.4549146E0],"tree_param":{"num_deleted":"0","num_feature":"8114","num_nodes":"15","size_leaf_vector":"1"}},{"base_weights":[4.806094E-3,6.834071E-1,-9.0177286E-1,1.0857881E0,-8.453428E-2,3.13533E-1,-1.0904384E0,1.3053642E-1,-3.8204336E-4,-4.3304674E-2,9.630673E-2,1.04454376E-1,-1.08480096E-1,-1.1788928E-1,2.305966E-2],"categories":[],"categories_nodes":[],"categories_segments":[],"categories_sizes":[],"default_left":[0,0,0,0,0,0,0,0,0,0,0,0,0,0,0],"id":6,"left_children":[1,3,5,7,9,11,13,-1,-1,-1,-1,-1,-1,-1,-1],"loss_changes":[9.995322E1,2.8802914E1,1.6289852E1,1.4609169E1,1.2419343E1,1.1481277E1,7.3333206E0,0E0,0E0,0E0,0E0,0E0,0E0,0E0,0E0],"parents":[2147483647,0,0,1,1,2,2,3,3,4,4,5,5,6,6],"right_children":[2,4,6,8,10,12,14,-1,-1,-1,-1,-1,-1,-1,-1],"split_conditions":[1.4286011E-2,5.0595E-2,2.5000006E-2,1.14286005E-1,5.8824E-2,8.3611995E-2,2.7027E-2,1.3053642E-1,-3.8204336E-4,-4.3304674E-2,9.630673E-2,1.04454376E-1,-1.08480096E-1,-1.1788928E-1,2.305966E-2],"split_indices":[5799,6872,7338,7228,1689,7228,323,0,0,0,0,0,0,0,0],"split_type":[0,0,0,0,0,0,0,0,0,0,0,0,0,0,0],"sum_hessian":[1.6046954E2,9.191479E1,6.855476E1,6.0041004E1,3.1873787E1,9.123444E0,5.9431316E1,4.9806137E1,1.0234864E1,2.4357311E1,7.5164757E0,6.1574864E0,2.965957E0,5.5802475E1,3.6288433E0],"tree_param":{"num_deleted":"0","num_feature":"8114","num_nodes":"15","size_leaf_vector":"1"}},{"base_weights":[-3.315946E-2,5.3992325E-1,-8.848703E-1,1.0854968E0,-4.982994E-2,-1.0310323E0,-5.2011587E-2,1.1742262E-1,-3.4533374E-2,1.0820539E-1,-3.1580262E-2,5.850721E-2,-1.08525716E-1,1.1692144E-1,-7.8961544E-2],"categories":[],"categories_nodes":[],"categories_segments":[],"categories_sizes":[],"default_left":[0,0,0,0,0,0,0,0,0,0,0,0,0,0,0],"id":7,"left_children":[1,3,5,7,9,11,13,-1,-1,-1,-1,-1,-1,-1,-1],"loss_changes":[7.735133E1,3.0546156E1,7.7040024E0,6.660904E0,1.433946E1,5.3811455E0,1.0441944E1,0E0,0E0,0E0,0E0,0E0,0E0,0E0,0E0],"parents":[2147483647,0,0,1,1,2,2,3,3,4,4,5,5,6,6],"right_children":[2,4,6,8,10,12,14,-1,-1,-1,-1,-1,-1,-1,-1],"split_conditions":[1.1904001E-2,1.3071999E-2,8.88889E-1,2.5E-1,1.26129985E-2,3.33333E-1,2.0512998E-2,1.1742262E-1,-3.4533374E-2,1.0820539E-1,-3.1580262E-2,5.850721E-2,-1.08525716E-1,1.1692144E-1,-7.8961544E-2],"split_indices":[8040,6872,4219,2995,6903,4219,6973,0,0,0,0,0,0,0,0],"split_type":[0,0,0,0,0,0,0,0,0,0,0,0,0,0,0],"sum_hessian":[1.5649529E2,9.376833E1,6.272695E1,4.8271946E1,4.5496387E1,5.315977E1,9.56718E0,4.5622143E1,2.649802E0,8.072871E0,3.7423515E1,1.4079468E0,5.1751823E1,3.3822124E0,6.1849675E0],"tree_param":{"num_deleted":"0","num_feature":"8114","num_nodes":"15","size_leaf_vector":"1"}},{"base_weights":[1.11093465E-2,8.0518174E-1,-5.7070434E-1,-2.6546565E-1,1.0362248E0,-9.3047254E-2,-9.922689E-1,1.2015357E-1,-8.587684E-2,1.2283837E-1,3.343067E-3,1.6198289E-2,-1.2660562E-1,-2.7246892E-2,-1.1684761E-1],"categories":[],"categories_nodes":[],"categories_segments":[],"categories_sizes":[],"default_left":[0,0,0,0,0,0,0,0,0,0,0,0,0,0,0],"id":8,"left_children":[1,3,5,7,9,11,13,-1,-1,-1,-1,-1,-1,-1,-1],"loss_changes":[7.168564E1,1.650404E1,1.7942013E1,1.186017E1,1.0396526E1,1.3095775E1,5.7024994E0,0E0,0E0,0E0,0E0,0E0,0E0,0E0,0E0],"parents":[2147483647,0,0,1,1,2,2,3,3,4,4,5,5,6,6],"right_children":[2,4,6,8,10,12,14,-1,-1,-1,-1,-1,-1,-1,-1],"split_conditions":[2.962999E-3,6.6667E-2,6.340001E-3,7.5E-1,3.3613995E-2,1.81818E-1,3.5714E-2,1.2015357E-1,-8.587684E-2,1.2283837E-1,3.343067E-3,1.6198289E-2,-1.2660562E-1,-2.7246892E-2,-1.1684761E-1],"split_indices":[6889,4199,6995,4342,8022,320,5803,0,0,0,0,0,0,0,0],"split_type":[0,0,0,0,0,0,0,0,0,0,0,0,0,0,0],"sum_hessian":[1.5316835E2,6.460715E1,8.85612E1,1.1440982E1,5.316617E1,4.2090706E1,4.6470493E1,2.9994273E0,8.441554E0,4.4427803E1,8.738366E0,3.5281807E1,6.808899E0,9.639556E0,3.6830936E1],"tree_param":{"num_deleted":"0","num_feature":"8114","num_nodes":"15","size_leaf_vector":"1"}},{"base_weights":[3.4233224E-2,4.807566E-1,-8.2323986E-1,7.7755976E-1,-7.008746E-1,9.242143E-2,-9.7348785E-1,2.2448117E-2,1.2792365E-1,-9.138273E-2,8.609786E-2,1.0854047E-1,-7.1121946E-2,1.7492905E-3,-1.0614661E-1],"categories":[],"categories_nodes":[],"categories_segments":[],"categories_sizes":[],"default_left":[0,0,0,0,0,0,0,0,0,0,0,0,0,0,0],"id":9,"left_children":[1,3,5,7,9,11,13,-1,-1,-1,-1,-1,-1,-1,-1],"loss_changes":[5.7205357E1,3.498414E1,7.1305504E0,2.1621113E1,7.518508E0,7.2572536E0,3.8589554E0,0E0,0E0,0E0,0E0,0E0,0E0,0E0,0E0],"parents":[2147483647,0,0,1,1,2,2,3,3,4,4,5,5,6,6],"right_children":[2,4,6,8,10,12,14,-1,-1,-1,-1,-1,-1,-1,-1],"split_conditions":[3.5714E-2,3.5293996E-2,4.166999E-3,9.375E-1,4.16666E-1,3.0770004E-3,5.4939985E-3,2.2448117E-2,1.2792365E-1,-9.138273E-2,8.609786E-2,1.0854047E-1,-7.1121946E-2,1.7492905E-3,-1.0614661E-1],"split_indices":[8040,5728,6999,1,5720,5728,5720,0,0,0,0,0,0,0,0],"split_type":[0,0,0,0,0,0,0,0,0,0,0,0,0,0,0],"sum_hessian":[1.4737369E2,9.7197876E1,5.017581E1,7.795822E1,1.9239655E1,7.1269135E0,4.3048897E1,3.7767986E1,4.0190235E1,1.7296282E1,1.943372E0,3.0310822E0,4.0958314E0,3.5755298E0,3.947337E1],"tree_param":{"num_deleted":"0","num_feature":"8114","num_nodes":"15","size_leaf_vector":"1"}},{"base_weights":[2.4840428E-2,5.4723567E-1,-7.694839E-1,6.6486347E-1,-1.2305888E-1,-2.3916025E-1,-1.0584897E0,9.144168E-2,-1.1753204E-2,4.226571E-2,-1.1063945E-1,-1.1394533E-1,3.523339E-2],"categories":[],"categories_nodes":[],"categories_segments":[],"categories_sizes":[],"default_left":[0,0,0,0,0,0,0,0,0,0,0,0,0],"id":10,"left_children":[1,3,5,7,-1,9,11,-1,-1,-1,-1,-1,-1],"loss_changes":[6.131941E1,1.9454865E1,8.734596E0,1.6554825E1,0E0,1.3081157E1,4.7037125E0,0E0,0E0,0E0,0E0,0E0,0E0],"parents":[2147483647,0,0,1,1,2,2,3,3,5,5,6,6],"right_children":[2,4,6,8,-1,10,12,-1,-1,-1,-1,-1,-1],"split_conditions":[1.9231007E-2,7.652199E-2,3.6974996E-2,1.45455E-1,-1.2305888E-1,5.8824003E-2,2E-1,9.144168E-2,-1.1753204E-2,4.226571E-2,-1.1063945E-1,-1.1394533E-1,3.523339E-2],"split_indices":[5799,5594,7228,4273,0,6872,3854,0,0,0,0,0,0],"split_type":[0,0,0,0,0,0,0,0,0,0,0,0,0],"sum_hessian":[1.4576018E2,8.811895E1,5.7641224E1,8.323765E1,4.8813033E0,2.0976683E1,3.6664543E1,6.2980583E1,2.0257061E1,1.2188127E1,8.788555E0,3.4856564E1,1.8079813E0],"tree_param":{"num_deleted":"0","num_feature":"8114","num_nodes":"13","size_leaf_vector":"1"}},{"base_weights":[2.5316618E-2,5.0659186E-1,-7.6940894E-1,7.022276E-1,-9.0263194E-1,-9.3468624E-1,8.39377E-1,8.1358E-2,-9.82624E-2,6.0303986E-2,-1.12158455E-1,-1.0022048E-1,5.7170477E-2,-3.9510943E-2,1.2209699E-1],"categories":[],"categories_nodes":[],"categories_segments":[],"categories_sizes":[],"default_left":[0,0,0,0,0,0,0,0,0,0,0,0,0,0,0],"id":11,"left_children":[1,3,5,7,9,11,13,-1,-1,-1,-1,-1,-1,-1,-1],"loss_changes":[5.2558567E1,2.4220503E1,1.4569115E1,1.4999226E1,4.2588005E0,5.402668E0,3.005767E0,0E0,0E0,0E0,0E0,0E0,0E0,0E0,0E0],"parents":[2147483647,0,0,1,1,2,2,3,3,4,4,5,5,6,6],"right_children":[2,4,6,8,10,12,14,-1,-1,-1,-1,-1,-1,-1,-1],"split_conditions":[1.6562998E-2,1.0606001E-1,3.33334E-1,6.0297012E-2,4.7620013E-3,2.85714E-1,1.47059E-1,8.1358E-2,-9.82624E-2,6.0303986E-2,-1.12158455E-1,-1.0022048E-1,5.7170477E-2,-3.9510943E-2,1.2209699E-1],"split_indices":[5728,5799,5720,5594,8022,7208,4294,0,0,0,0,0,0,0,0],"split_type":[0,0,0,0,0,0,0,0,0,0,0,0,0,0,0],"sum_hessian":[1.3539552E2,8.4553566E1,5.0841953E1,7.4686844E1,9.866722E0,4.6485332E1,4.3566203E0,7.054183E1,4.1450133E0,1.0299386E0,8.836783E0,4.4811516E1,1.6738169E0,1.0203329E0,3.3362875E0],"tree_param":{"num_deleted":"0","num_feature":"8114","num_nodes":"15","size_leaf_vector":"1"}},{"base_weights":[-5.9043325E-2,3.5996482E-1,-7.5390244E-1,8.1538033E-1,-1.7578335E-1,-9.093315E-1,9.2846847E-1,9.9738605E-2,-9.75834E-2,-4.081663E-2,8.8382944E-2,-9.708869E-2,9.8916225E-2,1.1896696E-1,3.9746924E-3],"categories":[],"categories_nodes":[],"categories_segments":[],"categories_sizes":[],"default_left":[0,0,0,0,0,0,0,0,0,0,0,0,0,0,0],"id":12,"left_children":[1,3,5,7,9,11,13,-1,-1,-1,-1,-1,-1,-1,-1],"loss_changes":[4.0735165E1,2.1461819E1,1.4599478E1,1.6428085E1,1.0448888E1,6.646843E0,1.1003051E0,0E0,0E0,0E0,0E0,0E0,0E0,0E0,0E0],"parents":[2147483647,0,0,1,1,2,2,3,3,4,4,5,5,6,6],"right_children":[2,4,6,8,10,12,14,-1,-1,-1,-1,-1,-1,-1,-1],"split_conditions":[6.340001E-3,4.2857E-2,4.3478E-2,3.3333302E-1,5.8824E-2,1.17647E-1,1.4433E-1,9.9738605E-2,-9.75834E-2,-4.081663E-2,8.8382944E-2,-9.708869E-2,9.8916225E-2,1.1896696E-1,3.9746924E-3],"split_indices":[6995,7207,7001,6872,7001,5699,4296,0,0,0,0,0,0,0,0],"split_type":[0,0,0,0,0,0,0,0,0,0,0,0,0,0,0],"sum_hessian":[1.379784E2,8.637514E1,5.1603256E1,4.6405746E1,3.9969395E1,4.7659622E1,3.9436316E0,4.252768E1,3.8780682E0,3.3284573E1,6.684821E0,4.663613E1,1.023494E0,2.7861369E0,1.1574947E0],"tree_param":{"num_deleted":"0","num_feature":"8114","num_nodes":"15","size_leaf_vector":"1"}},{"base_weights":[-7.150346E-2,3.3473775E-1,-7.705797E-1,7.6179945E-1,-2.6188573E-1,-8.915884E-1,1.0624694E-1,1.04413986E-1,-1.3682467E-2,-5.9595603E-2,5.8791976E-2,-9.4480015E-2,1.7846817E-2],"categories":[],"categories_nodes":[],"categories_segments":[],"categories_sizes":[],"default_left":[0,0,0,0,0,0,0,0,0,0,0,0,0],"id":13,"left_children":[1,3,5,7,9,11,-1,-1,-1,-1,-1,-1,-1],"loss_changes":[3.7445557E1,2.1478878E1,1.1689701E1,1.2557369E1,1.0452852E1,2.7863655E0,0E0,0E0,0E0,0E0,0E0,0E0,0E0],"parents":[2147483647,0,0,1,1,2,2,3,3,4,4,5,5],"right_children":[2,4,6,8,10,12,-1,-1,-1,-1,-1,-1,-1],"split_conditions":[1.5685998E-2,2.8984994E-2,1.17647E-1,7.5187996E-2,5E-1,5E-1,1.0624694E-1,1.04413986E-1,-1.3682467E-2,-5.9595603E-2,5.8791976E-2,-9.4480015E-2,1.7846817E-2],"split_indices":[5728,6896,3001,7228,6663,4532,0,0,0,0,0,0,0],"split_type":[0,0,0,0,0,0,0,0,0,0,0,0,0],"sum_hessian":[1.2994528E2,8.2515656E1,4.7429623E1,4.7930363E1,3.4585293E1,4.497425E1,2.4553716E0,3.634814E1,1.1582222E1,2.5040312E1,9.544979E0,4.295523E1,2.01902E0],"tree_param":{"num_deleted":"0","num_feature":"8114","num_nodes":"13","size_leaf_vector":"1"}},{"base_weights":[1.1892172E-2,3.7016785E-1,-7.962496E-1,5.6396157E-1,-1.0026222E0,-9.2666227E-1,6.6957015E-1,8.918597E-2,5.3680064E-3,-1.1554281E-1,2.6549399E-2,-9.895825E-2,6.1331756E-2,1.2311721E-1,-2.8223036E-2],"categories":[],"categories_nodes":[],"categories_segments":[],"categories_sizes":[],"default_left":[0,0,0,0,0,0,0,0,0,0,0,0,0,0,0],"id":14,"left_children":[1,3,5,7,9,11,13,-1,-1,-1,-1,-1,-1,-1,-1],"loss_changes":[3.683513E1,2.4008965E1,8.091362E0,1.2979683E1,2.4888582E0,4.1250286E0,2.3645391E0,0E0,0E0,0E0,0E0,0E0,0E0,0E0,0E0],"parents":[2147483647,0,0,1,1,2,2,3,3,4,4,5,5,6,6],"right_children":[2,4,6,8,10,12,14,-1,-1,-1,-1,-1,-1,-1,-1],"split_conditions":[3.5293996E-2,1.34615E-1,4.2105E-2,2.691E-2,2E-2,2.85714E-1,7.08333E-1,8.918597E-2,5.3680064E-3,-1.1554281E-1,2.6549399E-2,-9.895825E-2,6.1331756E-2,1.2311721E-1,-2.8223036E-2],"split_indices":[5728,5596,7001,6977,4287,4352,3016,0,0,0,0,0,0,0,0],"split_type":[0,0,0,0,0,0,0,0,0,0,0,0,0,0,0],"sum_hessian":[1.2520257E2,8.712095E1,3.8081615E1,7.6859985E1,1.0260965E1,3.5308105E1,2.7735095E0,4.6336906E1,3.0523079E1,9.236809E0,1.0241567E0,3.42655E1,1.0426077E0,1.5597017E0,1.2138078E0],"tree_param":{"num_deleted":"0","num_feature":"8114","num_nodes":"15","size_leaf_vector":"1"}},{"base_weights":[-2.1375034E-2,5.8329886E-1,-4.3617728E-1,9.514797E-1,-1.02422245E-1,-4.9087856E-2,-8.817774E-1,1.0698819E-1,-5.645181E-2,9.880244E-2,-5.6929715E-2,3.5863504E-2,-8.4200494E-2,2.807659E-4,-1.0260125E-1],"categories":[],"categories_nodes":[],"categories_segments":[],"categories_sizes":[],"default_left":[0,0,0,0,0,0,0,0,0,0,0,0,0,0,0],"id":15,"left_children":[1,3,5,7,9,11,13,-1,-1,-1,-1,-1,-1,-1,-1],"loss_changes":[3.1357483E1,1.2943834E1,1.2741903E1,6.564026E0,1.0071883E1,1.3467787E1,4.391676E0,0E0,0E0,0E0,0E0,0E0,0E0,0E0,0E0],"parents":[2147483647,0,0,1,1,2,2,3,3,4,4,5,5,6,6],"right_children":[2,4,6,8,10,12,14,-1,-1,-1,-1,-1,-1,-1,-1],"split_conditions":[4.7850013E-3,4.9999997E-2,6.1220005E-3,9.019601E-2,7.5E-1,2.9412001E-2,1.9479997E-2,1.0698819E-1,-5.645181E-2,9.880244E-2,-5.6929715E-2,3.5863504E-2,-8.4200494E-2,2.807659E-4,-1.0260125E-1],"split_indices":[7228,6872,6995,6889,4342,6976,7208,0,0,0,0,0,0,0,0],"split_type":[0,0,0,0,0,0,0,0,0,0,0,0,0,0,0],"sum_hessian":[1.2300548E2,4.9882927E1,7.312255E1,3.2204147E1,1.7678776E1,3.972442E1,3.3398132E1,3.014411E1,2.0600393E0,4.9653378E0,1.2713439E1,2.6596191E1,1.3128227E1,4.819706E0,2.8578428E1],"tree_param":{"num_deleted":"0","num_feature":"8114","num_nodes":"15","size_leaf_vector":"1"}},{"base_weights":[9.2189E-3,3.647425E-1,-6.2782824E-1,-6.642088E-2,8.416362E-1,-8.0819535E-1,8.8884574E-1,-3.611451E-2,9.200966E-2,1.042211E-1,-3.9880376E-2,-3.822791E-2,-1.1374711E-1,1.0502719E-1,1.2785233E-2],"categories":[],"categories_nodes":[],"categories_segments":[],"categories_sizes":[],"default_left":[0,0,0,0,0,0,0,0,0,0,0,0,0,0,0],"id":16,"left_children":[1,3,5,7,9,11,13,-1,-1,-1,-1,-1,-1,-1,-1],"loss_changes":[2.6977272E1,1.5771772E1,1.2390987E1,1.2272664E1,9.463169E0,4.986767E0,4.8133087E-1,0E0,0E0,0E0,0E0,0E0,0E0,0E0,0E0],"parents":[2147483647,0,0,1,1,2,2,3,3,4,4,5,5,6,6],"right_children":[2,4,6,8,10,12,14,-1,-1,-1,-1,-1,-1,-1,-1],"split_conditions":[6.340001E-3,9.375E-1,3.5714298E-1,1.42857E-1,4.7619E-2,5.3031027E-2,1.78571E-1,-3.611451E-2,9.200966E-2,1.042211E-1,-3.9880376E-2,-3.822791E-2,-1.1374711E-1,1.0502719E-1,1.2785233E-2],"split_indices":[6995,1,5720,4511,5694,6872,4296,0,0,0,0,0,0,0,0],"split_type":[0,0,0,0,0,0,0,0,0,0,0,0,0,0,0],"sum_hessian":[1.1710161E2,7.543195E1,4.166965E1,4.0067413E1,3.536454E1,3.7658344E1,4.0113087E0,3.1338799E1,8.728614E0,3.0579716E1,4.7848253E0,1.736185E1,2.0296492E1,2.9957092E0,1.0155995E0],"tree_param":{"num_deleted":"0","num_feature":"8114","num_nodes":"15","size_leaf_vector":"1"}},{"base_weights":[-2.606598E-3,2.7568343E-1,-6.5266955E-1,-5.778975E-2,8.7005496E-1,-7.6994294E-1,5.612804E-1,4.613608E-2,-4.4595018E-2,1.1621834E-1,-2.5123952E-2,-8.419229E-2,7.076412E-2,-2.3175886E-2,1.0604992E-1],"categories":[],"categories_nodes":[],"categories_segments":[],"categories_sizes":[],"default_left":[0,0,0,0,0,0,0,0,0,0,0,0,0,0,0],"id":17,"left_children":[1,3,5,7,9,11,13,-1,-1,-1,-1,-1,-1,-1,-1],"loss_changes":[2.0840721E1,1.6040571E1,5.3483553E0,1.0808878E1,9.810043E0,3.9898357E0,1.6791378E0,0E0,0E0,0E0,0E0,0E0,0E0,0E0,0E0],"parents":[2147483647,0,0,1,1,2,2,3,3,4,4,5,5,6,6],"right_children":[2,4,6,8,10,12,14,-1,-1,-1,-1,-1,-1,-1,-1],"split_conditions":[3.5293996E-2,9.53125E-1,3.33334E-1,4.167E-3,4.9451023E-2,2E-2,3.125E-2,4.613608E-2,-4.4595018E-2,1.1621834E-1,-2.5123952E-2,-8.419229E-2,7.076412E-2,-2.3175886E-2,1.0604992E-1],"split_indices":[5728,1,5720,4185,6872,4308,4298,0,0,0,0,0,0,0,0],"split_type":[0,0,0,0,0,0,0,0,0,0,0,0,0,0,0],"sum_hessian":[1.13207306E2,7.967471E1,3.3532597E1,5.161743E1,2.8057278E1,3.0912094E1,2.620504E0,2.2001986E1,2.9615446E1,2.222943E1,5.82785E0,2.9886393E1,1.0257009E0,1.2193111E0,1.4011928E0],"tree_param":{"num_deleted":"0","num_feature":"8114","num_nodes":"15","size_leaf_vector":"1"}},{"base_weights":[-4.983852E-3,4.5143533E-1,-4.4724733E-1,5.7917684E-1,-1.12786315E-1,-6.373074E-1,2.9213962E-1,6.699376E-2,-1.0950172E-1,7.4941866E-2,-7.1775645E-2,8.458812E-2,-6.7950346E-2],"categories":[],"categories_nodes":[],"categories_segments":[],"categories_sizes":[],"default_left":[0,0,0,0,0,0,0,0,0,0,0,0,0],"id":18,"left_children":[1,3,5,7,-1,9,11,-1,-1,-1,-1,-1,-1],"loss_changes":[2.3160324E1,1.2045563E1,8.374178E0,8.772524E0,0E0,5.7439556E0,7.3542523E0,0E0,0E0,0E0,0E0,0E0,0E0],"parents":[2147483647,0,0,1,1,2,2,3,3,5,5,6,6],"right_children":[2,4,6,8,-1,10,12,-1,-1,-1,-1,-1,-1],"split_conditions":[4.1667E-2,3.47826E-1,1.42857E-1,1.25E-1,-1.12786315E-1,3.0303E-2,4.2328E-2,6.699376E-2,-1.0950172E-1,7.4941866E-2,-7.1775645E-2,8.458812E-2,-6.7950346E-2],"split_indices":[5803,4376,164,4497,0,5338,6973,0,0,0,0,0,0],"split_type":[0,0,0,0,0,0,0,0,0,0,0,0,0],"sum_hessian":[1.1273577E2,5.5469795E1,5.7265976E1,5.1904747E1,3.5650454E0,4.566564E1,1.1600334E1,4.9804607E1,2.1001422E0,2.0480094E0,4.3617634E1,7.471654E0,4.1286798E0],"tree_param":{"num_deleted":"0","num_feature":"8114","num_nodes":"13","size_leaf_vector":"1"}},{"base_weights":[2.7493065E-2,3.6820343E-1,-5.022597E-1,5.9858316E-1,-2.3889795E-1,2.2186593E-3,-8.5601914E-1,8.1400804E-2,-2.0501092E-2,-5.748095E-2,9.857533E-2,1.0719892E-1,-4.4811063E-2,-9.820413E-2,3.1829175E-2],"categories":[],"categories_nodes":[],"categories_segments":[],"categories_sizes":[],"default_left":[0,0,0,0,0,0,0,0,0,0,0,0,0,0,0],"id":19,"left_children":[1,3,5,7,9,11,13,-1,-1,-1,-1,-1,-1,-1,-1],"loss_changes":[1.9733635E1,9.442785E0,7.643018E0,8.56049E0,8.385086E0,9.463E0,4.037487E0,0E0,0E0,0E0,0E0,0E0,0E0,0E0,0E0],"parents":[2147483647,0,0,1,1,2,2,3,3,4,4,5,5,6,6],"right_children":[2,4,6,8,10,12,14,-1,-1,-1,-1,-1,-1,-1,-1],"split_conditions":[1.9231007E-2,1.45455E-1,2.7006999E-2,8.505999E-3,2.6666698E-1,2.094099E-2,9.375E-2,8.1400804E-2,-2.0501092E-2,-5.748095E-2,9.857533E-2,1.0719892E-1,-4.4811063E-2,-9.820413E-2,3.1829175E-2],"split_indices":[5799,4273,6973,6995,7046,6998,290,0,0,0,0,0,0,0,0],"split_type":[0,0,0,0,0,0,0,0,0,0,0,0,0,0,0],"sum_hessian":[1.07307724E2,6.549171E1,4.1816025E1,4.7485992E1,1.800571E1,1.7645874E1,2.417015E1,3.743704E1,1.0048956E1,1.45463915E1,3.4593189E0,4.8186274E0,1.2827248E1,2.1975554E1,2.1945958E0],"tree_param":{"num_deleted":"0","num_feature":"8114","num_nodes":"15","size_leaf_vector":"1"}},{"base_weights":[-3.345307E-2,2.831475E-1,-5.582199E-1,5.745285E-1,-2.2962967E-1,6.016137E-2,-8.150411E-1,7.31826E-2,-3.7294716E-2,2.66465E-2,-7.672908E-2,6.789285E-2,-8.258878E-2,-9.950643E-2,8.829473E-3],"categories":[],"categories_nodes":[],"categories_segments":[],"categories_sizes":[],"default_left":[0,0,0,0,0,0,0,0,0,0,0,0,0,0,0],"id":20,"left_children":[1,3,5,7,9,11,13,-1,-1,-1,-1,-1,-1,-1,-1],"loss_changes":[1.8351053E1,1.0435675E1,6.6464195E0,6.8691235E0,7.059991E0,7.7546043E0,4.872238E0,0E0,0E0,0E0,0E0,0E0,0E0,0E0,0E0],"parents":[2147483647,0,0,1,1,2,2,3,3,4,4,5,5,6,6],"right_children":[2,4,6,8,10,12,14,-1,-1,-1,-1,-1,-1,-1,-1],"split_conditions":[1.9231007E-2,2.0000002E-1,4.166998E-3,2.14286E-1,3.2049976E-3,5.8824E-2,3.07692E-1,7.31826E-2,-3.7294716E-2,2.66465E-2,-7.672908E-2,6.789285E-2,-8.258878E-2,-9.950643E-2,8.829473E-3],"split_indices":[5799,5811,7102,2994,7215,8016,3050,0,0,0,0,0,0,0,0],"split_type":[0,0,0,0,0,0,0,0,0,0,0,0,0,0,0],"sum_hessian":[1.08503006E2,6.7961266E1,4.0541733E1,4.3259197E1,2.4702072E1,1.2121349E1,2.8420383E1,3.729516E1,5.9640393E0,1.3110001E1,1.1592071E1,7.2747965E0,4.846553E0,2.3613062E1,4.8073235E0],"tree_param":{"num_deleted":"0","num_feature":"8114","num_nodes":"15","size_leaf_vector":"1"}},{"base_weights":[-5.968684E-2,2.350625E-1,-6.654429E-1,7.9449266E-1,-1.0783662E-1,2.1313442E-1,-8.7139547E-1,1.0073551E-1,-3.1929277E-2,9.9653296E-2,-3.3158112E-2,9.1475785E-2,-7.160223E-2,3.699574E-2,-9.6617356E-2],"categories":[],"categories_nodes":[],"categories_segments":[],"categories_sizes":[],"default_left":[0,0,0,0,0,0,0,0,0,0,0,0,0,0,0],"id":21,"left_children":[1,3,5,7,9,11,13,-1,-1,-1,-1,-1,-1,-1,-1],"loss_changes":[1.89104E1,1.3781401E1,6.453905E0,6.7824E0,1.1485558E1,5.467365E0,3.6822548E0,0E0,0E0,0E0,0E0,0E0,0E0,0E0,0E0],"parents":[2147483647,0,0,1,1,2,2,3,3,4,4,5,5,6,6],"right_children":[2,4,6,8,10,12,14,-1,-1,-1,-1,-1,-1,-1,-1],"split_conditions":[3.0507997E-2,2.2625E-2,4.9600005E-4,5.71429E-1,5.6E-1,7.89474E-1,4.4E-1,1.0073551E-1,-3.1929277E-2,9.9653296E-2,-3.3158112E-2,9.1475785E-2,-7.160223E-2,3.699574E-2,-9.6617356E-2],"split_indices":[6973,6903,6976,7212,3016,3016,1515,0,0,0,0,0,0,0,0],"split_type":[0,0,0,0,0,0,0,0,0,0,0,0,0,0,0],"sum_hessian":[1.0403714E2,7.039583E1,3.364131E1,2.625103E1,4.4144794E1,6.3818746E0,2.725944E1,2.211924E1,4.1317887E0,6.8551087E0,3.728969E1,3.6449797E0,2.7368946E0,1.7276887E0,2.553175E1],"tree_param":{"num_deleted":"0","num_feature":"8114","num_nodes":"15","size_leaf_vector":"1"}},{"base_weights":[3.1827353E-2,3.2914636E-1,-6.138168E-1,4.7238207E-1,-7.192719E-1,-7.2962976E-1,7.485939E-2,6.64E-2,-3.761991E-2,1.978076E-2,-9.9228375E-2,-8.541509E-2,3.1715E-2],"categories":[],"categories_nodes":[],"categories_segments":[],"categories_sizes":[],"default_left":[0,0,0,0,0,0,0,0,0,0,0,0,0],"id":22,"left_children":[1,3,5,7,9,11,-1,-1,-1,-1,-1,-1,-1],"loss_changes":[1.9365747E1,1.0702269E1,5.5678473E0,1.0219651E1,2.3722048E0,4.1602793E0,0E0,0E0,0E0,0E0,0E0,0E0,0E0],"parents":[2147483647,0,0,1,1,2,2,3,3,4,4,5,5],"right_children":[2,4,6,8,10,12,-1,-1,-1,-1,-1,-1,-1],"split_conditions":[4.4445008E-2,1.0255992E-2,5.88235E-1,2.7272698E-1,6.0606003E-2,2E-1,7.485939E-2,6.64E-2,-3.761991E-2,1.978076E-2,-9.9228375E-2,-8.541509E-2,3.1715E-2],"split_indices":[8040,6716,2630,6903,5811,7056,0,0,0,0,0,0,0],"split_type":[0,0,0,0,0,0,0,0,0,0,0,0,0],"sum_hessian":[9.883062E1,6.8004684E1,3.0825937E1,6.0313972E1,7.6907077E0,2.8838917E1,1.9870224E0,4.938082E1,1.0933154E1,1.8274719E0,5.863236E0,2.5937508E1,2.9014091E0],"tree_param":{"num_deleted":"0","num_feature":"8114","num_nodes":"13","size_leaf_vector":"1"}},{"base_weights":[-3.525956E-2,3.836685E-1,-3.4600887E-1,-7.258533E-1,6.0283583E-1,5.9873402E-2,-6.218084E-1,6.505378E-2,-1.0515374E-1,7.437173E-2,-9.463512E-2,6.6695794E-2,-5.4327615E-2,-7.356195E-2,6.0677227E-2],"categories":[],"categories_nodes":[],"categories_segments":[],"categories_sizes":[],"default_left":[0,0,0,0,0,0,0,0,0,0,0,0,0,0,0],"id":23,"left_children":[1,3,5,7,9,11,13,-1,-1,-1,-1,-1,-1,-1,-1],"loss_changes":[1.3354861E1,1.1071095E1,6.6236854E0,4.120825E0,8.792632E0,9.412885E0,5.357153E0,0E0,0E0,0E0,0E0,0E0,0E0,0E0,0E0],"parents":[2147483647,0,0,1,1,2,2,3,3,4,4,5,5,6,6],"right_children":[2,4,6,8,10,12,14,-1,-1,-1,-1,-1,-1,-1,-1],"split_conditions":[1.7856985E-2,7.96875E-1,1.33333E-1,6E-1,6.7227006E-2,2.1176E-2,2.5E-1,6.505378E-2,-1.0515374E-1,7.437173E-2,-9.463512E-2,6.6695794E-2,-5.4327615E-2,-7.356195E-2,6.0677227E-2],"split_indices":[7228,0,1800,4342,5594,7111,7111,0,0,0,0,0,0,0,0],"split_type":[0,0,0,0,0,0,0,0,0,0,0,0,0,0,0],"sum_hessian":[1.00566635E2,4.27286E1,5.7838036E1,6.6667414E0,3.606186E1,2.3717266E1,3.412077E1,1.084792E0,5.581949E0,3.353239E1,2.5294704E0,1.1767351E1,1.1949914E1,3.1595158E1,2.5256126E0],"tree_param":{"num_deleted":"0","num_feature":"8114","num_nodes":"15","size_leaf_vector":"1"}},{"base_weights":[-5.650313E-2,8.58556E-2,-9.7661775E-1,-5.509158E-2,7.728112E-1,2.1486912E-2,-1.1192061E-1,1.2178401E-2,-7.0511445E-2,1.0002174E-1,-3.580999E-2],"categories":[],"categories_nodes":[],"categories_segments":[],"categories_sizes":[],"default_left":[0,0,0,0,0,0,0,0,0,0,0],"id":24,"left_children":[1,3,5,7,9,-1,-1,-1,-1,-1,-1],"loss_changes":[1.2830595E1,8.291428E0,2.46941E0,8.320643E0,4.105357E0,0E0,0E0,0E0,0E0,0E0,0E0],"parents":[2147483647,0,0,1,1,2,2,3,3,4,4],"right_children":[2,4,6,8,10,-1,-1,-1,-1,-1,-1],"split_conditions":[2.7499998E-1,4.3478E-2,4.3478E-2,1.6129E-2,1.06226996E-1,2.1486912E-2,-1.1192061E-1,1.2178401E-2,-7.0511445E-2,1.0002174E-1,-3.580999E-2],"split_indices":[6716,7001,1367,7001,7106,0,0,0,0,0,0],"split_type":[0,0,0,0,0,0,0,0,0,0,0],"sum_hessian":[9.6313545E1,8.4193886E1,1.2119659E1,7.062342E1,1.3570467E1,1.2411898E0,1.0878469E1,5.615572E1,1.4467702E1,1.1394749E1,2.1757185E0],"tree_param":{"num_deleted":"0","num_feature":"8114","num_nodes":"11","size_leaf_vector":"1"}},{"base_weights":[2.9891664E-2,1.5100776E-1,-8.8664514E-1,3.5209805E-1,-4.429613E-1,-1.0926671E-1,2.722382E-2,6.5953985E-2,-3.3009864E-2,-7.137813E-2,6.075983E-2],"categories":[],"categories_nodes":[],"categories_segments":[],"categories_sizes":[],"default_left":[0,0,0,0,0,0,0,0,0,0,0],"id":25,"left_children":[1,3,5,7,9,-1,-1,-1,-1,-1,-1],"loss_changes":[1.1071059E1,1.065258E1,3.0779305E0,1.4104474E1,6.8836236E0,0E0,0E0,0E0,0E0,0E0,0E0],"parents":[2147483647,0,0,1,1,2,2,3,3,4,4],"right_children":[2,4,6,8,10,-1,-1,-1,-1,-1,-1],"split_conditions":[7.652199E-2,1.6964301E-1,1.92308E-1,7.954499E-2,6.6667E-2,-1.0926671E-1,2.722382E-2,6.5953985E-2,-3.3009864E-2,-7.137813E-2,6.075983E-2],"split_indices":[5594,6903,1694,7228,7001,0,0,0,0,0,0],"split_type":[0,0,0,0,0,0,0,0,0,0,0],"sum_hessian":[9.752652E1,8.688086E1,1.0645661E1,6.521075E1,2.1670113E1,9.087295E0,1.558367E0,4.4975224E1,2.0235521E1,1.748364E1,4.1864734E0],"tree_param":{"num_deleted":"0","num_feature":"8114","num_nodes":"11","size_leaf_vector":"1"}},{"base_weights":[1.1787882E-2,2.866862E-1,-5.1009995E-1,4.2422584E-1,-8.867244E-1,-6.604853E-1,7.6521575E-2,5.7058234E-2,-6.391775E-2,3.6454953E-3,-1.06482305E-1,-8.186213E-2,6.0750455E-2],"categories":[],"categories_nodes":[],"categories_segments":[],"categories_sizes":[],"default_left":[0,0,0,0,0,0,0,0,0,0,0,0,0],"id":26,"left_children":[1,3,5,7,9,11,-1,-1,-1,-1,-1,-1,-1],"loss_changes":[1.3404143E1,1.02482395E1,6.6891785E0,8.9912405E0,1.1471844E0,6.3880997E0,0E0,0E0,0E0,0E0,0E0,0E0,0E0],"parents":[2147483647,0,0,1,1,2,2,3,3,4,4,5,5],"right_children":[2,4,6,8,10,12,-1,-1,-1,-1,-1,-1,-1],"split_conditions":[6.340001E-3,1.33333E-1,2.3333299E-1,9.0909E-2,1.5385002E-2,2.72727E-1,7.6521575E-2,5.7058234E-2,-6.391775E-2,3.6454953E-3,-1.06482305E-1,-8.186213E-2,6.0750455E-2],"split_indices":[6995,7080,6998,4497,6895,2614,0,0,0,0,0,0,0],"split_type":[0,0,0,0,0,0,0,0,0,0,0,0,0],"sum_hessian":[9.1411415E1,6.016885E1,3.1242567E1,5.4427658E1,5.741191E0,2.8378296E1,2.8642719E0,4.8250385E1,6.1772757E0,1.057083E0,4.684108E0,2.5546665E1,2.8316295E0],"tree_param":{"num_deleted":"0","num_feature":"8114","num_nodes":"13","size_leaf_vector":"1"}},{"base_weights":[-2.7478447E-2,1.8488488E-1,-7.0960623E-1,3.8151518E-1,-7.921675E-1,-8.17943E-1,7.04112E-2,5.0426926E-2,-6.961324E-2,5.5699755E-2,-1.05754815E-1,-9.244408E-2,5.453809E-2],"categories":[],"categories_nodes":[],"categories_segments":[],"categories_sizes":[],"default_left":[0,0,0,0,0,0,0,0,0,0,0,0,0],"id":27,"left_children":[1,3,5,7,9,11,-1,-1,-1,-1,-1,-1,-1],"loss_changes":[1.3354158E1,1.3828024E1,3.9267225E0,8.193404E0,4.928512E0,3.5217419E0,0E0,0E0,0E0,0E0,0E0,0E0,0E0],"parents":[2147483647,0,0,1,1,2,2,3,3,4,4,5,5],"right_children":[2,4,6,8,10,12,-1,-1,-1,-1,-1,-1,-1],"split_conditions":[5.5556E-2,5.4545E-2,3.3333E-2,1.23077005E-1,1.25E-1,2.77778E-1,7.04112E-2,5.0426926E-2,-6.961324E-2,5.5699755E-2,-1.05754815E-1,-9.244408E-2,5.453809E-2],"split_indices":[5728,6973,7224,7080,4071,5318,0,0,0,0,0,0,0],"split_type":[0,0,0,0,0,0,0,0,0,0,0,0,0],"sum_hessian":[9.028167E1,6.940357E1,2.0878098E1,5.8283607E1,1.1119963E1,1.9783466E1,1.0946318E0,5.2801136E1,5.4824734E0,1.6471548E0,9.472808E0,1.8648626E1,1.1348394E0],"tree_param":{"num_deleted":"0","num_feature":"8114","num_nodes":"13","size_leaf_vector":"1"}},{"base_weights":[-1.6280338E-3,3.8014162E-1,-3.1876612E-1,5.8749145E-1,-2.5709E-1,-5.3278375E-1,2.3358552E-1,7.469147E-2,-2.9534096E-2,-6.949271E-2,1.1035943E-1,-6.400946E-3,-8.6789995E-2,6.984657E-2,-5.0833493E-2],"categories":[],"categories_nodes":[],"categories_segments":[],"categories_sizes":[],"default_left":[0,0,0,0,0,0,0,0,0,0,0,0,0,0,0],"id":28,"left_children":[1,3,5,7,9,11,13,-1,-1,-1,-1,-1,-1,-1,-1],"loss_changes":[1.100779E1,5.602342E0,5.9949183E0,4.644556E0,7.21569E0,5.615018E0,5.378021E0,0E0,0E0,0E0,0E0,0E0,0E0,0E0,0E0],"parents":[2147483647,0,0,1,1,2,2,3,3,4,4,5,5,6,6],"right_children":[2,4,6,8,10,12,14,-1,-1,-1,-1,-1,-1,-1,-1],"split_conditions":[2.381E-2,9.0909004E-2,9.21875E-1,1.0255992E-2,5.18519E-1,6.8966E-2,1.5238002E-2,7.469147E-2,-2.9534096E-2,-6.949271E-2,1.1035943E-1,-6.400946E-3,-8.6789995E-2,6.984657E-2,-5.0833493E-2],"split_indices":[6896,7228,0,6716,4400,1465,8016,0,0,0,0,0,0,0,0],"split_type":[0,0,0,0,0,0,0,0,0,0,0,0,0,0,0],"sum_hessian":[8.891725E1,4.025716E1,4.8660088E1,3.043268E1,9.824482E0,3.5096718E1,1.3563371E1,2.590811E1,4.524571E0,7.802952E0,2.0215304E0,1.5127188E1,1.9969528E1,8.374537E0,5.1888337E0],"tree_param":{"num_deleted":"0","num_feature":"8114","num_nodes":"15","size_leaf_vector":"1"}},{"base_weights":[8.391674E-3,1.358521E-1,-9.775192E-1,2.5475088E-1,-8.072421E-1,-1.0937455E0,3.51803E-3,4.476526E-2,-3.9341956E-2,-1.05209365E-1,3.6502E-2,-3.0904919E-2,-1.154382E-1],"categories":[],"categories_nodes":[],"categories_segments":[],"categories_sizes":[],"default_left":[0,0,0,0,0,0,0,0,0,0,0,0,0],"id":29,"left_children":[1,3,5,7,9,11,-1,-1,-1,-1,-1,-1,-1],"loss_changes":[1.1169747E1,9.025091E0,1.2363062E0,9.004238E0,2.9803944E0,7.909393E-2,0E0,0E0,0E0,0E0,0E0,0E0,0E0],"parents":[2147483647,0,0,1,1,2,2,3,3,4,4,5,5],"right_children":[2,4,6,8,10,12,-1,-1,-1,-1,-1,-1,-1],"split_conditions":[1.0000001E-1,7.652199E-2,1.25E-1,1.14286005E-1,7.85714E-1,3E-1,3.51803E-3,4.476526E-2,-3.9341956E-2,-1.05209365E-1,3.6502E-2,-3.0904919E-2,-1.154382E-1],"split_indices":[8022,5594,4295,7228,3107,4524,0,0,0,0,0,0,0],"split_type":[0,0,0,0,0,0,0,0,0,0,0,0,0],"sum_hessian":[8.68286E1,7.765183E1,9.176769E0,6.960624E1,8.045595E0,8.160204E0,1.0165656E0,5.3880302E1,1.5725933E1,6.7402596E0,1.305335E0,1.0226657E0,7.1375384E0],"tree_param":{"num_deleted":"0","num_feature":"8114","num_nodes":"13","size_leaf_vector":"1"}},{"base_weights":[9.318014E-3,1.251106E-1,-8.293704E-1,3.3678922E-1,-3.5683832E-1,3.536252E-2,-9.896313E-1,6.789821E-2,-2.9831976E-2,-6.4355664E-2,2.9186497E-2,-1.053673E-1,-2.2307301E-2],"categories":[],"categories_nodes":[],"categories_segments":[],"categories_sizes":[],"default_left":[0,0,0,0,0,0,0,0,0,0,0,0,0],"id":30,"left_children":[1,3,5,7,9,-1,11,-1,-1,-1,-1,-1,-1],"loss_changes":[8.577353E0,8.030459E0,2.3816395E0,1.2023031E1,4.679291E0,0E0,2.4119186E-1,0E0,0E0,0E0,0E0,0E0,0E0],"parents":[2147483647,0,0,1,1,2,2,3,3,4,4,6,6],"right_children":[2,4,6,8,10,-1,12,-1,-1,-1,-1,-1,-1],"split_conditions":[2.7499998E-1,9.0909004E-2,8E-1,7.777801E-2,1.32231E-1,3.536252E-2,3.75E-1,6.789821E-2,-2.9831976E-2,-6.4355664E-2,2.9186497E-2,-1.053673E-1,-2.2307301E-2],"split_indices":[6716,7228,5259,6872,4303,0,1464,0,0,0,0,0,0],"split_type":[0,0,0,0,0,0,0,0,0,0,0,0,0],"sum_hessian":[8.625415E1,7.653786E1,9.7162895E0,5.33896E1,2.3148258E1,1.015277E0,8.701012E0,3.4650852E1,1.8738747E1,1.605853E1,7.0897264E0,7.684467E0,1.016545E0],"tree_param":{"num_deleted":"0","num_feature":"8114","num_nodes":"13","size_leaf_vector":"1"}},{"base_weights":[-1.8964814E-2,1.768695E-1,-8.848373E-1,2.7974033E-1,-8.0951715E-1,4.6372097E-2,-1.0214286E0,4.170301E-2,-4.6644486E-2,-1.02731586E-1,2.2314325E-2,-1.07062936E-1,-1.901744E-2],"categories":[],"categories_nodes":[],"categories_segments":[],"categories_sizes":[],"default_left":[0,0,0,0,0,0,0,0,0,0,0,0,0],"id":31,"left_children":[1,3,5,7,9,-1,11,-1,-1,-1,-1,-1,-1],"loss_changes":[1.495422E1,7.532744E0,3.4693708E0,6.950384E0,1.8164392E0,0E0,4.1313267E-1,0E0,0E0,0E0,0E0,0E0,0E0],"parents":[2147483647,0,0,1,1,2,2,3,3,4,4,6,6],"right_children":[2,4,6,8,10,-1,12,-1,-1,-1,-1,-1,-1],"split_conditions":[1.11111E-1,7.652199E-2,9.3023E-2,2.7272698E-1,9.0909E-2,4.6372097E-2,3E-1,4.170301E-2,-4.6644486E-2,-1.02731586E-1,2.2314325E-2,-1.07062936E-1,-1.901744E-2],"split_indices":[5799,5594,4296,6903,1782,0,4399,0,0,0,0,0,0],"split_type":[0,0,0,0,0,0,0,0,0,0,0,0,0],"sum_hessian":[8.62674E1,7.1004135E1,1.5263267E1,6.494716E1,6.056978E0,1.1835164E0,1.407975E1,5.5227104E1,9.720054E0,5.0062776E0,1.0507003E0,1.3021081E1,1.0586692E0],"tree_param":{"num_deleted":"0","num_feature":"8114","num_nodes":"13","size_leaf_vector":"1"}},{"base_weights":[-2.6817814E-2,-1.5657097E-1,7.2315556E-1,2.6409948E-2,-7.8887683E-1,9.11258E-1,-2.3275191E-2,3.169521E-2,-4.3418292E-2,-1.0659572E-1,-7.965626E-3,1.1157916E-1,6.1199856E-3],"categories":[],"categories_nodes":[],"categories_segments":[],"categories_sizes":[],"default_left":[0,0,0,0,0,0,0,0,0,0,0,0,0],"id":32,"left_children":[1,3,5,7,9,11,-1,-1,-1,-1,-1,-1,-1],"loss_changes":[8.181212E0,8.293668E0,2.4428792E0,7.6881356E0,3.075035E0,1.7694664E0,0E0,0E0,0E0,0E0,0E0,0E0,0E0],"parents":[2147483647,0,0,1,1,2,2,3,3,4,4,5,5],"right_children":[2,4,6,8,10,12,-1,-1,-1,-1,-1,-1,-1],"split_conditions":[4.3478E-2,2.30769E-1,2.7778E-2,5.0000012E-2,2.72727E-1,3.125E-1,-2.3275191E-2,3.169521E-2,-4.3418292E-2,-1.0659572E-1,-7.965626E-3,1.1157916E-1,6.1199856E-3],"split_indices":[7001,5803,5336,6998,1799,5752,0,0,0,0,0,0,0],"split_type":[0,0,0,0,0,0,0,0,0,0,0,0,0],"sum_hessian":[8.190894E1,7.050251E1,1.1406433E1,5.5422276E1,1.5080237E1,9.569973E0,1.83646E0,3.417594E1,2.1246334E1,1.0482073E1,4.598165E0,7.46194E0,2.1080334E0],"tree_param":{"num_deleted":"0","num_feature":"8114","num_nodes":"13","size_leaf_vector":"1"}},{"base_weights":[7.744664E-3,2.3446506E-1,-4.7369295E-1,4.1596335E-1,-4.6415812E-1,-7.197065E-1,3.468121E-1,5.841748E-2,-6.1952908E-2,-7.71342E-2,8.5573025E-2,-8.163071E-2,4.948857E-2,-5.778603E-2,1.03523694E-1],"categories":[],"categories_nodes":[],"categories_segments":[],"categories_sizes":[],"default_left":[0,0,0,0,0,0,0,0,0,0,0,0,0,0,0],"id":33,"left_children":[1,3,5,7,9,11,13,-1,-1,-1,-1,-1,-1,-1,-1],"loss_changes":[9.10779E0,7.3831367E0,5.643089E0,8.293847E0,5.592823E0,2.8539953E0,4.951206E0,0E0,0E0,0E0,0E0,0E0,0E0,0E0,0E0],"parents":[2147483647,0,0,1,1,2,2,3,3,4,4,5,5,6,6],"right_children":[2,4,6,8,10,12,14,-1,-1,-1,-1,-1,-1,-1,-1],"split_conditions":[6.340001E-3,8.88889E-1,1.08108E-1,9.0909E-2,1.3889015E-2,7.6923E-2,9.6774E-2,5.841748E-2,-6.1952908E-2,-7.71342E-2,8.5573025E-2,-8.163071E-2,4.948857E-2,-5.778603E-2,1.03523694E-1],"split_indices":[6995,6775,4298,4497,6663,1821,4303,0,0,0,0,0,0,0,0],"split_type":[0,0,0,0,0,0,0,0,0,0,0,0,0,0,0],"sum_hessian":[8.142403E1,5.5704464E1,2.5719566E1,4.4538273E1,1.1166191E1,1.9881353E1,5.8382125E0,3.8689217E1,5.849056E0,9.395202E0,1.7709892E0,1.8720375E1,1.1609778E0,2.560128E0,3.2780848E0],"tree_param":{"num_deleted":"0","num_feature":"8114","num_nodes":"15","size_leaf_vector":"1"}},{"base_weights":[-3.7061103E-2,8.850123E-2,-7.94041E-1,-2.8618696E-1,3.4724504E-1,-9.836913E-1,1.8268174E-2,-5.4677337E-2,7.644341E-2,5.2258503E-2,-5.1817533E-2,-1.0768908E-1,-1.12189865E-2],"categories":[],"categories_nodes":[],"categories_segments":[],"categories_sizes":[],"default_left":[0,0,0,0,0,0,0,0,0,0,0,0,0],"id":34,"left_children":[1,3,5,7,9,11,-1,-1,-1,-1,-1,-1,-1],"loss_changes":[7.5705023E0,6.748353E0,2.2778769E0,8.237829E0,6.495268E0,6.6233444E-1,0E0,0E0,0E0,0E0,0E0,0E0,0E0],"parents":[2147483647,0,0,1,1,2,2,3,3,4,4,5,5],"right_children":[2,4,6,8,10,12,-1,-1,-1,-1,-1,-1,-1],"split_conditions":[1.34615E-1,9.0625E-1,6E-1,5.8824E-2,7.195799E-2,5.8824E-2,1.8268174E-2,-5.4677337E-2,7.644341E-2,5.2258503E-2,-5.1817533E-2,-1.0768908E-1,-1.12189865E-2],"split_indices":[5596,1,5467,7001,7000,268,0,0,0,0,0,0,0],"split_type":[0,0,0,0,0,0,0,0,0,0,0,0,0],"sum_hessian":[7.790978E1,6.758273E1,1.0327047E1,2.7562819E1,4.0019917E1,8.6419115E0,1.6851352E0,2.2469309E1,5.0935097E0,3.3607048E1,6.4128656E0,7.594114E0,1.0477978E0],"tree_param":{"num_deleted":"0","num_feature":"8114","num_nodes":"13","size_leaf_vector":"1"}},{"base_weights":[-3.2716624E-3,1.7713027E-1,-3.9448157E-1,-6.50778E-2,7.0645815E-1,-8.659179E-1,-5.674449E-2,-2.5785474E-2,7.451417E-2,9.31878E-2,-6.398076E-2,-1.1133053E-1,1.1192359E-2,3.99745E-2,-8.248263E-2],"categories":[],"categories_nodes":[],"categories_segments":[],"categories_sizes":[],"default_left":[0,0,0,0,0,0,0,0,0,0,0,0,0,0,0],"id":35,"left_children":[1,3,5,7,9,11,13,-1,-1,-1,-1,-1,-1,-1,-1],"loss_changes":[5.875737E0,7.3527994E0,4.1340804E0,6.4423494E0,6.0514574E0,2.7603626E0,6.071887E0,0E0,0E0,0E0,0E0,0E0,0E0,0E0,0E0],"parents":[2147483647,0,0,1,1,2,2,3,3,4,4,5,5,6,6],"right_children":[2,4,6,8,10,12,14,-1,-1,-1,-1,-1,-1,-1,-1],"split_conditions":[1.4141399E-1,4.28571E-1,2.2989E-2,5.5555E-2,5.013E-3,4.0724E-2,5.2380998E-2,-2.5785474E-2,7.451417E-2,9.31878E-2,-6.398076E-2,-1.1133053E-1,1.1192359E-2,3.99745E-2,-8.248263E-2],"split_indices":[5803,3959,4272,7125,8026,6898,6894,0,0,0,0,0,0,0,0],"split_type":[0,0,0,0,0,0,0,0,0,0,0,0,0,0,0],"sum_hessian":[8.1265114E1,5.599219E1,2.5272926E1,3.90163E1,1.6975891E1,9.895806E0,1.5377121E1,3.2068043E1,6.9482584E0,1.4804772E1,2.171118E0,7.7871704E0,2.1086361E0,9.945704E0,5.4314165E0],"tree_param":{"num_deleted":"0","num_feature":"8114","num_nodes":"15","size_leaf_vector":"1"}},{"base_weights":[1.6037868E-2,1.2505516E-1,-9.3560565E-1,2.5763094E-1,-4.6607572E-1,-1.0095978E-1,-2.2125527E-2,4.347859E-2,-2.4482043E-2,-7.052633E-2,9.118555E-2],"categories":[],"categories_nodes":[],"categories_segments":[],"categories_sizes":[],"default_left":[0,0,0,0,0,0,0,0,0,0,0],"id":36,"left_children":[1,3,5,7,9,-1,-1,-1,-1,-1,-1],"loss_changes":[8.081817E0,5.5874367E0,1.9993544E-1,5.2359924E0,4.9725175E0,0E0,0E0,0E0,0E0,0E0,0E0],"parents":[2147483647,0,0,1,1,2,2,3,3,4,4],"right_children":[2,4,6,8,10,-1,-1,-1,-1,-1,-1],"split_conditions":[7.652199E-2,7.195799E-2,2.10526E-1,5.4298E-2,4E-1,-1.0095978E-1,-2.2125527E-2,4.347859E-2,-2.4482043E-2,-7.052633E-2,9.118555E-2],"split_indices":[5594,7000,4294,8016,2634,0,0,0,0,0,0],"split_type":[0,0,0,0,0,0,0,0,0,0,0],"sum_hessian":[7.577255E1,6.876378E1,7.0087724E0,5.662777E1,1.213601E1,5.9764276E0,1.0323448E0,4.196601E1,1.4661758E1,1.0756943E1,1.3790671E0],"tree_param":{"num_deleted":"0","num_feature":"8114","num_nodes":"11","size_leaf_vector":"1"}},{"base_weights":[-4.2639434E-2,1.7542253E-1,-5.021819E-1,3.771341E-1,-4.7520748E-1,1.6956152E-1,-7.094914E-1,5.9251737E-2,-4.2084638E-2,4.176067E-2,-8.6770274E-2,8.246683E-2,-4.28629E-2,-8.6715795E-2,3.9014407E-2],"categories":[],"categories_nodes":[],"categories_segments":[],"categories_sizes":[],"default_left":[0,0,0,0,0,0,0,0,0,0,0,0,0,0,0],"id":37,"left_children":[1,3,5,7,9,11,13,-1,-1,-1,-1,-1,-1,-1,-1],"loss_changes":[7.879923E0,7.1971507E0,3.6410131E0,7.36085E0,4.952037E0,3.006253E0,3.7212934E0,0E0,0E0,0E0,0E0,0E0,0E0,0E0,0E0],"parents":[2147483647,0,0,1,1,2,2,3,3,4,4,5,5,6,6],"right_children":[2,4,6,8,10,12,14,-1,-1,-1,-1,-1,-1,-1,-1],"split_conditions":[2.3026004E-2,1.67224E-1,1.9231E-2,7.692301E-2,8.59375E-1,2.1739E-2,4.3478E-2,5.9251737E-2,-4.2084638E-2,4.176067E-2,-8.6770274E-2,8.246683E-2,-4.28629E-2,-8.6715795E-2,3.9014407E-2],"split_indices":[5728,7228,1800,5596,1,1694,1673,0,0,0,0,0,0,0,0],"split_type":[0,0,0,0,0,0,0,0,0,0,0,0,0,0,0],"sum_hessian":[7.675599E1,5.247421E1,2.4281782E1,4.037676E1,1.209745E1,5.7693825E0,1.85124E1,3.199772E1,8.379039E0,3.674664E0,8.422786E0,2.5729825E0,3.1963997E0,1.6375834E1,2.1365664E0],"tree_param":{"num_deleted":"0","num_feature":"8114","num_nodes":"15","size_leaf_vector":"1"}},{"base_weights":[-1.0572228E-2,1.9519004E-1,-5.150581E-1,3.2194498E-1,-6.867012E-1,-7.732025E-1,4.3184987E-1,4.5163643E-2,-6.2246162E-2,-1.0007417E-1,1.0222676E-2,-1.04342364E-1,2.215104E-2,9.772209E-2,-5.4295916E-2],"categories":[],"categories_nodes":[],"categories_segments":[],"categories_sizes":[],"default_left":[0,0,0,0,0,0,0,0,0,0,0,0,0,0,0],"id":38,"left_children":[1,3,5,7,9,11,13,-1,-1,-1,-1,-1,-1,-1,-1],"loss_changes":[7.792952E0,6.186066E0,5.6488476E0,6.0789833E0,1.842799E0,4.9199314E0,3.3479648E0,0E0,0E0,0E0,0E0,0E0,0E0,0E0,0E0],"parents":[2147483647,0,0,1,1,2,2,3,3,4,4,5,5,6,6],"right_children":[2,4,6,8,10,12,14,-1,-1,-1,-1,-1,-1,-1,-1],"split_conditions":[3.2281995E-2,1.34615E-1,1.02041E-1,1.1250001E-1,7.27273E-1,1.07143E-1,1.25E-1,4.5163643E-2,-6.2246162E-2,-1.0007417E-1,1.0222676E-2,-1.04342364E-1,2.215104E-2,9.772209E-2,-5.4295916E-2],"split_indices":[5728,5596,1672,7080,3803,4298,1956,0,0,0,0,0,0,0,0],"split_type":[0,0,0,0,0,0,0,0,0,0,0,0,0,0,0],"sum_hessian":[7.31051E1,5.2361683E1,2.0743422E1,4.633662E1,6.0250616E0,1.6443947E1,4.2994747E0,4.1200504E1,5.136117E0,4.1175485E0,1.9075133E0,1.2892604E1,3.5513422E0,2.7554336E0,1.5440413E0],"tree_param":{"num_deleted":"0","num_feature":"8114","num_nodes":"15","size_leaf_vector":"1"}},{"base_weights":[5.718557E-2,2.228693E-1,-3.7463742E-1,3.5706002E-1,-5.3490365E-1,3.746509E-1,-8.4667945E-1,5.218059E-2,-4.3254375E-2,5.2863218E-2,-7.7342495E-2,7.3652856E-2,-8.628562E-2,-9.756007E-2,2.298713E-2],"categories":[],"categories_nodes":[],"categories_segments":[],"categories_sizes":[],"default_left":[0,0,0,0,0,0,0,0,0,0,0,0,0,0,0],"id":39,"left_children":[1,3,5,7,9,11,13,-1,-1,-1,-1,-1,-1,-1,-1],"loss_changes":[5.0113707E0,5.316475E0,7.204376E0,5.874146E0,2.434064E0,4.316267E0,1.9248419E0,0E0,0E0,0E0,0E0,0E0,0E0,0E0,0E0],"parents":[2147483647,0,0,1,1,2,2,3,3,4,4,5,5,6,6],"right_children":[2,4,6,8,10,12,14,-1,-1,-1,-1,-1,-1,-1,-1],"split_conditions":[3.1327E-2,6.1538E-2,1.5238002E-2,3E-1,2.3810029E-2,1.25E-1,5.8824E-2,5.218059E-2,-4.3254375E-2,5.2863218E-2,-7.7342495E-2,7.3652856E-2,-8.628562E-2,-9.756007E-2,2.298713E-2],"split_indices":[6976,7201,6896,1800,6872,6976,5705,0,0,0,0,0,0,0,0],"split_type":[0,0,0,0,0,0,0,0,0,0,0,0,0,0,0],"sum_hessian":[6.7876976E1,4.9404953E1,1.8472021E1,4.2421516E1,6.9834375E0,7.219145E0,1.1252875E1,3.537905E1,7.042462E0,1.0564727E0,5.9269648E0,5.898969E0,1.3201758E0,1.0133161E1,1.1197149E0],"tree_param":{"num_deleted":"0","num_feature":"8114","num_nodes":"15","size_leaf_vector":"1"}},{"base_weights":[1.8161453E-2,1.7111605E-1,-5.182558E-1,4.042578E-1,-2.5491142E-1,-8.1789017E-1,1.247815E-1,5.50825E-2,-6.1417677E-2,-4.3902323E-2,8.918788E-2,-1.0007327E-1,2.4622975E-2,6.034121E-2,-6.865301E-2],"categories":[],"categories_nodes":[],"categories_segments":[],"categories_sizes":[],"default_left":[0,0,0,0,0,0,0,0,0,0,0,0,0,0,0],"id":40,"left_children":[1,3,5,7,9,11,13,-1,-1,-1,-1,-1,-1,-1,-1],"loss_changes":[5.9359326E0,5.685712E0,3.196539E0,5.8184624E0,4.7183657E0,2.4037547E0,2.733523E0,0E0,0E0,0E0,0E0,0E0,0E0,0E0,0E0],"parents":[2147483647,0,0,1,1,2,2,3,3,4,4,5,5,6,6],"right_children":[2,4,6,8,10,12,14,-1,-1,-1,-1,-1,-1,-1,-1],"split_conditions":[5.5556E-2,2.40385E-1,8.7301E-2,1.1250001E-1,1E-1,2.35294E-1,7.619001E-3,5.50825E-2,-6.1417677E-2,-4.3902323E-2,8.918788E-2,-1.0007327E-1,2.4622975E-2,6.034121E-2,-6.865301E-2],"split_indices":[5728,5811,7080,7080,7105,6873,7111,0,0,0,0,0,0,0,0],"split_type":[0,0,0,0,0,0,0,0,0,0,0,0,0,0,0],"sum_hessian":[7.026666E1,5.520613E1,1.5060535E1,3.5713284E1,1.9492846E1,1.0087958E1,4.972577E0,3.1621628E1,4.0916567E0,1.7328075E1,2.1647692E0,8.659591E0,1.4283671E0,3.2886817E0,1.6838957E0],"tree_param":{"num_deleted":"0","num_feature":"8114","num_nodes":"15","size_leaf_vector":"1"}},{"base_weights":[1.42603805E-2,-1.210115E-1,7.6000816E-1,4.2253725E-2,-9.0204626E-1,9.0597916E-1,-2.8491834E-2,3.1062631E-2,-4.132889E-2,-1.1535207E-1,3.7488535E-2,1.0022443E-1,6.777534E-3],"categories":[],"categories_nodes":[],"categories_segments":[],"categories_sizes":[],"default_left":[0,0,0,0,0,0,0,0,0,0,0,0,0],"id":41,"left_children":[1,3,5,7,9,11,-1,-1,-1,-1,-1,-1,-1],"loss_changes":[7.2350993E0,7.791038E0,1.9373808E0,6.3930926E0,3.8223724E0,7.308359E-1,0E0,0E0,0E0,0E0,0E0,0E0,0E0],"parents":[2147483647,0,0,1,1,2,2,3,3,4,4,5,5],"right_children":[2,4,6,8,10,12,-1,-1,-1,-1,-1,-1,-1],"split_conditions":[4.3478E-2,1.82692E-1,1.84615E-1,2.8148003E-2,4.21053E-1,1.33333E-1,-2.8491834E-2,3.1062631E-2,-4.132889E-2,-1.1535207E-1,3.7488535E-2,1.0022443E-1,6.777534E-3],"split_indices":[7001,7228,5754,6973,4294,7080,0,0,0,0,0,0,0],"split_type":[0,0,0,0,0,0,0,0,0,0,0,0,0],"sum_hessian":[6.980908E1,5.9799694E1,1.0009391E1,5.0242954E1,9.556741E0,8.899192E0,1.1101992E0,3.181688E1,1.8426075E1,8.065079E0,1.4916623E0,7.8068905E0,1.0923014E0],"tree_param":{"num_deleted":"0","num_feature":"8114","num_nodes":"13","size_leaf_vector":"1"}},{"base_weights":[-6.0486566E-2,2.9520097E-1,-3.0632588E-1,-6.480901E-1,4.5016527E-1,-4.7162142E-1,5.63808E-1,-8.156424E-2,-3.892262E-3,7.851103E-2,4.5555453E-3,-5.543837E-2,6.3611336E-2,1.0047146E-1,-2.9175172E-2],"categories":[],"categories_nodes":[],"categories_segments":[],"categories_sizes":[],"default_left":[0,0,0,0,0,0,0,0,0,0,0,0,0,0,0],"id":42,"left_children":[1,3,5,7,9,11,13,-1,-1,-1,-1,-1,-1,-1,-1],"loss_changes":[6.2257156E0,4.5578737E0,6.3037615E0,4.304012E-1,3.4413095E0,3.6367908E0,2.992923E0,0E0,0E0,0E0,0E0,0E0,0E0,0E0,0E0],"parents":[2147483647,0,0,1,1,2,2,3,3,4,4,5,5,6,6],"right_children":[2,4,6,8,10,12,14,-1,-1,-1,-1,-1,-1,-1,-1],"split_conditions":[1.7481998E-2,7.1875E-1,6.66667E-1,8.59375E-1,2.5E-1,1.42857E-1,1.33333E-1,-8.156424E-2,-3.892262E-3,7.851103E-2,4.5555453E-3,-5.543837E-2,6.3611336E-2,1.0047146E-1,-2.9175172E-2],"split_indices":[7208,0,6788,1,1367,7206,5803,0,0,0,0,0,0,0,0],"split_type":[0,0,0,0,0,0,0,0,0,0,0,0,0,0,0],"sum_hessian":[6.9164116E1,2.818477E1,4.0979343E1,3.5278747E0,2.4656895E1,3.4822292E1,6.157049E0,2.5010207E0,1.0268543E0,1.2975266E1,1.1681629E1,3.2866283E1,1.956008E0,3.948092E0,2.2089572E0],"tree_param":{"num_deleted":"0","num_feature":"8114","num_nodes":"15","size_leaf_vector":"1"}},{"base_weights":[-9.021564E-2,6.0674E-2,-6.9544035E-1,2.7658996E-1,-3.9778182E-1,-8.851689E-1,3.4257066E-2,8.7494245E-3,9.607121E-2,-5.5137005E-2,8.293085E-2,3.2397022E-3,-9.820942E-2],"categories":[],"categories_nodes":[],"categories_segments":[],"categories_sizes":[],"default_left":[0,0,0,0,0,0,0,0,0,0,0,0,0],"id":43,"left_children":[1,3,5,7,9,11,-1,-1,-1,-1,-1,-1,-1],"loss_changes":[6.182091E0,5.5282354E0,2.9613948E0,4.806041E0,3.8374405E0,1.071517E0,0E0,0E0,0E0,0E0,0E0,0E0,0E0],"parents":[2147483647,0,0,1,1,2,2,3,3,4,4,5,5],"right_children":[2,4,6,8,10,12,-1,-1,-1,-1,-1,-1,-1],"split_conditions":[1.6667E-2,8.3611995E-2,2.72727E-1,2.35294E-1,1.21951E-1,3.9216E-2,3.4257066E-2,8.7494245E-3,9.607121E-2,-5.5137005E-2,8.293085E-2,3.2397022E-3,-9.820942E-2],"split_indices":[6891,7228,3050,5318,7001,1590,0,0,0,0,0,0,0],"split_type":[0,0,0,0,0,0,0,0,0,0,0,0,0],"sum_hessian":[6.623339E1,5.3736095E1,1.2497292E1,3.6800903E1,1.6935192E1,1.0690515E1,1.8067769E0,2.97153E1,7.0856056E0,1.5540714E1,1.3944778E0,1.0849861E0,9.605528E0],"tree_param":{"num_deleted":"0","num_feature":"8114","num_nodes":"13","size_leaf_vector":"1"}},{"base_weights":[3.9298978E-2,-5.7568457E-2,9.043828E-2,7.723137E-2,-9.911802E-2,4.569903E-2,-1.6572416E-2],"categories":[],"categories_nodes":[],"categories_segments":[],"categories_sizes":[],"default_left":[0,0,0,0,0,0,0],"id":44,"left_children":[1,3,-1,5,-1,-1,-1],"loss_changes":[5.6131268E0,7.705607E0,0E0,5.048728E0,0E0,0E0,0E0],"parents":[2147483647,0,0,1,1,3,3],"right_children":[2,4,-1,6,-1,-1,-1],"split_conditions":[5.8824E-2,4.1667E-2,9.043828E-2,2.5039002E-2,-9.911802E-2,4.569903E-2,-1.6572416E-2],"split_indices":[7001,7212,0,6998,0,0,0],"split_type":[0,0,0,0,0,0,0],"sum_hessian":[6.5362366E1,5.9619904E1,5.7424636E0,5.28993E1,6.720606E0,2.0295246E1,3.2604053E1],"tree_param":{"num_deleted":"0","num_feature":"8114","num_nodes":"7","size_leaf_vector":"1"}},{"base_weights":[3.601123E-2,2.4381953E-1,-3.2482702E-1,3.4041163E-1,-8.039697E-2,-5.1357174E-1,7.03505E-1,-8.42963E-2,4.214301E-2,-6.6047E-2,2.5414918E-2,2.1253161E-2,7.983417E-2],"categories":[],"categories_nodes":[],"categories_segments":[],"categories_sizes":[],"default_left":[0,0,0,0,0,0,0,0,0,0,0,0,0],"id":45,"left_children":[1,3,5,7,-1,9,11,-1,-1,-1,-1,-1,-1],"loss_changes":[4.9760103E0,4.525448E0,5.0765E0,4.110369E0,0E0,2.5479193E0,2.5396824E-2,0E0,0E0,0E0,0E0,0E0,0E0],"parents":[2147483647,0,0,1,1,2,2,3,3,5,5,6,6],"right_children":[2,4,6,8,-1,10,12,-1,-1,-1,-1,-1,-1],"split_conditions":[3.0908998E-2,1.16667E-1,3.1666598E-1,5.46875E-1,-8.039697E-2,1.25E-1,1.88073E-1,-8.42963E-2,4.214301E-2,-6.6047E-2,2.5414918E-2,2.1253161E-2,7.983417E-2],"split_indices":[6999,7201,5720,0,0,1689,4199,0,0,0,0,0,0],"split_type":[0,0,0,0,0,0,0,0,0,0,0,0,0],"sum_hessian":[6.430372E1,4.1010113E1,2.3293604E1,3.8166763E1,2.8433495E0,2.0104172E1,3.1894326E0,1.8429922E0,3.6323772E1,1.6992476E1,3.111695E0,1.0410261E0,2.1484065E0],"tree_param":{"num_deleted":"0","num_feature":"8114","num_nodes":"13","size_leaf_vector":"1"}},{"base_weights":[-8.719524E-4,1.1629924E-1,-6.868296E-1,-1.6149443E-1,4.08074E-1,4.202832E-2,-8.6041903E-1,2.2990555E-2,-5.6156266E-2,6.4658925E-2,-2.0544033E-2,-8.146095E-3,-9.822727E-2],"categories":[],"categories_nodes":[],"categories_segments":[],"categories_sizes":[],"default_left":[0,0,0,0,0,0,0,0,0,0,0,0,0],"id":46,"left_children":[1,3,5,7,9,-1,11,-1,-1,-1,-1,-1,-1],"loss_changes":[5.505459E0,4.8083735E0,2.2821364E0,4.934735E0,4.350244E0,0E0,7.711048E-1,0E0,0E0,0E0,0E0,0E0,0E0],"parents":[2147483647,0,0,1,1,2,2,3,3,4,4,6,6],"right_children":[2,4,6,8,10,-1,12,-1,-1,-1,-1,-1,-1],"split_conditions":[1.3939402E-1,3.47826E-1,1.42857E-1,2.439E-2,2.1666701E-1,4.202832E-2,2.7778E-2,2.2990555E-2,-5.6156266E-2,6.4658925E-2,-2.0544033E-2,-8.146095E-3,-9.822727E-2],"split_indices":[5799,4400,403,4185,5803,0,7366,0,0,0,0,0,0],"split_type":[0,0,0,0,0,0,0,0,0,0,0,0,0],"sum_hessian":[6.650378E1,5.7510616E1,8.993163E0,2.9689894E1,2.7820723E1,1.0263307E0,7.966832E0,1.5222526E1,1.4467368E1,1.9993834E1,7.8268895E0,1.3033823E0,6.66345E0],"tree_param":{"num_deleted":"0","num_feature":"8114","num_nodes":"13","size_leaf_vector":"1"}},{"base_weights":[1.9444523E-2,3.9160877E-1,-1.4407061E-1,8.474947E-1,-3.005892E-1,-2.7252147E-1,7.742904E-1,9.849502E-2,-2.9645765E-2,-5.713869E-2,7.520027E-2,-4.546407E-3,-7.018605E-2,1.2289678E-1,-7.352651E-3],"categories":[],"categories_nodes":[],"categories_segments":[],"categories_sizes":[],"default_left":[0,0,0,0,0,0,0,0,0,0,0,0,0,0,0],"id":47,"left_children":[1,3,5,7,9,11,13,-1,-1,-1,-1,-1,-1,-1,-1],"loss_changes":[4.1205635E0,6.7726545E0,5.7706413E0,2.2913265E0,2.9779053E0,4.070858E0,2.4200196E0,0E0,0E0,0E0,0E0,0E0,0E0,0E0,0E0],"parents":[2147483647,0,0,1,1,2,2,3,3,4,4,5,5,6,6],"right_children":[2,4,6,8,10,12,14,-1,-1,-1,-1,-1,-1,-1,-1],"split_conditions":[8.75E-1,1.9736998E-2,1E0,6.2657E-2,1.71429E-1,2.6515007E-2,2.7863994E-2,9.849502E-2,-2.9645765E-2,-5.713869E-2,7.520027E-2,-4.546407E-3,-7.018605E-2,1.2289678E-1,-7.352651E-3],"split_indices":[4342,5700,455,8031,3024,8016,8011,0,0,0,0,0,0,0,0],"split_type":[0,0,0,0,0,0,0,0,0,0,0,0,0,0,0],"sum_hessian":[6.578462E1,1.9654829E1,4.612979E1,1.1714942E1,7.9398875E0,4.108631E1,5.0434766E0,1.0582375E1,1.1325676E0,6.6788087E0,1.2610786E0,2.7597288E1,1.3489025E1,2.990258E0,2.0532188E0],"tree_param":{"num_deleted":"0","num_feature":"8114","num_nodes":"15","size_leaf_vector":"1"}},{"base_weights":[-1.0493823E-1,4.0760804E-2,-5.9782535E-1,-2.3608726E-1,4.2898825E-1,-9.170585E-1,2.4573138E-1,4.9329054E-2,-4.4975862E-2,6.7533806E-2,-4.9750693E-2,-1.0077009E-1,-1.7576102E-3,7.2968125E-2,-5.966274E-2],"categories":[],"categories_nodes":[],"categories_segments":[],"categories_sizes":[],"default_left":[0,0,0,0,0,0,0,0,0,0,0,0,0,0,0],"id":48,"left_children":[1,3,5,7,9,11,13,-1,-1,-1,-1,-1,-1,-1,-1],"loss_changes":[4.688086E0,5.589356E0,4.232675E0,4.9676104E0,5.2683096E0,8.79694E-1,2.4223256E0,0E0,0E0,0E0,0E0,0E0,0E0,0E0,0E0],"parents":[2147483647,0,0,1,1,2,2,3,3,4,4,5,5,6,6],"right_children":[2,4,6,8,10,12,14,-1,-1,-1,-1,-1,-1,-1,-1],"split_conditions":[2.30769E-1,9.2105E-2,7.5269E-2,7.5E-1,5.3900998E-2,2.94118E-1,4.587E-3,4.9329054E-2,-4.4975862E-2,6.7533806E-2,-4.9750693E-2,-1.0077009E-1,-1.7576102E-3,7.2968125E-2,-5.966274E-2],"split_indices":[5803,4303,4272,4342,5728,2868,4213,0,0,0,0,0,0,0,0],"split_type":[0,0,0,0,0,0,0,0,0,0,0,0,0,0,0],"sum_hessian":[6.3942375E1,5.0061375E1,1.3881003E1,2.9451302E1,2.0610071E1,1.0006891E1,3.8741124E0,6.376423E0,2.3074879E1,1.649518E1,4.1148915E0,8.981498E0,1.0253935E0,2.5454633E0,1.3286489E0],"tree_param":{"num_deleted":"0","num_feature":"8114","num_nodes":"15","size_leaf_vector":"1"}},{"base_weights":[-1.4784601E-2,2.3293068E-1,-2.9969093E-1,5.0538445E-1,-2.4127303E-1,-5.397808E-1,5.3283304E-1,6.570436E-2,-4.2105258E-2,-6.022882E-2,3.7037335E-2,-6.5968804E-2,7.976016E-2,9.282476E-2,-5.857113E-2],"categories":[],"categories_nodes":[],"categories_segments":[],"categories_sizes":[],"default_left":[0,0,0,0,0,0,0,0,0,0,0,0,0,0,0],"id":49,"left_children":[1,3,5,7,9,11,13,-1,-1,-1,-1,-1,-1,-1,-1],"loss_changes":[4.5706387E0,4.6019974E0,6.303495E0,3.4162912E0,3.166513E0,4.3519607E0,3.7459097E0,0E0,0E0,0E0,0E0,0E0,0E0,0E0,0E0],"parents":[2147483647,0,0,1,1,2,2,3,3,4,4,5,5,6,6],"right_children":[2,4,6,8,10,12,14,-1,-1,-1,-1,-1,-1,-1,-1],"split_conditions":[4.9999997E-2,2.4241999E-2,5.38462E-1,1.7032897E-1,1.5454501E-1,2.04545E-1,2.33333E-1,6.570436E-2,-4.2105258E-2,-6.022882E-2,3.7037335E-2,-6.5968804E-2,7.976016E-2,9.282476E-2,-5.857113E-2],"split_indices":[6872,8016,4400,7338,8042,4401,1592,0,0,0,0,0,0,0,0],"split_type":[0,0,0,0,0,0,0,0,0,0,0,0,0,0,0],"sum_hessian":[6.2773155E1,3.3675774E1,2.9097382E1,2.1345793E1,1.2329982E1,2.2857258E1,6.2401233E0,1.8592894E1,2.7528994E0,7.76318E0,4.5668015E0,2.1441578E1,1.4156806E0,4.736028E0,1.5040954E0],"tree_param":{"num_deleted":"0","num_feature":"8114","num_nodes":"15","size_leaf_vector":"1"}},{"base_weights":[2.8702848E-2,1.10756055E-1,-7.333545E-1,2.133562E-1,-6.204744E-1,-9.8763846E-2,1.8740383E-3,6.200388E-2,-4.622677E-3,-9.880607E-2,4.290256E-2],"categories":[],"categories_nodes":[],"categories_segments":[],"categories_sizes":[],"default_left":[0,0,0,0,0,0,0,0,0,0,0],"id":50,"left_children":[1,3,5,7,9,-1,-1,-1,-1,-1,-1],"loss_changes":[3.9075239E0,4.3421984E0,1.1811867E0,5.302022E0,3.186238E0,0E0,0E0,0E0,0E0,0E0,0E0],"parents":[2147483647,0,0,1,1,2,2,3,3,4,4],"right_children":[2,4,6,8,10,-1,-1,-1,-1,-1,-1],"split_conditions":[3.6946E-2,8.5714E-2,1.4932102E-1,3.0303E-2,6.4516E-2,-9.8763846E-2,1.8740383E-3,6.200388E-2,-4.622677E-3,-9.880607E-2,4.290256E-2],"split_indices":[6993,7201,5720,4185,4272,0,0,0,0,0,0],"split_type":[0,0,0,0,0,0,0,0,0,0,0],"sum_hessian":[6.019217E1,5.5112667E1,5.0794997E0,4.8952312E1,6.1603556E0,3.5620005E0,1.5174993E0,1.8531244E1,3.0421068E1,4.605741E0,1.5546145E0],"tree_param":{"num_deleted":"0","num_feature":"8114","num_nodes":"11","size_leaf_vector":"1"}},{"base_weights":[3.2333497E-2,1.7116341E-1,-4.5910522E-1,2.7591312E-1,-6.2720263E-1,-7.566144E-1,3.167152E-1,5.3514596E-2,-6.881115E-3,1.988264E-2,-9.229569E-2,-9.7464904E-2,1.4248775E-2,8.570567E-2,-6.0323905E-2],"categories":[],"categories_nodes":[],"categories_segments":[],"categories_sizes":[],"default_left":[0,0,0,0,0,0,0,0,0,0,0,0,0,0,0],"id":51,"left_children":[1,3,5,7,9,11,13,-1,-1,-1,-1,-1,-1,-1,-1],"loss_changes":[4.302976E0,4.271452E0,3.4502857E0,3.9703915E0,1.6468027E0,2.1677566E0,2.78403E0,0E0,0E0,0E0,0E0,0E0,0E0,0E0,0E0],"parents":[2147483647,0,0,1,1,2,2,3,3,4,4,5,5,6,6],"right_children":[2,4,6,8,10,12,14,-1,-1,-1,-1,-1,-1,-1,-1],"split_conditions":[5.5147E-2,1.34615E-1,9.0909E-2,8.5347995E-2,1.14286E-1,2.4107099E-1,2.5172003E-2,5.3514596E-2,-6.881115E-3,1.988264E-2,-9.229569E-2,-9.7464904E-2,1.4248775E-2,8.570567E-2,-6.0323905E-2],"split_indices":[5728,5596,164,6903,5338,5720,7111,0,0,0,0,0,0,0,0],"split_type":[0,0,0,0,0,0,0,0,0,0,0,0,0,0,0],"sum_hessian":[6.0917294E1,4.8007137E1,1.2910157E1,4.3017433E1,4.9897046E0,9.349569E0,3.5605876E0,2.4238031E1,1.8779402E1,1.4019233E0,3.587781E0,7.4571633E0,1.8924061E0,2.2861638E0,1.2744238E0],"tree_param":{"num_deleted":"0","num_feature":"8114","num_nodes":"15","size_leaf_vector":"1"}},{"base_weights":[-1.3334208E-2,1.19626686E-1,-5.2854496E-1,2.4663551E-1,-5.924993E-1,-9.715343E-1,1.8383105E-1,4.1077804E-2,-2.4737572E-2,-8.3203495E-2,4.219909E-2,-2.9962542E-3,-1.1468331E-1,7.872133E-2,-7.969714E-2],"categories":[],"categories_nodes":[],"categories_segments":[],"categories_sizes":[],"default_left":[0,0,0,0,0,0,0,0,0,0,0,0,0,0,0],"id":52,"left_children":[1,3,5,7,9,11,13,-1,-1,-1,-1,-1,-1,-1,-1],"loss_changes":[4.291409E0,4.657303E0,4.2324324E0,3.5911424E0,2.2570395E0,1.2992315E0,4.0398417E0,0E0,0E0,0E0,0E0,0E0,0E0,0E0,0E0],"parents":[2147483647,0,0,1,1,2,2,3,3,4,4,5,5,6,6],"right_children":[2,4,6,8,10,12,14,-1,-1,-1,-1,-1,-1,-1,-1],"split_conditions":[2.14286E-1,1.34615E-1,3.04348E-1,1.75E-1,5.8824E-2,1.5E-1,9.502199E-2,4.1077804E-2,-2.4737572E-2,-8.3203495E-2,4.219909E-2,-2.9962542E-3,-1.1468331E-1,7.872133E-2,-7.969714E-2],"split_indices":[6903,5596,5720,4273,4498,4524,7201,0,0,0,0,0,0,0,0],"split_type":[0,0,0,0,0,0,0,0,0,0,0,0,0,0,0],"sum_hessian":[6.0722668E1,4.88768E1,1.1845868E1,4.2033688E1,6.8431134E0,7.0796256E0,4.766243E0,3.1677017E1,1.035667E1,5.6814833E0,1.1616302E0,1.294967E0,5.7846584E0,3.0730836E0,1.6931592E0],"tree_param":{"num_deleted":"0","num_feature":"8114","num_nodes":"15","size_leaf_vector":"1"}},{"base_weights":[-3.9037257E-2,-1.4119609E-1,5.8961004E-1,3.7264075E-2,-5.7764584E-1,7.959974E-1,-5.163825E-3,-1.7758181E-2,6.747608E-2,-6.634131E-2,2.6595894E-2,9.053405E-2,2.3611566E-2],"categories":[],"categories_nodes":[],"categories_segments":[],"categories_sizes":[],"default_left":[0,0,0,0,0,0,0,0,0,0,0,0,0],"id":53,"left_children":[1,3,5,7,9,11,-1,-1,-1,-1,-1,-1,-1],"loss_changes":[3.8629098E0,4.027578E0,1.1554852E0,5.248475E0,1.2608447E0,1.7993212E-1,0E0,0E0,0E0,0E0,0E0,0E0,0E0],"parents":[2147483647,0,0,1,1,2,2,3,3,4,4,5,5],"right_children":[2,4,6,8,10,12,-1,-1,-1,-1,-1,-1,-1],"split_conditions":[4.3478E-2,3.3954997E-2,9.5238E-2,2E-1,2.7211E-2,6.428599E-2,-5.163825E-3,-1.7758181E-2,6.747608E-2,-6.634131E-2,2.6595894E-2,9.053405E-2,2.3611566E-2],"split_indices":[7001,6999,3050,1128,7213,7080,0,0,0,0,0,0,0],"split_type":[0,0,0,0,0,0,0,0,0,0,0,0,0],"sum_hessian":[5.785315E1,5.0432907E1,7.420242E0,3.6445362E1,1.3987543E1,5.430952E0,1.9892898E0,2.7798346E1,8.6470175E0,1.2890585E1,1.0969577E0,4.0273943E0,1.4035577E0],"tree_param":{"num_deleted":"0","num_feature":"8114","num_nodes":"13","size_leaf_vector":"1"}},{"base_weights":[-4.906826E-3,-9.572408E-2,7.87839E-1,-3.2146528E-1,2.5108278E-1,8.984556E-2,1.117958E-2,5.228637E-3,-5.8535304E-2,5.6832682E-2,-2.456301E-2],"categories":[],"categories_nodes":[],"categories_segments":[],"categories_sizes":[],"default_left":[0,0,0,0,0,0,0,0,0,0,0],"id":54,"left_children":[1,3,5,7,9,-1,-1,-1,-1,-1,-1],"loss_changes":[4.2827435E0,4.2553873E0,3.56848E-1,3.2595365E0,3.541076E0,0E0,0E0,0E0,0E0,0E0,0E0],"parents":[2147483647,0,0,1,1,2,2,3,3,4,4],"right_children":[2,4,6,8,10,-1,-1,-1,-1,-1,-1],"split_conditions":[5.8824E-2,2.439E-2,2.8148003E-2,1.5E-1,3.0908998E-2,8.984556E-2,1.117958E-2,5.228637E-3,-5.8535304E-2,5.6832682E-2,-2.456301E-2],"split_indices":[7001,4289,6973,4503,6999,0,0,0,0,0,0],"split_type":[0,0,0,0,0,0,0,0,0,0,0],"sum_hessian":[5.743918E1,5.2324154E1,5.1150246E0,3.1738325E1,2.0585827E1,4.1130424E0,1.001982E0,1.3466791E1,1.8271536E1,1.2474408E1,8.111419E0],"tree_param":{"num_deleted":"0","num_feature":"8114","num_nodes":"11","size_leaf_vector":"1"}},{"base_weights":[1.846554E-2,1.23522095E-1,-4.8696652E-1,3.2041305E-1,-2.9807433E-1,3.622601E-1,-7.3480344E-1,-1.8008154E-2,7.005009E-2,2.4424452E-2,-6.595928E-2,-3.4723156E-3,5.779465E-2,-1.005308E-1,3.8258355E-2],"categories":[],"categories_nodes":[],"categories_segments":[],"categories_sizes":[],"default_left":[0,0,0,0,0,0,0,0,0,0,0,0,0,0,0],"id":55,"left_children":[1,3,5,7,9,11,13,-1,-1,-1,-1,-1,-1,-1,-1],"loss_changes":[3.1875875E0,4.20944E0,2.4420056E0,6.644467E0,3.3559194E0,2.7738675E-1,2.9032364E0,0E0,0E0,0E0,0E0,0E0,0E0,0E0,0E0],"parents":[2147483647,0,0,1,1,2,2,3,3,4,4,5,5,6,6],"right_children":[2,4,6,8,10,12,14,-1,-1,-1,-1,-1,-1,-1,-1],"split_conditions":[8.88889E-1,3.5293996E-2,4.2857E-2,3E-1,7.575996E-3,1.66667E-1,1.05263E-1,-1.8008154E-2,7.005009E-2,2.4424452E-2,-6.595928E-2,-3.4723156E-3,5.779465E-2,-1.005308E-1,3.8258355E-2],"split_indices":[6775,5700,7207,4400,7111,3959,7001,0,0,0,0,0,0,0,0],"split_type":[0,0,0,0,0,0,0,0,0,0,0,0,0,0,0],"sum_hessian":[5.789827E1,4.8560368E1,9.337902E0,3.3265125E1,1.5295241E1,2.00522E0,7.332682E0,1.4585433E1,1.8679693E1,6.247569E0,9.047672E0,1.0012932E0,1.0039268E0,5.9842734E0,1.3484088E0],"tree_param":{"num_deleted":"0","num_feature":"8114","num_nodes":"15","size_leaf_vector":"1"}},{"base_weights":[2.9501718E-2,2.1731329E-1,-2.6426557E-1,6.5009946E-1,-5.1001772E-2,-4.3866065E-1,6.0022736E-1,-1.175473E-2,9.531425E-2,1.9881899E-2,-6.2140334E-2,-5.866278E-2,3.0465296E-2,3.8970742E-4,7.845569E-2],"categories":[],"categories_nodes":[],"categories_segments":[],"categories_sizes":[],"default_left":[0,0,0,0,0,0,0,0,0,0,0,0,0,0,0],"id":56,"left_children":[1,3,5,7,9,11,13,-1,-1,-1,-1,-1,-1,-1,-1],"loss_changes":[3.2380238E0,4.18042E0,3.72081E0,3.308569E0,3.3972375E0,2.3411944E0,4.665264E-1,0E0,0E0,0E0,0E0,0E0,0E0,0E0,0E0],"parents":[2147483647,0,0,1,1,2,2,3,3,4,4,5,5,6,6],"right_children":[2,4,6,8,10,12,14,-1,-1,-1,-1,-1,-1,-1,-1],"split_conditions":[5.5455998E-2,1.33333E-1,5.5556E-2,1.13772E-1,8.7179E-2,5.8824E-2,2.05128E-1,-1.175473E-2,9.531425E-2,1.9881899E-2,-6.2140334E-2,-5.866278E-2,3.0465296E-2,3.8970742E-4,7.845569E-2],"split_indices":[6998,1800,4193,1590,8038,4297,4294,0,0,0,0,0,0,0,0],"split_type":[0,0,0,0,0,0,0,0,0,0,0,0,0,0,0],"sum_hessian":[5.664778E1,3.4714394E1,2.1933386E1,1.2740829E1,2.1973566E1,1.8661385E1,3.272001E0,3.7793539E0,8.961475E0,1.57339525E1,6.2396135E0,1.573909E1,2.9222949E0,1.0136976E0,2.2583034E0],"tree_param":{"num_deleted":"0","num_feature":"8114","num_nodes":"15","size_leaf_vector":"1"}},{"base_weights":[-2.587891E-2,1.636945E-1,-4.2742756E-1,3.0832732E-1,-5.644339E-1,-6.970568E-1,3.425652E-1,5.081877E-2,-4.191385E-2,2.099929E-2,-9.179189E-2,-8.453232E-2,2.7580384E-2,-4.4939037E-2,6.9143884E-2],"categories":[],"categories_nodes":[],"categories_segments":[],"categories_sizes":[],"default_left":[0,0,0,0,0,0,0,0,0,0,0,0,0,0,0],"id":57,"left_children":[1,3,5,7,9,11,13,-1,-1,-1,-1,-1,-1,-1,-1],"loss_changes":[4.4090157E0,4.327873E0,4.091462E0,5.0914245E0,2.0788276E0,2.2631745E0,1.8257253E0,0E0,0E0,0E0,0E0,0E0,0E0,0E0,0E0],"parents":[2147483647,0,0,1,1,2,2,3,3,4,4,5,5,6,6],"right_children":[2,4,6,8,10,12,14,-1,-1,-1,-1,-1,-1,-1,-1],"split_conditions":[4.7368E-2,1.0255992E-2,2.22222E-1,9.09091E-1,4.166999E-3,2.8986E-2,6.923102E-2,5.081877E-2,-4.191385E-2,2.099929E-2,-9.179189E-2,-8.453232E-2,2.7580384E-2,-4.4939037E-2,6.9143884E-2],"split_indices":[8016,6716,4169,4662,6999,6991,8042,0,0,0,0,0,0,0,0],"split_type":[0,0,0,0,0,0,0,0,0,0,0,0,0,0,0],"sum_hessian":[5.6000526E1,3.844348E1,1.7557045E1,3.2553684E1,5.889799E0,1.3073727E1,4.4833183E0,2.5774069E1,6.7796144E0,1.9730692E0,3.91673E0,1.1458515E1,1.6152122E0,1.2829221E0,3.200396E0],"tree_param":{"num_deleted":"0","num_feature":"8114","num_nodes":"15","size_leaf_vector":"1"}},{"base_weights":[3.5550653E-3,8.004591E-2,-7.120754E-1,1.4439265E-1,-6.24582E-1,-7.3485624E-4,-8.78936E-2,2.5242816E-3,7.241629E-2,1.0643E-3,-8.183282E-2],"categories":[],"categories_nodes":[],"categories_segments":[],"categories_sizes":[],"default_left":[0,0,0,0,0,0,0,0,0,0,0],"id":58,"left_children":[1,3,5,7,9,-1,-1,-1,-1,-1,-1],"loss_changes":[3.128995E0,2.4297688E0,6.4268064E-1,3.3040771E0,5.6322646E-1,0E0,0E0,0E0,0E0,0E0,0E0],"parents":[2147483647,0,0,1,1,2,2,3,3,4,4],"right_children":[2,4,6,8,10,-1,-1,-1,-1,-1,-1],"split_conditions":[2.7499998E-1,7.652199E-2,9.2500076E-4,1.14286E-1,1.5E-1,-7.3485624E-4,-8.78936E-2,2.5242816E-3,7.241629E-2,1.0643E-3,-8.183282E-2],"split_indices":[6716,5594,6993,164,4503,0,0,0,0,0,0],"split_type":[0,0,0,0,0,0,0,0,0,0,0],"sum_hessian":[5.512061E1,5.0600292E1,4.520314E0,4.7094677E1,3.5056148E0,1.0652642E0,3.4550498E0,3.9931755E1,7.1629224E0,1.0402085E0,2.4654064E0],"tree_param":{"num_deleted":"0","num_feature":"8114","num_nodes":"11","size_leaf_vector":"1"}},{"base_weights":[-3.4705225E-2,-1.4370108E-1,5.409266E-1,-2.8790029E-2,-8.3604246E-1,8.1361294E-1,-3.4577515E-2,1.0753787E-2,-6.603968E-2,-1.06214896E-1,6.5241316E-3,1.0252585E-1,-1.4428507E-2],"categories":[],"categories_nodes":[],"categories_segments":[],"categories_sizes":[],"default_left":[0,0,0,0,0,0,0,0,0,0,0,0,0],"id":59,"left_children":[1,3,5,7,9,11,-1,-1,-1,-1,-1,-1,-1],"loss_changes":[3.6231034E0,3.8186817E0,2.5073004E0,3.7271903E0,1.4631863E0,1.6358266E0,0E0,0E0,0E0,0E0,0E0,0E0,0E0],"parents":[2147483647,0,0,1,1,2,2,3,3,4,4,5,5],"right_children":[2,4,6,8,10,12,-1,-1,-1,-1,-1,-1,-1],"split_conditions":[2.58065E-1,5.71429E-1,1.05263E-1,1.3939402E-1,8E-2,1.875E-1,-3.4577515E-2,1.0753787E-2,-6.603968E-2,-1.06214896E-1,6.5241316E-3,1.0252585E-1,-1.4428507E-2],"split_indices":[5318,7212,6917,5799,7007,1817,0,0,0,0,0,0,0],"split_type":[0,0,0,0,0,0,0,0,0,0,0,0,0],"sum_hessian":[5.550762E1,4.7301453E1,8.206169E0,4.1461483E1,5.8399677E0,6.339131E0,1.867038E0,3.478346E1,6.6780267E0,4.526031E0,1.3139367E0,5.1343794E0,1.2047515E0],"tree_param":{"num_deleted":"0","num_feature":"8114","num_nodes":"13","size_leaf_vector":"1"}},{"base_weights":[3.0986127E-2,2.1749474E-1,-2.6287997E-1,-1.699083E-1,5.450571E-1,3.1944776E-1,-5.6227416E-1,-3.0752098E-2,7.634808E-2,8.538424E-2,1.8000972E-3,6.0928803E-2,-6.390082E-2,5.481892E-4,-8.287142E-2],"categories":[],"categories_nodes":[],"categories_segments":[],"categories_sizes":[],"default_left":[0,0,0,0,0,0,0,0,0,0,0,0,0,0,0],"id":60,"left_children":[1,3,5,7,9,11,13,-1,-1,-1,-1,-1,-1,-1,-1],"loss_changes":[3.1473324E0,4.5388737E0,4.0750237E0,2.3946114E0,3.1131E0,2.674075E0,2.2915792E0,0E0,0E0,0E0,0E0,0E0,0E0,0E0,0E0],"parents":[2147483647,0,0,1,1,2,2,3,3,4,4,5,5,6,6],"right_children":[2,4,6,8,10,12,14,-1,-1,-1,-1,-1,-1,-1,-1],"split_conditions":[8.714005E-3,3.2050014E-3,1.1110999E-2,5E-1,1.6969702E-1,3.3954997E-2,4.166998E-3,-3.0752098E-2,7.634808E-2,8.538424E-2,1.8000972E-3,6.0928803E-2,-6.390082E-2,5.481892E-4,-8.287142E-2],"split_indices":[5799,7104,6976,4341,5803,6999,7102,0,0,0,0,0,0,0,0],"split_type":[0,0,0,0,0,0,0,0,0,0,0,0,0,0,0],"sum_hessian":[5.5380928E1,3.4037903E1,2.1343023E1,1.5815019E1,1.8222885E1,7.2244124E0,1.411861E1,1.4367328E1,1.4476906E0,1.109983E1,7.123056E0,5.826701E0,1.3977114E0,4.8222737E0,9.296337E0],"tree_param":{"num_deleted":"0","num_feature":"8114","num_nodes":"15","size_leaf_vector":"1"}},{"base_weights":[2.2157826E-2,-3.0030346E-2,9.9775754E-2,-3.1064844E-1,1.8330225E-1,-5.3031016E-2,4.7626786E-2,3.7995275E-2,-3.7716728E-2],"categories":[],"categories_nodes":[],"categories_segments":[],"categories_sizes":[],"default_left":[0,0,0,0,0,0,0,0,0],"id":61,"left_children":[1,3,-1,5,7,-1,-1,-1,-1],"loss_changes":[2.8297868E0,3.2399004E0,0E0,4.2860203E0,3.5417993E0,0E0,0E0,0E0,0E0],"parents":[2147483647,0,0,1,1,3,3,4,4],"right_children":[2,4,-1,6,8,-1,-1,-1,-1],"split_conditions":[7.6923E-2,9.0625E-1,9.9775754E-2,9.0909E-2,2.0202003E-2,-5.3031016E-2,4.7626786E-2,3.7995275E-2,-3.7716728E-2],"split_indices":[1821,1,0,4511,5750,0,0,0,0],"split_type":[0,0,0,0,0,0,0,0,0],"sum_hessian":[5.3990414E1,5.2168938E1,1.8214767E0,2.2334251E1,2.9834684E1,1.7715261E1,4.61899E0,2.2324001E1,7.510683E0],"tree_param":{"num_deleted":"0","num_feature":"8114","num_nodes":"9","size_leaf_vector":"1"}},{"base_weights":[1.7465271E-2,1.6491477E-1,-3.2470167E-1,3.1168547E-1,-3.3176512E-1,-6.0256964E-1,4.2896873E-1,-1.35836825E-2,5.5246085E-2,-6.808281E-2,5.2619018E-2,-8.549605E-2,4.543894E-2,-5.007409E-2,9.574085E-2],"categories":[],"categories_nodes":[],"categories_segments":[],"categories_sizes":[],"default_left":[0,0,0,0,0,0,0,0,0,0,0,0,0,0,0],"id":62,"left_children":[1,3,5,7,9,11,13,-1,-1,-1,-1,-1,-1,-1,-1],"loss_changes":[2.7735703E0,2.898311E0,3.7291744E0,3.3194888E0,3.1223607E0,3.7295785E0,2.959671E0,0E0,0E0,0E0,0E0,0E0,0E0,0E0,0E0],"parents":[2147483647,0,0,1,1,2,2,3,3,4,4,5,5,6,6],"right_children":[2,4,6,8,10,12,14,-1,-1,-1,-1,-1,-1,-1,-1],"split_conditions":[6.340001E-3,6.1904E-2,1.90476E-1,1.3158E-2,1.17647E-1,2.5E-1,4.4776E-2,-1.35836825E-2,5.5246085E-2,-6.808281E-2,5.2619018E-2,-8.549605E-2,4.543894E-2,-5.007409E-2,9.574085E-2],"split_indices":[6995,8016,6873,4303,4272,5318,4298,0,0,0,0,0,0,0,0],"split_type":[0,0,0,0,0,0,0,0,0,0,0,0,0,0,0],"sum_hessian":[5.2912704E1,3.73399E1,1.5572802E1,2.9110195E1,8.229706E0,1.1524399E1,4.0484023E0,1.0335582E1,1.8774614E1,5.9964685E0,2.2332375E0,9.457225E0,2.0671742E0,1.4861547E0,2.5622478E0],"tree_param":{"num_deleted":"0","num_feature":"8114","num_nodes":"15","size_leaf_vector":"1"}},{"base_weights":[9.173304E-3,1.05254024E-1,-5.740166E-1,2.1768047E-1,-5.173449E-1,-7.793326E-1,1.824597E-2,4.32623E-2,-2.489716E-2,-9.11505E-2,2.6575128E-2,-1.2206513E-3,-9.328077E-2],"categories":[],"categories_nodes":[],"categories_segments":[],"categories_sizes":[],"default_left":[0,0,0,0,0,0,0,0,0,0,0,0,0],"id":63,"left_children":[1,3,5,7,9,11,-1,-1,-1,-1,-1,-1,-1],"loss_changes":[2.9711614E0,3.2935426E0,1.307483E0,4.0392957E0,2.4791567E0,7.0570636E-1,0E0,0E0,0E0,0E0,0E0,0E0,0E0],"parents":[2147483647,0,0,1,1,2,2,3,3,4,4,5,5],"right_children":[2,4,6,8,10,12,-1,-1,-1,-1,-1,-1,-1],"split_conditions":[9.7102E-2,6E-1,4.54545E-1,3.0507997E-2,9.53125E-1,4.7620013E-3,1.824597E-2,4.32623E-2,-2.489716E-2,-9.11505E-2,2.6575128E-2,-1.2206513E-3,-9.328077E-2],"split_indices":[8022,4398,4524,6973,0,6895,0,0,0,0,0,0,0],"split_type":[0,0,0,0,0,0,0,0,0,0,0,0,0],"sum_hessian":[5.0946674E1,4.4444027E1,6.5026474E0,3.819694E1,6.247084E0,5.0907483E0,1.4118993E0,2.620137E1,1.1995573E1,4.0464077E0,2.2006764E0,1.028659E0,4.0620894E0],"tree_param":{"num_deleted":"0","num_feature":"8114","num_nodes":"13","size_leaf_vector":"1"}},{"base_weights":[1.1991545E-2,1.3185142E-1,-4.952041E-1,1.884961E-1,-6.772431E-2,-7.499268E-1,3.9642643E-2,-3.3271547E-2,2.8237185E-2,-9.441816E-2,1.7628204E-2],"categories":[],"categories_nodes":[],"categories_segments":[],"categories_sizes":[],"default_left":[0,0,0,0,0,0,0,0,0,0,0],"id":64,"left_children":[1,3,5,7,-1,9,-1,-1,-1,-1,-1],"loss_changes":[3.3021138E0,2.1376243E0,2.656525E0,2.1376677E0,0E0,1.6823301E0,0E0,0E0,0E0,0E0,0E0],"parents":[2147483647,0,0,1,1,2,2,3,3,5,5],"right_children":[2,4,6,8,-1,10,-1,-1,-1,-1,-1],"split_conditions":[7.195799E-2,7.1429E-2,2.9412E-2,9.7561E-2,-6.772431E-2,3.15789E-1,3.9642643E-2,-3.3271547E-2,2.8237185E-2,-9.441816E-2,1.7628204E-2],"split_indices":[7000,5698,4297,4294,0,2634,0,0,0,0,0],"split_type":[0,0,0,0,0,0,0,0,0,0,0],"sum_hessian":[5.2243824E1,4.2856148E1,9.387676E0,4.0768944E1,2.0872045E0,7.4253225E0,1.9623542E0,5.8339295E0,3.4935017E1,6.121954E0,1.3033683E0],"tree_param":{"num_deleted":"0","num_feature":"8114","num_nodes":"11","size_leaf_vector":"1"}},{"base_weights":[-1.2871148E-2,6.262014E-2,-7.0733935E-1,1.377416E-1,-6.435892E-1,-1.1647369E-2,-8.277082E-2,4.298576E-2,-6.700709E-3,-3.26472E-3,-8.316461E-2],"categories":[],"categories_nodes":[],"categories_segments":[],"categories_sizes":[],"default_left":[0,0,0,0,0,0,0,0,0,0,0],"id":65,"left_children":[1,3,5,7,9,-1,-1,-1,-1,-1,-1],"loss_changes":[2.711812E0,2.5720563E0,2.6418328E-1,2.6086812E0,5.1019645E-1,0E0,0E0,0E0,0E0,0E0,0E0],"parents":[2147483647,0,0,1,1,2,2,3,3,4,4],"right_children":[2,4,6,8,10,-1,-1,-1,-1,-1,-1],"split_conditions":[2.7499998E-1,9.502199E-2,8.75E-1,1.36364E-1,6.3636005E-2,-1.1647369E-2,-8.277082E-2,4.298576E-2,-6.700709E-3,-3.26472E-3,-8.316461E-2],"split_indices":[6716,7201,3924,1800,5752,0,0,0,0,0,0],"split_type":[0,0,0,0,0,0,0,0,0,0,0],"sum_hessian":[4.9881306E1,4.581128E1,4.0700274E0,4.2134293E1,3.6769857E0,1.0218104E0,3.0482168E0,1.6909698E1,2.5224594E1,1.1416619E0,2.5353239E0],"tree_param":{"num_deleted":"0","num_feature":"8114","num_nodes":"11","size_leaf_vector":"1"}},{"base_weights":[1.7398747E-2,-5.3111315E-2,6.3380635E-1,9.7159445E-2,-5.34406E-1,8.200264E-2,-1.1580696E-2,-4.8918147E-2,2.7132655E-2,-6.825846E-2,4.5574926E-2],"categories":[],"categories_nodes":[],"categories_segments":[],"categories_sizes":[],"default_left":[0,0,0,0,0,0,0,0,0,0,0],"id":66,"left_children":[1,3,5,7,9,-1,-1,-1,-1,-1,-1],"loss_changes":[2.4018898E0,3.6549885E0,8.865123E-1,4.0961375E0,2.0727859E0,0E0,0E0,0E0,0E0,0E0,0E0],"parents":[2147483647,0,0,1,1,2,2,3,3,4,4],"right_children":[2,4,6,8,10,-1,-1,-1,-1,-1,-1],"split_conditions":[5.8824E-2,6.8966E-2,5.33333E-1,6.66667E-1,2.22222E-1,8.200264E-2,-1.1580696E-2,-4.8918147E-2,2.7132655E-2,-6.825846E-2,4.5574926E-2],"split_indices":[7001,7111,4248,2944,1481,0,0,0,0,0,0],"split_type":[0,0,0,0,0,0,0,0,0,0,0],"sum_hessian":[5.3488434E1,4.881804E1,4.6703944E0,3.7810806E1,1.1007234E1,3.6657987E0,1.0045959E0,8.244994E0,2.9565811E1,9.8446E0,1.1626339E0],"tree_param":{"num_deleted":"0","num_feature":"8114","num_nodes":"11","size_leaf_vector":"1"}},{"base_weights":[-1.7246103E-2,-1.1716458E-1,5.4518265E-1,-5.5603683E-1,2.2275733E-2,8.959598E-1,-4.400086E-2,-7.403051E-2,5.3183313E-2,2.32707E-2,-4.309606E-2,1.0157354E-1,1.3583665E-2],"categories":[],"categories_nodes":[],"categories_segments":[],"categories_sizes":[],"default_left":[0,0,0,0,0,0,0,0,0,0,0,0,0],"id":67,"left_children":[1,3,5,7,9,11,-1,-1,-1,-1,-1,-1,-1],"loss_changes":[2.9744668E0,2.7541432E0,3.15546E0,2.5669293E0,3.434736E0,4.2846012E-1,0E0,0E0,0E0,0E0,0E0,0E0,0E0],"parents":[2147483647,0,0,1,1,2,2,3,3,4,4,5,5],"right_children":[2,4,6,8,10,12,-1,-1,-1,-1,-1,-1,-1],"split_conditions":[1.25E-1,2.0833E-2,2.4443999E-2,2.78947E-1,7.4074E-2,4.34783E-1,-4.400086E-2,-7.403051E-2,5.3183313E-2,2.32707E-2,-4.309606E-2,1.0157354E-1,1.3583665E-2],"split_indices":[4511,4298,6889,7104,7111,4634,0,0,0,0,0,0,0],"split_type":[0,0,0,0,0,0,0,0,0,0,0,0,0],"sum_hessian":[5.079261E1,4.3802536E1,6.990074E0,9.84112E0,3.396142E1,5.2215242E0,1.7685499E0,8.688853E0,1.152266E0,2.3525448E1,1.0435968E1,4.220246E0,1.001278E0],"tree_param":{"num_deleted":"0","num_feature":"8114","num_nodes":"13","size_leaf_vector":"1"}},{"base_weights":[-3.59183E-2,5.498036E-2,-5.4050565E-1,1.5982974E-1,-3.697692E-1,-8.704709E-2,2.0389587E-1,5.3827703E-2,-4.297769E-3,7.374269E-2,-7.184503E-2,8.674788E-2,-5.6108147E-2],"categories":[],"categories_nodes":[],"categories_segments":[],"categories_sizes":[],"default_left":[0,0,0,0,0,0,0,0,0,0,0,0,0],"id":68,"left_children":[1,3,5,7,9,-1,11,-1,-1,-1,-1,-1,-1],"loss_changes":[2.376033E0,2.0299625E0,2.1181884E0,2.8008823E0,4.0287485E0,0E0,2.1298213E0,0E0,0E0,0E0,0E0,0E0,0E0],"parents":[2147483647,0,0,1,1,2,2,3,3,4,4,6,6],"right_children":[2,4,6,8,10,-1,12,-1,-1,-1,-1,-1,-1],"split_conditions":[1.3939402E-1,9.09091E-1,4.3333298E-1,1.9479997E-2,7.5E-1,-8.704709E-2,1.8098999E-2,5.3827703E-2,-4.297769E-3,7.374269E-2,-7.184503E-2,8.674788E-2,-5.6108147E-2],"split_indices":[5799,4662,6788,7208,4342,0,6999,0,0,0,0,0,0],"split_type":[0,0,0,0,0,0,0,0,0,0,0,0,0],"sum_hessian":[5.0155537E1,4.325451E1,6.9010253E0,3.519126E1,8.063251E0,4.664202E0,2.2368228E0,1.1701548E1,2.3489714E1,1.6641221E0,6.399128E0,1.1260412E0,1.1107818E0],"tree_param":{"num_deleted":"0","num_feature":"8114","num_nodes":"13","size_leaf_vector":"1"}},{"base_weights":[6.3357905E-2,2.2426128E-1,-2.3073086E-1,3.051399E-1,-5.8249433E-2,1.5136442E-1,-8.129172E-1,6.4862445E-3,6.4655885E-2,-1.7141862E-2,6.900036E-2,-1.0990628E-1,-8.323605E-3],"categories":[],"categories_nodes":[],"categories_segments":[],"categories_sizes":[],"default_left":[0,0,0,0,0,0,0,0,0,0,0,0,0],"id":69,"left_children":[1,3,5,7,-1,9,11,-1,-1,-1,-1,-1,-1],"loss_changes":[2.3932953E0,2.297773E0,4.1254263E0,2.4344585E0,0E0,2.1535015E0,1.4298754E0,0E0,0E0,0E0,0E0,0E0,0E0],"parents":[2147483647,0,0,1,1,2,2,3,3,5,5,6,6],"right_children":[2,4,6,8,-1,10,12,-1,-1,-1,-1,-1,-1],"split_conditions":[1.0256399E-1,3.613E-2,6.4677E-2,2.7027E-2,-5.8249433E-2,1.57895E-1,1.66667E-1,6.4862445E-3,6.4655885E-2,-1.7141862E-2,6.900036E-2,-1.0990628E-1,-8.323605E-3],"split_indices":[6903,6901,1488,4289,0,4660,3959,0,0,0,0,0,0],"split_type":[0,0,0,0,0,0,0,0,0,0,0,0,0],"sum_hessian":[4.848346E1,3.1491243E1,1.6992216E1,2.9186968E1,2.3042743E0,1.0705854E1,6.286363E0,1.7829342E1,1.1357626E1,7.1205654E0,3.5852888E0,4.1519465E0,2.1344166E0],"tree_param":{"num_deleted":"0","num_feature":"8114","num_nodes":"13","size_leaf_vector":"1"}},{"base_weights":[-1.4051041E-3,4.6184453E-1,-1.5645525E-1,1.1884475E-1,8.145664E-1,-2.546131E-1,6.8230844E-1,4.0359106E-2,-3.9703894E-2,1.3451322E-2,9.21328E-2,-4.4171397E-2,1.7437896E-2,2.1096863E-2,7.6900005E-2],"categories":[],"categories_nodes":[],"categories_segments":[],"categories_sizes":[],"default_left":[0,0,0,0,0,0,0,0,0,0,0,0,0,0,0],"id":70,"left_children":[1,3,5,7,9,11,13,-1,-1,-1,-1,-1,-1,-1,-1],"loss_changes":[3.6633162E0,1.450628E0,3.3192332E0,1.2847922E0,3.2149553E-1,2.8807645E0,1.2422562E-2,0E0,0E0,0E0,0E0,0E0,0E0,0E0,0E0],"parents":[2147483647,0,0,1,1,2,2,3,3,4,4,5,5,6,6],"right_children":[2,4,6,8,10,12,14,-1,-1,-1,-1,-1,-1,-1,-1],"split_conditions":[8.795001E-3,6.25E-2,6.6667E-2,1E0,1.21951E-1,2E-1,6.76471E-1,4.0359106E-2,-3.9703894E-2,1.3451322E-2,9.21328E-2,-4.4171397E-2,1.7437896E-2,2.1096863E-2,7.6900005E-2],"split_indices":[6998,4191,7001,4071,4294,1128,3048,0,0,0,0,0,0,0,0],"split_type":[0,0,0,0,0,0,0,0,0,0,0,0,0,0,0],"sum_hessian":[4.899599E1,1.1790463E1,3.720553E1,6.6554213E0,5.135042E0,3.3931118E1,3.2744086E0,4.428657E0,2.226764E0,1.0034134E0,4.131629E0,2.360595E1,1.032517E1,1.0420991E0,2.2323096E0],"tree_param":{"num_deleted":"0","num_feature":"8114","num_nodes":"15","size_leaf_vector":"1"}},{"base_weights":[-3.8340053E-4,1.0532089E-1,-5.498554E-1,-7.039723E-2,4.3235675E-1,-7.808153E-1,5.2540164E-2,8.464963E-3,-7.861019E-2,5.9449907E-2,-5.468468E-2,-9.246806E-2,5.1816073E-3],"categories":[],"categories_nodes":[],"categories_segments":[],"categories_sizes":[],"default_left":[0,0,0,0,0,0,0,0,0,0,0,0,0],"id":71,"left_children":[1,3,5,7,9,11,-1,-1,-1,-1,-1,-1,-1],"loss_changes":[3.022611E0,2.5387022E0,2.4953153E0,3.3126094E0,2.7694309E0,9.239969E-1,0E0,0E0,0E0,0E0,0E0,0E0,0E0],"parents":[2147483647,0,0,1,1,2,2,3,3,4,4,5,5],"right_children":[2,4,6,8,10,12,-1,-1,-1,-1,-1,-1,-1],"split_conditions":[8.6957E-2,5E-2,2.72727E-1,2.5714302E-1,1.0255992E-2,9E-1,5.2540164E-2,8.464963E-3,-7.861019E-2,5.9449907E-2,-5.468468E-2,-9.246806E-2,5.1816073E-3],"split_indices":[5728,4272,5318,5803,6716,4219,0,0,0,0,0,0,0],"split_type":[0,0,0,0,0,0,0,0,0,0,0,0,0],"sum_hessian":[5.004373E1,4.2647728E1,7.3960032E0,2.8252337E1,1.4395391E1,6.3136883E0,1.082315E0,2.3946423E1,4.305914E0,1.268741E1,1.7079812E0,5.2892404E0,1.0244478E0],"tree_param":{"num_deleted":"0","num_feature":"8114","num_nodes":"13","size_leaf_vector":"1"}},{"base_weights":[-9.109292E-2,-1.5269722E-1,7.1396425E-2,-6.16899E-2,-7.795776E-1,-3.2496642E-2,1.5164134E-2,-9.05551E-2,-1.5312065E-2],"categories":[],"categories_nodes":[],"categories_segments":[],"categories_sizes":[],"default_left":[0,0,0,0,0,0,0,0,0],"id":72,"left_children":[1,3,-1,5,7,-1,-1,-1,-1],"loss_changes":[2.500149E0,2.5539806E0,0E0,2.347204E0,3.10858E-1,0E0,0E0,0E0,0E0],"parents":[2147483647,0,0,1,1,3,3,4,4],"right_children":[2,4,-1,6,8,-1,-1,-1,-1],"split_conditions":[1.66667E-1,9.5238E-2,7.1396425E-2,2.4999999E-2,6.25E-2,-3.2496642E-2,1.5164134E-2,-9.05551E-2,-1.5312065E-2],"split_indices":[7105,4497,0,7007,2632,0,0,0,0],"split_type":[0,0,0,0,0,0,0,0,0],"sum_hessian":[4.7213116E1,4.4609825E1,2.60329E0,3.9913757E1,4.6960692E0,1.7631302E1,2.2282455E1,3.5389204E0,1.1571487E0],"tree_param":{"num_deleted":"0","num_feature":"8114","num_nodes":"9","size_leaf_vector":"1"}},{"base_weights":[3.9279915E-2,1.0694124E-1,-6.6879994E-1,2.2086574E-1,-3.5408813E-1,-1.48656815E-2,-7.97578E-2,4.009174E-2,-1.2386145E-2,-7.1587786E-2,1.9506132E-2],"categories":[],"categories_nodes":[],"categories_segments":[],"categories_sizes":[],"default_left":[0,0,0,0,0,0,0,0,0,0,0],"id":73,"left_children":[1,3,5,7,9,-1,-1,-1,-1,-1,-1],"loss_changes":[2.3469899E0,2.4004674E0,1.6815186E-1,2.2884455E0,1.9565499E0,0E0,0E0,0E0,0E0,0E0,0E0],"parents":[2147483647,0,0,1,1,2,2,3,3,4,4],"right_children":[2,4,6,8,10,-1,-1,-1,-1,-1,-1],"split_conditions":[8.3333E-2,1.9318199E-1,1.4912002E-2,9.5238E-2,1.05262995E-1,-1.48656815E-2,-7.97578E-2,4.009174E-2,-1.2386145E-2,-7.1587786E-2,1.9506132E-2],"split_indices":[6916,6923,6889,4185,5720,0,0,0,0,0,0],"split_type":[0,0,0,0,0,0,0,0,0,0,0],"sum_hessian":[4.649501E1,4.3214565E1,3.2804434E0,3.5069504E1,8.1450615E0,1.0785346E0,2.2019088E0,2.293008E1,1.2139424E1,4.7271295E0,3.4179316E0],"tree_param":{"num_deleted":"0","num_feature":"8114","num_nodes":"11","size_leaf_vector":"1"}},{"base_weights":[-6.1172335E-3,1.1657783E-1,-4.7732407E-1,2.6359197E-1,-2.968667E-1,2.728979E-2,-9.841288E-2,-2.9756894E-2,4.6023775E-2,4.552759E-2,-5.4428395E-2,4.301424E-2,-4.2224966E-2],"categories":[],"categories_nodes":[],"categories_segments":[],"categories_sizes":[],"default_left":[0,0,0,0,0,0,0,0,0,0,0,0,0],"id":74,"left_children":[1,3,5,7,9,11,-1,-1,-1,-1,-1,-1,-1],"loss_changes":[2.8112786E0,2.425664E0,2.5952837E0,3.3392303E0,2.2205267E0,1.2692018E0,0E0,0E0,0E0,0E0,0E0,0E0,0E0],"parents":[2147483647,0,0,1,1,2,2,3,3,4,4,5,5],"right_children":[2,4,6,8,10,12,-1,-1,-1,-1,-1,-1,-1],"split_conditions":[8.33333E-1,7.692301E-2,4.167E-3,8.92857E-1,2E-2,1.7157E-2,-9.841288E-2,-2.9756894E-2,4.6023775E-2,4.552759E-2,-5.4428395E-2,4.301424E-2,-4.2224966E-2],"split_indices":[6775,5596,4185,2944,4185,8016,0,0,0,0,0,0,0],"split_type":[0,0,0,0,0,0,0,0,0,0,0,0,0],"sum_hessian":[4.6663155E1,3.7620064E1,9.043093E0,2.8019304E1,9.60076E0,5.0054417E0,4.0376506E0,7.137644E0,2.088166E1,2.1684895E0,7.4322705E0,2.662555E0,2.342887E0],"tree_param":{"num_deleted":"0","num_feature":"8114","num_nodes":"13","size_leaf_vector":"1"}},{"base_weights":[3.1926624E-2,1.8848287E-1,-2.2787297E-1,3.5035318E-1,-2.9854047E-1,-4.3114147E-1,3.0561885E-1,-9.352241E-3,6.299977E-2,2.3628948E-2,-7.978271E-2,3.274629E-3,-6.1144706E-2,-4.535196E-2,8.214575E-2],"categories":[],"categories_nodes":[],"categories_segments":[],"categories_sizes":[],"default_left":[0,0,0,0,0,0,0,0,0,0,0,0,0,0,0],"id":75,"left_children":[1,3,5,7,9,11,13,-1,-1,-1,-1,-1,-1,-1,-1],"loss_changes":[2.0379121E0,2.5605147E0,2.1808534E0,3.018319E0,2.4078798E0,1.199141E0,2.6431649E0,0E0,0E0,0E0,0E0,0E0,0E0,0E0,0E0],"parents":[2147483647,0,0,1,1,2,2,3,3,4,4,5,5,6,6],"right_children":[2,4,6,8,10,12,14,-1,-1,-1,-1,-1,-1,-1,-1],"split_conditions":[2.12122E-1,3.1327E-2,4.1666698E-1,5.4054E-2,3.3333004E-2,8.75E-1,5.88235E-1,-9.352241E-3,6.299977E-2,2.3628948E-2,-7.978271E-2,3.274629E-3,-6.1144706E-2,-4.535196E-2,8.214575E-2],"split_indices":[5811,6976,6663,4303,7007,4342,1958,0,0,0,0,0,0,0,0],"split_type":[0,0,0,0,0,0,0,0,0,0,0,0,0,0,0],"sum_hessian":[4.8048508E1,3.0152813E1,1.7895695E1,2.2841639E1,7.3111744E0,1.3097281E1,4.7984133E0,9.085665E0,1.3755973E1,3.7842627E0,3.526912E0,3.8949053E0,9.202375E0,1.9902524E0,2.8081608E0],"tree_param":{"num_deleted":"0","num_feature":"8114","num_nodes":"15","size_leaf_vector":"1"}},{"base_weights":[-6.309364E-3,1.4450866E-1,-3.5513204E-1,4.20767E-1,-1.3630383E-1,2.1566308E-1,-6.3366205E-1,5.6940764E-2,-3.6420207E-2,-4.4407833E-2,4.7411878E-2,-1.0409778E-2,7.082633E-2,-9.176475E-2,1.7164998E-2],"categories":[],"categories_nodes":[],"categories_segments":[],"categories_sizes":[],"default_left":[0,0,0,0,0,0,0,0,0,0,0,0,0,0,0],"id":76,"left_children":[1,3,5,7,9,11,13,-1,-1,-1,-1,-1,-1,-1,-1],"loss_changes":[2.5256114E0,2.6597424E0,2.4396868E0,2.2089717E0,3.4778728E0,9.395281E-1,2.442039E0,0E0,0E0,0E0,0E0,0E0,0E0,0E0,0E0],"parents":[2147483647,0,0,1,1,2,2,3,3,4,4,5,5,6,6],"right_children":[2,4,6,8,10,12,14,-1,-1,-1,-1,-1,-1,-1,-1],"split_conditions":[1.67742E-1,1.1110999E-2,4.167E-3,9.0909E-2,3.75E-1,8.66667E-1,5.8824E-2,5.6940764E-2,-3.6420207E-2,-4.4407833E-2,4.7411878E-2,-1.0409778E-2,7.082633E-2,-9.176475E-2,1.7164998E-2],"split_indices":[7207,6976,4185,4497,395,4219,1486,0,0,0,0,0,0,0,0],"split_type":[0,0,0,0,0,0,0,0,0,0,0,0,0,0,0],"sum_hessian":[4.6031944E1,3.2545986E1,1.3485956E1,1.6154795E1,1.6391191E1,4.496641E0,8.989315E0,1.3813669E1,2.3411255E0,1.1078121E1,5.3130713E0,3.204916E0,1.2917254E0,6.542628E0,2.446687E0],"tree_param":{"num_deleted":"0","num_feature":"8114","num_nodes":"15","size_leaf_vector":"1"}},{"base_weights":[-6.441151E-2,-1.4354803E-1,4.7338453E-1,2.9833657E-3,-5.933386E-1,7.374309E-1,-3.0438198E-2,2.2895059E-2,-3.8504828E-2,-8.160215E-2,1.4432691E-2,9.925386E-2,-1.2087189E-2],"categories":[],"categories_nodes":[],"categories_segments":[],"categories_sizes":[],"default_left":[0,0,0,0,0,0,0,0,0,0,0,0,0],"id":77,"left_children":[1,3,5,7,9,11,-1,-1,-1,-1,-1,-1,-1],"loss_changes":[2.054141E0,2.7336516E0,1.5016491E0,2.9167414E0,1.791677E0,1.2005403E0,0E0,0E0,0E0,0E0,0E0,0E0,0E0],"parents":[2147483647,0,0,1,1,2,2,3,3,4,4,5,5],"right_children":[2,4,6,8,10,12,-1,-1,-1,-1,-1,-1,-1],"split_conditions":[8.3333E-2,4.4444002E-2,3.0908998E-2,6.7227006E-2,2.27273E-1,2.0000002E-1,-3.0438198E-2,2.2895059E-2,-3.8504828E-2,-8.160215E-2,1.4432691E-2,9.925386E-2,-1.2087189E-2],"split_indices":[7190,6894,6999,7228,2614,5811,0,0,0,0,0,0,0],"split_type":[0,0,0,0,0,0,0,0,0,0,0,0,0],"sum_hessian":[4.5668716E1,4.0449646E1,5.219071E0,3.1259417E1,9.190228E0,3.9350197E0,1.2840512E0,2.0014244E1,1.1245172E1,6.977633E0,2.2125955E0,2.9128542E0,1.0221655E0],"tree_param":{"num_deleted":"0","num_feature":"8114","num_nodes":"13","size_leaf_vector":"1"}},{"base_weights":[-9.602533E-4,1.358692E-1,-3.7500215E-1,4.1585478E-1,-2.0809965E-1,-1.3124908E-2,-7.4391097E-1,5.610148E-2,-2.916198E-2,5.5357222E-3,-6.2700324E-2,2.9585792E-2,-5.2381165E-2,-1.5703548E-2,-9.266466E-2],"categories":[],"categories_nodes":[],"categories_segments":[],"categories_sizes":[],"default_left":[0,0,0,0,0,0,0,0,0,0,0,0,0,0,0],"id":78,"left_children":[1,3,5,7,9,11,13,-1,-1,-1,-1,-1,-1,-1,-1],"loss_changes":[2.4121304E0,3.410296E0,1.6753361E0,2.1517355E0,1.8174171E0,1.3210573E0,5.228834E-1,0E0,0E0,0E0,0E0,0E0,0E0,0E0,0E0],"parents":[2147483647,0,0,1,1,2,2,3,3,4,4,5,5,6,6],"right_children":[2,4,6,8,10,12,14,-1,-1,-1,-1,-1,-1,-1,-1],"split_conditions":[1.75E-1,2.6889998E-2,1.04167E-1,2.14286E-1,8.714005E-3,2.4243012E-2,1.45299E-1,5.610148E-2,-2.916198E-2,5.5357222E-3,-6.2700324E-2,2.9585792E-2,-5.2381165E-2,-1.5703548E-2,-9.266466E-2],"split_indices":[4273,6999,4185,6903,5799,7000,7207,0,0,0,0,0,0,0,0],"split_type":[0,0,0,0,0,0,0,0,0,0,0,0,0,0,0],"sum_hessian":[4.5134842E1,3.351234E1,1.1622501E1,1.8359217E1,1.5153123E1,6.3899374E0,5.2325644E0,1.5405356E1,2.9538605E0,9.835336E0,5.317787E0,4.243277E0,2.1466603E0,1.6838986E0,3.5486658E0],"tree_param":{"num_deleted":"0","num_feature":"8114","num_nodes":"15","size_leaf_vector":"1"}},{"base_weights":[2.2062216E-2,-6.0069818E-2,6.109327E-1,-1.1262166E-1,7.598642E-2,9.520628E-1,-2.5365083E-2,-1.4103041E-3,-7.3876806E-2,2.6083529E-2,1.200876E-1],"categories":[],"categories_nodes":[],"categories_segments":[],"categories_sizes":[],"default_left":[0,0,0,0,0,0,0,0,0,0,0],"id":79,"left_children":[1,3,5,7,-1,9,-1,-1,-1,-1,-1],"loss_changes":[2.3234112E0,1.9127021E0,1.9747417E0,2.5015E0,0E0,4.4770622E-1,0E0,0E0,0E0,0E0,0E0],"parents":[2147483647,0,0,1,1,2,2,3,3,5,5],"right_children":[2,4,6,8,-1,10,-1,-1,-1,-1,-1],"split_conditions":[6.66667E-1,7.6923E-2,2.19512E-1,6.25E-2,7.598642E-2,1.5625E-1,-2.5365083E-2,-1.4103041E-3,-7.3876806E-2,2.6083529E-2,1.200876E-1],"split_indices":[6788,1821,1592,7201,0,4192,0,0,0,0,0],"split_type":[0,0,0,0,0,0,0,0,0,0,0],"sum_hessian":[4.6280186E1,4.1403477E1,4.8767104E0,3.9720337E1,1.6831406E0,3.424399E0,1.4523116E0,3.5203846E1,4.516491E0,1.4485373E0,1.9758617E0],"tree_param":{"num_deleted":"0","num_feature":"8114","num_nodes":"11","size_leaf_vector":"1"}},{"base_weights":[-3.2562945E-2,-1.2442447E-1,5.906196E-1,9.811646E-2,-4.1801974E-1,8.916017E-1,-2.0518443E-2,-2.7094409E-2,3.432673E-2,7.0333937E-3,-6.567516E-2,1.0974423E-1,1.6046919E-2],"categories":[],"categories_nodes":[],"categories_segments":[],"categories_sizes":[],"default_left":[0,0,0,0,0,0,0,0,0,0,0,0,0],"id":80,"left_children":[1,3,5,7,9,11,-1,-1,-1,-1,-1,-1,-1],"loss_changes":[2.708307E0,2.7158399E0,1.6409032E0,2.2732224E0,2.1262658E0,5.1672554E-1,0E0,0E0,0E0,0E0,0E0,0E0,0E0],"parents":[2147483647,0,0,1,1,2,2,3,3,4,4,5,5],"right_children":[2,4,6,8,10,12,-1,-1,-1,-1,-1,-1,-1],"split_conditions":[6.66667E-1,4.5925997E-2,3.033001E-3,7.4074E-2,1.6666003E-2,2.2E-1,-2.0518443E-2,-2.7094409E-2,3.432673E-2,7.0333937E-3,-6.567516E-2,1.0974423E-1,1.6046919E-2],"split_indices":[6788,6896,6995,4169,7207,4296,0,0,0,0,0,0,0],"split_type":[0,0,0,0,0,0,0,0,0,0,0,0,0],"sum_hessian":[4.502586E1,3.9938923E1,5.0869403E0,2.309731E1,1.6841612E1,3.6036286E0,1.4833114E0,9.176859E0,1.392045E1,5.7613945E0,1.1080218E1,2.421009E0,1.1826197E0],"tree_param":{"num_deleted":"0","num_feature":"8114","num_nodes":"13","size_leaf_vector":"1"}},{"base_weights":[1.8581875E-2,1.2739044E-1,-4.3441123E-1,2.0575866E-1,-5.147718E-1,-8.04467E-1,2.4059735E-1,3.3066504E-2,-1.7146686E-2,6.448126E-3,-7.0774525E-2,-1.4790897E-2,-9.026252E-2,6.498649E-2,-3.7130248E-2],"categories":[],"categories_nodes":[],"categories_segments":[],"categories_sizes":[],"default_left":[0,0,0,0,0,0,0,0,0,0,0,0,0,0,0],"id":81,"left_children":[1,3,5,7,9,11,13,-1,-1,-1,-1,-1,-1,-1,-1],"loss_changes":[2.344748E0,2.0296175E0,2.4973073E0,1.695565E0,5.4229236E-1,2.6523685E-1,1.2519184E0,0E0,0E0,0E0,0E0,0E0,0E0,0E0,0E0],"parents":[2147483647,0,0,1,1,2,2,3,3,4,4,5,5,6,6],"right_children":[2,4,6,8,10,12,14,-1,-1,-1,-1,-1,-1,-1,-1],"split_conditions":[2.14286E-1,2.7499998E-1,1.25E-1,3.1327E-2,1.2802E-2,7.61905E-1,1.6670004E-3,3.3066504E-2,-1.7146686E-2,6.448126E-3,-7.0774525E-2,-1.4790897E-2,-9.026252E-2,6.498649E-2,-3.7130248E-2],"split_indices":[6903,6716,7102,6976,6999,3016,6889,0,0,0,0,0,0,0,0],"split_type":[0,0,0,0,0,0,0,0,0,0,0,0,0,0,0],"sum_hessian":[4.544816E1,3.722542E1,8.222735E0,3.3782284E1,3.4431384E0,5.1872005E0,3.0355349E0,2.5471596E1,8.310689E0,1.0268054E0,2.416333E0,1.0006844E0,4.1865163E0,1.7817628E0,1.253772E0],"tree_param":{"num_deleted":"0","num_feature":"8114","num_nodes":"15","size_leaf_vector":"1"}},{"base_weights":[9.024696E-2,-4.3009833E-1,1.8926851E-1,4.4724032E-2,-6.4311755E-1,2.973166E-1,-2.3638433E-1,-1.2677948E-2,-8.8593856E-2,3.9971154E-2,-1.7226843E-2,5.298115E-2,-5.2185215E-2],"categories":[],"categories_nodes":[],"categories_segments":[],"categories_sizes":[],"default_left":[0,0,0,0,0,0,0,0,0,0,0,0,0],"id":82,"left_children":[1,3,5,-1,7,9,11,-1,-1,-1,-1,-1,-1],"loss_changes":[2.42145E0,1.7017105E0,1.856984E0,0E0,7.0242906E-1,1.5799615E0,2.1185982E0,0E0,0E0,0E0,0E0,0E0,0E0],"parents":[2147483647,0,0,1,1,2,2,4,4,5,5,6,6],"right_children":[2,4,6,-1,8,10,12,-1,-1,-1,-1,-1,-1],"split_conditions":[6.25E-2,5.4939985E-3,6.7104995E-2,4.4724032E-2,2.7778E-2,5E-2,4.6154E-2,-1.2677948E-2,-8.8593856E-2,3.9971154E-2,-1.7226843E-2,5.298115E-2,-5.2185215E-2],"split_indices":[1495,5720,5596,0,5700,6917,4273,0,0,0,0,0,0],"split_type":[0,0,0,0,0,0,0,0,0,0,0,0,0],"sum_hessian":[4.4415382E1,6.5663886E0,3.784899E1,1.0680401E0,5.498348E0,3.0426905E1,7.422087E0,2.2455304E0,3.2528179E0,2.510209E1,5.3248143E0,1.782341E0,5.639746E0],"tree_param":{"num_deleted":"0","num_feature":"8114","num_nodes":"13","size_leaf_vector":"1"}},{"base_weights":[1.3307389E-2,-8.078283E-2,5.113016E-1,-1.7647395E-1,5.132647E-1,8.238185E-1,-3.4835216E-2,-2.5105486E-2,4.1033834E-2,8.109956E-2,-4.0677194E-2,2.2982689E-2,9.145324E-2],"categories":[],"categories_nodes":[],"categories_segments":[],"categories_sizes":[],"default_left":[0,0,0,0,0,0,0,0,0,0,0,0,0],"id":83,"left_children":[1,3,5,7,9,11,-1,-1,-1,-1,-1,-1,-1],"loss_changes":[2.0901961E0,2.2303283E0,2.1904788E0,1.5544266E0,