{"learner":{"attributes":{"scikit_learn":"{\"_estimator_type\": \"classifier\"}"},"feature_names":[],"feature_types":[],"gradient_booster":{"model":{"gbtree_model_param":{"num_parallel_tree":"1","num_trees":"200"},"iteration_indptr":[0,1,2,3,4,5,6,7,8,9,10,11,12,13,14,15,16,17,18,19,20,21,22,23,24,25,26,27,28,29,30,31,32,33,34,35,36,37,38,39,40,41,42,43,44,45,46,47,48,49,50,51,52,53,54,55,56,57,58,59,60,61,62,63,64,65,66,67,68,69,70,71,72,73,74,75,76,77,78,79,80,81,82,83,84,85,86,87,88,89,90,91,92,93,94,95,96,97,98,99,100,101,102,103,104,105,106,107,108,109,110,111,112,113,114,115,116,117,118,119,120,121,122,123,124,125,126,127,128,129,130,131,132,133,134,135,136,137,138,139,140,141,142,143,144,145,146,147,148,149,150,151,152,153,154,155,156,157,158,159,160,161,162,163,164,165,166,167,168,169,170,171,172,173,174,175,176,177,178,179,180,181,182,183,184,185,186,187,188,189,190,191,192,193,194,195,196,197,198,199,200],"tree_info":[0,0,0,0,0,0,0,0,0,0,0,0,0,0,0,0,0,0,0,0,0,0,0,0,0,0,0,0,0,0,0,0,0,0,0,0,0,0,0,0,0,0,0,0,0,0,0,0,0,0,0,0,0,0,0,0,0,0,0,0,0,0,0,0,0,0,0,0,0,0,0,0,0,0,0,0,0,0,0,0,0,0,0,0,0,0,0,0,0,0,0,0,0,0,0,0,0,0,0,0,0,0,0,0,0,0,0,0,0,0,0,0,0,0,0,0,0,0,0,0,0,0,0,0,0,0,0,0,0,0,0,0,0,0,0,0,0,0,0,0,0,0,0,0,0,0,0,0,0,0,0,0,0,0,0,0,0,0,0,0,0,0,0,0,0,0,0,0,0,0,0,0,0,0,0,0,0,0,0,0,0,0,0,0,0,0,0,0,0,0,0,0,0,0,0,0,0,0,0,0],"trees":[{"base_weights":[-1.5531596E-3,-5.404092E-1,1.859702E0,-7.301367E-1,2.5451684E-1,1.4704579E0,1.7424884E-1,-8.216696E-1,1.4881709E-1,9.5881164E-2,1.5423658E0,1.3041217E0,2.1524212E0,-4.8635197E-1,-9.6213436E-1,-7.47076E-1,5.14057E-1,1.6320284E-1,3.3247937E-2,1.6573311E0,-7.159378E-2,1.3626485E0,-3.8758612E-1,2.1928246E0,1.4323129E-2,-1.2866873E0,-2.617922E-1,-9.011228E-1,-1.3620881E0,-1.21320724E-1,-5.291968E-1,1.9732882E-1,1.6783726E-1,-9.773975E-3,1.5774282E0,1.7216733E0,-2.7772034E-2,1.0745549E0,1.6472244E0,1.0257294E0,-1.0670519E-1,2.2240057E0,2.7475607E-2,-1.595857E0,2.766467E-1,-1.7728339E-1,-1.2579991E0,-9.292978E-1,2.794963E-1,-1.3870692E0,4.9466285E-1,-6.071233E-1,1.03965044E-1,3.1742498E-1,-9.556057E-1,8.210819E-2,-7.8474414E-1,1.8234541E0,-3.865186E-2,1.777255E0,-3.865186E-2,1.8981056E0,8.466191E-1,1.6936284E0,-5.219283E-1,1.3525558E-1,-3.6351606E-2,2.256211E0,3.96605E-2,-1.6195351E0,2.8762829E-2,1.1871495E0,-1.1613566E-1,8.655421E-1,-2.687972E-1,-1.3404279E0,2.7475607E-2,-1.2892061E-1,-8.9602125E-1,-3.4334582E-1,1.4337274E0,-1.4084952E0,3.96605E-2,9.617752E-2,-3.865186E-2,-6.8860763E-1,7.8451216E-1,2.1566187E-1,1.7950454E0,-1.2020509E0,6.2470175E-2,1.1932864E-1,-1.1562606E0,-9.251663E-1,1.0557976E0,1.5257233E-1,-4.944517E-3,1.8352115E0,-3.865186E-2,1.9871843E0,-3.865186E-2,6.446507E-1,1.6438949E0,1.7411307E0,-3.7995222E-1,-8.3019674E-2,1.4323129E-2,1.7089128E-1,2.8762829E-2,-1.2326101E-1,1.2873444E-2,-1.0598131E-1,1.6099769E-1,1.2497794E-1,-7.755042E-4,-6.572171E-2,-4.290116E-3,-1.07131846E-1,1.4323129E-2,9.739732E-2,-7.117264E-2,-4.284455E-2,1.1034707E-1,1.4563797E-1,-2.894388E-3,-1.0724599E-1,2.6581986E-2,-5.6799814E-2,7.360118E-2,9.617752E-2,-4.944517E-3,-7.3373495E-3,4.695634E-2,2.8762829E-2,1.4929755E-1,-3.3378888E-2,-1.1521123E-1,1.2704116E-2,-6.2780015E-2,-1.0117017E-1,2.8762829E-2,-8.221766E-2,6.296496E-2,1.156726E-1,-4.944517E-3,1.4084107E-1,-4.944517E-3,1.5416662E-1,-4.944517E-3,5.3713836E-2,-8.947066E-2,1.3623826E-1,-5.5395856E-2,1.3306029E-1,-6.168898E-2,1.5361016E-2,-7.8218155E-2],"categories":[],"categories_nodes":[],"categories_segments":[],"categories_sizes":[],"default_left":[0,0,0,0,0,0,0,0,0,0,0,0,0,0,0,0,0,0,0,0,0,0,0,0,0,0,0,0,0,0,0,0,0,0,0,0,0,0,0,0,0,0,0,0,0,0,0,0,0,0,0,0,0,0,0,0,0,0,0,0,0,0,0,0,0,0,0,0,0,0,0,0,0,0,0,0,0,0,0,0,0,0,0,0,0,0,0,0,0,0,0,0,0,0,0,0,0,0,0,0,0,0,0,0,0,0,0,0,0,0,0,0,0,0,0,0,0,0,0,0,0,0,0,0,0,0,0,0,0,0,0,0,0,0,0,0,0,0,0,0,0,0,0,0,0,0,0,0,0,0,0,0,0,0,0,0,0],"id":0,"left_children":[1,3,5,7,9,11,-1,13,15,17,19,21,23,25,27,29,31,-1,33,35,-1,37,39,41,-1,43,45,47,49,-1,51,53,-1,55,57,59,-1,61,63,65,-1,67,-1,69,71,73,75,77,79,81,83,85,-1,87,89,91,93,95,-1,97,-1,99,101,103,105,-1,-1,107,-1,109,-1,111,-1,113,115,117,-1,-1,119,121,123,125,-1,-1,-1,127,129,131,133,135,-1,137,139,141,143,-1,-1,145,-1,147,-1,149,151,153,155,-1,-1,-1,-1,-1,-1,-1,-1,-1,-1,-1,-1,-1,-1,-1,-1,-1,-1,-1,-1,-1,-1,-1,-1,-1,-1,-1,-1,-1,-1,-1,-1,-1,-1,-1,-1,-1,-1,-1,-1,-1,-1,-1,-1,-1,-1,-1,-1,-1,-1,-1,-1],"loss_changes":[3.914018E3,4.566172E2,1.5469629E2,1.9670764E2,1.1913634E2,5.152942E1,0E0,1.0377283E2,7.607119E1,6.77947E1,1.9944504E1,3.8906555E1,6.9028625E0,1.1745607E2,3.680896E1,1.1927208E1,8.959369E1,0E0,3.3676933E1,8.663101E0,0E0,2.8964417E1,2.156139E1,4.3352966E0,0E0,6.972719E1,4.2970974E1,4.534558E1,1.01649475E1,0E0,9.109348E0,1.9744774E1,0E0,3.5236877E1,8.014362E0,8.3515625E0,0E0,3.390251E1,1.9678223E1,8.380083E0,0E0,3.6500854E0,0E0,6.237091E0,4.258618E1,4.547818E1,5.8408775E0,3.3250977E1,2.3756622E1,9.032928E0,3.4057448E0,6.654728E0,0E0,1.8846882E1,6.9496756E0,2.0534082E1,1.4533016E1,5.119766E0,0E0,8.728958E0,0E0,9.66687E0,2.3088158E1,1.8690979E1,2.1611428E0,0E0,0E0,2.7554016E0,0E0,5.368988E0,0E0,4.526048E1,0E0,2.7012615E1,5.607448E1,5.4260864E0,0E0,0E0,1.4910791E2,9.867191E0,8.704531E0,8.068085E0,0E0,0E0,0E0,6.6503105E0,1.5452845E0,1.5605023E1,1.4742794E0,2.4196491E0,0E0,2.075258E1,4.3756676E0,1.5793129E1,2.38558E0,0E0,0E0,4.7761993E0,0E0,5.6066895E0,0E0,1.679903E1,1.3541962E1,1.6615784E1,2.1210017E0,0E0,0E0,0E0,0E0,0E0,0E0,0E0,0E0,0E0,0E0,0E0,0E0,0E0,0E0,0E0,0E0,0E0,0E0,0E0,0E0,0E0,0E0,0E0,0E0,0E0,0E0,0E0,0E0,0E0,0E0,0E0,0E0,0E0,0E0,0E0,0E0,0E0,0E0,0E0,0E0,0E0,0E0,0E0,0E0,0E0,0E0,0E0,0E0,0E0,0E0,0E0,0E0],"parents":[2147483647,0,0,1,1,2,2,3,3,4,4,5,5,7,7,8,8,9,9,10,10,11,11,12,12,13,13,14,14,15,15,16,16,18,18,19,19,21,21,22,22,23,23,25,25,26,26,27,27,28,28,30,30,31,31,33,33,34,34,35,35,37,37,38,38,39,39,41,41,43,43,44,44,45,45,46,46,47,47,48,48,49,49,50,50,51,51,53,53,54,54,55,55,56,56,57,57,59,59,61,61,62,62,63,63,64,64,67,67,69,69,71,71,73,73,74,74,75,75,78,78,79,79,80,80,81,81,85,85,86,86,87,87,88,88,89,89,91,91,92,92,93,93,94,94,97,97,99,99,101,101,102,102,103,103,104,104],"right_children":[2,4,6,8,10,12,-1,14,16,18,20,22,24,26,28,30,32,-1,34,36,-1,38,40,42,-1,44,46,48,50,-1,52,54,-1,56,58,60,-1,62,64,66,-1,68,-1,70,72,74,76,78,80,82,84,86,-1,88,90,92,94,96,-1,98,-1,100,102,104,106,-1,-1,108,-1,110,-1,112,-1,114,116,118,-1,-1,120,122,124,126,-1,-1,-1,128,130,132,134,136,-1,138,140,142,144,-1,-1,146,-1,148,-1,150,152,154,156,-1,-1,-1,-1,-1,-1,-1,-1,-1,-1,-1,-1,-1,-1,-1,-1,-1,-1,-1,-1,-1,-1,-1,-1,-1,-1,-1,-1,-1,-1,-1,-1,-1,-1,-1,-1,-1,-1,-1,-1,-1,-1,-1,-1,-1,-1,-1,-1,-1,-1,-1,-1],"split_conditions":[9.375E-1,9.0625E-1,1E0,9.6875E-1,9.84375E-1,9.84375E-1,1.7424884E-1,8.4375E-1,8.59375E-1,8.125E-1,5.5556E-2,1.7142904E-1,1.0989E-2,7.03125E-1,1.2077998E-2,8.28125E-1,1E0,1.6320284E-1,3.02326E-1,3.8800016E-4,-7.159378E-2,9.53125E-1,6.4660013E-3,1.11111E-1,1.4323129E-2,8.28125E-1,2.8599985E-4,3.21429E-1,2.27273E-1,-1.21320724E-1,5.128E-3,1.6675E-2,1.6783726E-1,2.857098E-2,6.038999E-3,9.804E-3,-2.7772034E-2,8.75E-1,4.751E-3,5.7692E-2,-1.0670519E-1,1.9949E-2,2.7475607E-2,1.6666701E-1,6.71875E-1,7.1875E-1,6.8182E-2,6.71875E-1,1.81818E-1,4.11765E-1,6.7164E-2,9.091E-3,1.03965044E-1,7.61905E-1,2.25E-1,6.3636005E-2,4.10714E-1,2.52874E-1,-3.865186E-2,6.6728994E-2,-3.865186E-2,1.8940009E-3,9.6875E-1,1.85185E-1,9.53125E-1,1.3525558E-1,-3.6351606E-2,6.6667E-2,3.96605E-2,7.519E-3,2.8762829E-2,4.53125E-1,-1.1613566E-1,7.65625E-1,7.8125E-1,2.14286E-1,2.7475607E-2,-1.2892061E-1,7.1875E-1,9.53125E-1,1.45299E-1,2.2222E-2,3.96605E-2,9.617752E-2,-3.865186E-2,1.75E-1,1.5385E-2,8.90625E-1,1.17647E-1,4.149992E-4,6.2470175E-2,1.4311001E-2,7.812E-3,8.299947E-5,8.499E-3,1.5257233E-1,-4.944517E-3,8.772E-3,-3.865186E-2,1.1364E-2,-3.865186E-2,1E-2,1.5625E-2,4.7794E-2,6.3636E-2,-8.3019674E-2,1.4323129E-2,1.7089128E-1,2.8762829E-2,-1.2326101E-1,1.2873444E-2,-1.0598131E-1,1.6099769E-1,1.2497794E-1,-7.755042E-4,-6.572171E-2,-4.290116E-3,-1.07131846E-1,1.4323129E-2,9.739732E-2,-7.117264E-2,-4.284455E-2,1.1034707E-1,1.4563797E-1,-2.894388E-3,-1.0724599E-1,2.6581986E-2,-5.6799814E-2,7.360118E-2,9.617752E-2,-4.944517E-3,-7.3373495E-3,4.695634E-2,2.8762829E-2,1.4929755E-1,-3.3378888E-2,-1.1521123E-1,1.2704116E-2,-6.2780015E-2,-1.0117017E-1,2.8762829E-2,-8.221766E-2,6.296496E-2,1.156726E-1,-4.944517E-3,1.4084107E-1,-4.944517E-3,1.5416662E-1,-4.944517E-3,5.3713836E-2,-8.947066E-2,1.3623826E-1,-5.5395856E-2,1.3306029E-1,-6.168898E-2,1.5361016E-2,-7.8218155E-2],"split_indices":[0,0,1,1,1,0,0,1,0,1,8042,5803,444,0,8040,0,1,0,1694,6983,0,1,6889,267,0,1,6887,2614,4505,0,1263,6973,0,5752,6889,651,0,1,2576,1569,0,6999,0,7025,0,1,1680,0,4199,2110,1467,186,0,240,4165,6376,4296,1956,0,5752,0,7220,0,5336,0,0,0,505,0,4336,0,0,0,0,0,4407,0,0,0,1,7207,2740,0,0,0,4199,1592,0,4400,6999,0,7013,2273,6912,109,0,0,2642,0,2424,0,2992,1597,7548,32,0,0,0,0,0,0,0,0,0,0,0,0,0,0,0,0,0,0,0,0,0,0,0,0,0,0,0,0,0,0,0,0,0,0,0,0,0,0,0,0,0,0,0,0,0,0,0,0,0,0,0,0],"split_type":[0,0,0,0,0,0,0,0,0,0,0,0,0,0,0,0,0,0,0,0,0,0,0,0,0,0,0,0,0,0,0,0,0,0,0,0,0,0,0,0,0,0,0,0,0,0,0,0,0,0,0,0,0,0,0,0,0,0,0,0,0,0,0,0,0,0,0,0,0,0,0,0,0,0,0,0,0,0,0,0,0,0,0,0,0,0,0,0,0,0,0,0,0,0,0,0,0,0,0,0,0,0,0,0,0,0,0,0,0,0,0,0,0,0,0,0,0,0,0,0,0,0,0,0,0,0,0,0,0,0,0,0,0,0,0,0,0,0,0,0,0,0,0,0,0,0,0,0,0,0,0,0,0,0,0,0,0],"sum_hessian":[3.9005095E3,3.025345E3,8.7516455E2,2.4424736E3,5.8287134E2,4.7800842E2,3.9715613E2,2.212167E3,2.3030646E2,5.199046E2,6.2966766E1,3.8662085E2,9.1387566E1,6.544134E2,1.5577537E3,6.6396866E1,1.6390959E2,1.4210399E1,5.0569418E2,6.0516697E1,2.4500687E0,3.738805E2,1.2740357E1,8.9427505E1,1.960055E0,1.42349E2,5.120644E2,1.354398E3,2.0335571E2,1.2005337E1,5.4391525E1,1.394089E2,2.4500687E1,4.9295383E2,1.2740357E1,5.880165E1,1.7150481E0,1.8816528E2,1.8571521E2,5.390151E0,7.3502064E0,8.771246E1,1.7150481E0,1.1882833E2,2.352066E1,4.7310828E2,3.8956093E1,1.3230371E3,3.136088E1,2.0090564E2,2.4500687E0,5.2921486E1,1.4700413E0,1.2691356E2,1.2495351E1,4.4150238E2,5.1451443E1,1.1515323E1,1.2250344E0,5.7576614E1,1.2250344E0,3.92011E1,1.4896417E2,1.820401E2,3.6751032E0,3.4300961E0,1.960055E0,8.57524E1,1.960055E0,1.176033E2,1.2250344E0,1.59254465E1,7.595213E0,3.7486053E1,4.3562222E2,3.7241043E1,1.7150481E0,5.1451443E1,1.2715857E3,2.0825584E1,1.05352955E1,1.9894559E2,1.960055E0,1.2250344E0,1.2250344E0,5.0471416E1,2.4500687E0,1.19808365E2,7.1051993E0,1.1270316E1,1.2250344E0,4.2949704E2,1.2005337E1,4.8266354E1,3.1850893E0,1.0290289E1,1.2250344E0,5.635158E1,1.2250344E0,3.7976067E1,1.2250344E0,1.2029838E2,2.8665804E1,1.7812E2,3.92011E0,1.7150481E0,1.960055E0,8.4527374E1,1.2250344E0,1.16133255E2,1.4700413E0,4.165117E0,1.176033E1,1.9110537E1,1.8375515E1,1.1172314E2,3.2389908E2,3.528099E1,1.960055E0,2.9400826E1,1.2421848E3,1.9110537E1,1.7150481E0,7.595213E0,2.9400826E0,1.9674052E2,2.205062E0,4.9001373E1,1.4700413E0,1.2250344E0,1.2250344E0,6.835692E1,5.1451443E1,1.2250344E0,5.880165E0,4.165117E0,7.1051993E0,4.0891647E2,2.0580578E1,1.0780302E1,1.2250344E0,4.4346245E1,3.92011E0,1.960055E0,1.2250344E0,5.5126545E1,1.2250344E0,3.675103E1,1.2250344E0,1.16378265E2,3.92011E0,2.6950756E1,1.7150481E0,1.7615994E2,1.960055E0,2.4500687E0,1.4700413E0],"tree_param":{"num_deleted":"0","num_feature":"8114","num_nodes":"157","size_leaf_vector":"1"}},{"base_weights":[3.1234913E-3,-4.985965E-1,1.6976545E0,-6.853926E-1,2.6721233E-1,1.3452526E0,1.5835845E-1,-7.735428E-1,1.6069092E-1,1.2716505E-1,1.3872807E0,1.1290699E0,1.7393991E0,-4.7563577E-1,-9.000742E-1,-7.3123676E-1,5.247274E-1,1.5101528E-1,5.8774862E-2,1.4785851E0,-6.503303E-2,7.58929E-1,1.4741807E0,1.769782E0,-7.825559E-2,-1.207226E0,-2.6799175E-1,-9.246133E-1,6.2134195E-2,-7.9773754E-1,9.8584086E-2,2.578921E-1,1.5276231E-1,1.3459016E-1,-6.855334E-1,1.5395787E0,-4.8858732E-2,1.5482475E-1,4.9586728E-1,1.5460695E0,-6.801917E-1,1.8009889E0,-5.8975402E-2,-1.5145136E0,3.4669837E-1,-4.903525E-1,8.947386E-2,-5.3571945E-1,-9.746275E-1,-5.29363E-1,1.3589385E0,-1.143873E-1,-6.263549E-1,3.703643E-1,-1.0418755E0,6.573283E-2,9.265601E-1,-2.2777085E-1,-1.4028069E0,1.591719E0,-4.2524893E-2,6.1780894E-1,-8.139274E-1,1.5829263E0,-6.703598E-2,-8.875181E-2,3.693081E-2,1.8322146E0,-2.6058221E-2,-1.5373551E0,3.044299E-2,1.2141551E0,-1.1041302E-1,-8.510471E-1,-9.5791504E-2,1.3055176E0,-3.1683284E-1,-1.22414425E-1,-2.4397232E-2,-1.0877956E0,-7.287719E-1,-7.6271474E-1,1.2049761E0,1.5978086E0,-1.953308E-2,-7.319793E-1,5.3118515E-1,5.7758197E-2,7.698047E-1,6.8354025E-2,-1.0441291E-1,1.0170804E-1,-1.1880561E0,1.6534348E0,-2.0134097E-1,1.4343406E-1,-1.0951626E-1,4.7063627E-3,-1.2052565E-1,1.6432017E0,-3.8092203E-2,7.184787E-1,-6.4071894E-1,-2.7387732E-1,-1.03729755E-1,1.6191388E0,-6.245962E-2,1.8586658E0,-3.1320225E-2,-1.1705094E-1,4.773781E-3,-9.847742E-2,1.4819582E-1,4.2627215E-2,-7.90006E-2,1.10020734E-1,-2.37318E-2,-1.1658526E-1,1.4232704E-1,5.4599043E-2,-5.07879E-2,8.946122E-2,-3.5493016E-2,-7.784658E-2,-1.11626975E-1,-6.2525764E-2,-1.3296702E-2,-8.021908E-2,6.4455154E-3,1.0751437E-1,3.0635726E-2,1.3543569E-1,-3.7705007E-3,-5.916984E-2,6.5120265E-2,8.6100996E-2,-4.5916837E-2,-3.421716E-3,1.077654E-1,6.5462075E-2,-6.2275298E-2,-4.7927823E-2,6.16809E-2,-2.1968295E-3,3.446515E-2,-1.05163015E-1,2.886756E-2,1.3518915E-1,-3.9139047E-2,5.086214E-2,-1.000327E-1,-3.186813E-2,1.02196485E-1,1.2627666E-1,-1.0719603E-2,6.0067866E-2,-7.132177E-2,-8.879936E-2,1.0114318E-1,4.0055864E-2,-7.996152E-2,1.2356182E-1,-7.727858E-2,1.4177857E-1,-3.511126E-4],"categories":[],"categories_nodes":[],"categories_segments":[],"categories_sizes":[],"default_left":[0,0,0,0,0,0,0,0,0,0,0,0,0,0,0,0,0,0,0,0,0,0,0,0,0,0,0,0,0,0,0,0,0,0,0,0,0,0,0,0,0,0,0,0,0,0,0,0,0,0,0,0,0,0,0,0,0,0,0,0,0,0,0,0,0,0,0,0,0,0,0,0,0,0,0,0,0,0,0,0,0,0,0,0,0,0,0,0,0,0,0,0,0,0,0,0,0,0,0,0,0,0,0,0,0,0,0,0,0,0,0,0,0,0,0,0,0,0,0,0,0,0,0,0,0,0,0,0,0,0,0,0,0,0,0,0,0,0,0,0,0,0,0,0,0,0,0,0,0,0,0,0,0,0,0,0,0,0,0,0,0,0,0,0,0],"id":1,"left_children":[1,3,5,7,9,11,-1,13,15,17,19,21,23,25,27,29,31,-1,33,35,-1,37,39,41,-1,43,45,47,49,51,-1,53,-1,55,57,59,-1,-1,61,63,65,67,-1,69,71,73,75,77,79,81,83,-1,85,87,89,91,93,95,97,99,-1,101,103,105,-1,-1,-1,107,-1,109,-1,111,-1,113,115,117,119,-1,121,123,125,127,129,131,-1,133,135,137,139,141,-1,143,145,147,149,151,-1,-1,-1,153,-1,155,157,159,-1,161,-1,163,-1,-1,-1,-1,-1,-1,-1,-1,-1,-1,-1,-1,-1,-1,-1,-1,-1,-1,-1,-1,-1,-1,-1,-1,-1,-1,-1,-1,-1,-1,-1,-1,-1,-1,-1,-1,-1,-1,-1,-1,-1,-1,-1,-1,-1,-1,-1,-1,-1,-1,-1,-1,-1,-1,-1,-1,-1],"loss_changes":[3.3257312E3,4.3193353E2,1.2746875E2,1.8110742E2,9.2772964E1,3.939319E1,0E0,8.241821E1,7.499627E1,6.797259E1,1.4816689E1,3.9284943E1,1.6226013E1,9.95311E1,3.6454956E1,1.0166344E1,6.555338E1,0E0,2.8892015E1,9.261185E0,0E0,5.2092087E1,2.6237762E1,1.4865662E1,0E0,6.9779526E1,4.084349E1,2.8716187E1,3.084337E1,7.214802E0,0E0,2.0903416E1,0E0,2.5243404E1,1.5225443E1,7.7226105E0,0E0,0E0,2.127417E1,1.5594025E1,4.090768E0,1.1831604E1,0E0,5.9437866E0,4.0852184E1,4.4975822E1,9.808985E1,9.7241974E1,3.623169E1,1.2125557E1,5.2831535E0,0E0,7.081032E0,1.6177172E1,4.544256E0,1.9424942E1,3.0700188E1,1.3977083E1,5.5625343E0,7.4126434E0,0E0,1.5605747E1,3.158297E0,1.4968201E1,0E0,0E0,0E0,1.057428E1,0E0,4.58255E0,0E0,3.5923325E1,0E0,4.8054535E1,5.298561E1,8.7132034E1,5.6584236E1,0E0,6.576895E1,1.6607544E1,2.4294357E1,6.607522E0,8.2784176E-2,3.8975525E0,0E0,5.294653E0,4.33959E0,1.0610034E1,1.0113506E1,2.4975753E0,0E0,1.9558577E1,4.586792E0,8.280727E0,1.6249815E1,1.7235588E1,0E0,0E0,0E0,4.553177E0,0E0,1.6057701E1,1.1736667E1,5.1474137E0,0E0,1.3245697E1,0E0,9.636475E0,0E0,0E0,0E0,0E0,0E0,0E0,0E0,0E0,0E0,0E0,0E0,0E0,0E0,0E0,0E0,0E0,0E0,0E0,0E0,0E0,0E0,0E0,0E0,0E0,0E0,0E0,0E0,0E0,0E0,0E0,0E0,0E0,0E0,0E0,0E0,0E0,0E0,0E0,0E0,0E0,0E0,0E0,0E0,0E0,0E0,0E0,0E0,0E0,0E0,0E0,0E0,0E0,0E0,0E0,0E0,0E0,0E0],"parents":[2147483647,0,0,1,1,2,2,3,3,4,4,5,5,7,7,8,8,9,9,10,10,11,11,12,12,13,13,14,14,15,15,16,16,18,18,19,19,21,21,22,22,23,23,25,25,26,26,27,27,28,28,29,29,31,31,33,33,34,34,35,35,38,38,39,39,40,40,41,41,43,43,44,44,45,45,46,46,47,47,48,48,49,49,50,50,52,52,53,53,54,54,55,55,56,56,57,57,58,58,59,59,61,61,62,62,63,63,67,67,69,69,71,71,73,73,74,74,75,75,76,76,78,78,79,79,80,80,81,81,82,82,83,83,85,85,86,86,87,87,88,88,89,89,91,91,92,92,93,93,94,94,95,95,99,99,101,101,102,102,103,103,105,105,107,107],"right_children":[2,4,6,8,10,12,-1,14,16,18,20,22,24,26,28,30,32,-1,34,36,-1,38,40,42,-1,44,46,48,50,52,-1,54,-1,56,58,60,-1,-1,62,64,66,68,-1,70,72,74,76,78,80,82,84,-1,86,88,90,92,94,96,98,100,-1,102,104,106,-1,-1,-1,108,-1,110,-1,112,-1,114,116,118,120,-1,122,124,126,128,130,132,-1,134,136,138,140,142,-1,144,146,148,150,152,-1,-1,-1,154,-1,156,158,160,-1,162,-1,164,-1,-1,-1,-1,-1,-1,-1,-1,-1,-1,-1,-1,-1,-1,-1,-1,-1,-1,-1,-1,-1,-1,-1,-1,-1,-1,-1,-1,-1,-1,-1,-1,-1,-1,-1,-1,-1,-1,-1,-1,-1,-1,-1,-1,-1,-1,-1,-1,-1,-1,-1,-1,-1,-1,-1,-1,-1],"split_conditions":[9.375E-1,9.0625E-1,1E0,9.6875E-1,9.84375E-1,9.6875E-1,1.5835845E-1,8.4375E-1,8.59375E-1,8.125E-1,2.558E-3,9.53125E-1,8.3332986E-2,7.03125E-1,3.33333E-1,5.128E-3,1E0,1.5101528E-1,3.9216E-2,1.143992E-3,-6.503303E-2,8.75E-1,5.4945007E-2,1.7857E-2,-7.825559E-2,8.28125E-1,8.4375E-1,7.8125E-1,2.90323E-1,8.28125E-1,9.8584086E-2,4.9707003E-2,1.5276231E-1,8.065E-3,1.6739001E-2,4.751E-3,-4.8858732E-2,1.5482475E-1,3.215E-3,1.9231E-2,1.8182E-2,1.8868E-2,-5.8975402E-2,3.5714E-2,6.71875E-1,7.8125E-1,7.8125E-1,6.71875E-1,8.75E-1,2.041E-3,1.6666701E-1,-1.143873E-1,1.6393E-2,8.90625E-1,6.0241E-2,2.4999999E-2,2.3077004E-2,6.6985995E-2,1.2518E-2,1.049E-2,-4.2524893E-2,2.2727E-2,1.8850043E-3,2.9589001E-2,-6.703598E-2,-8.875181E-2,3.693081E-2,1.7105299E-1,-2.6058221E-2,1.71429E-1,3.044299E-2,4.53125E-1,-1.1041302E-1,7.03125E-1,7.96875E-1,8.59375E-1,8.59375E-1,-1.22414425E-1,7.1875E-1,1.2467012E-2,9.53125E-1,8.75E-1,2.63158E-1,1.875E-1,-1.953308E-2,2.686E-3,1.9490123E-3,5.6075E-2,1.6121E-2,7.812E-3,-1.0441291E-1,9.53125E-1,9.420301E-2,2.725E-3,3.636402E-2,9.2308E-2,-1.0951626E-1,4.7063627E-3,-1.2052565E-1,4.329E-3,-3.8092203E-2,8.621E-3,2.7027E-2,2.457E-3,-1.03729755E-1,4.394993E-3,-6.245962E-2,2.1821003E-2,-3.1320225E-2,-1.1705094E-1,4.773781E-3,-9.847742E-2,1.4819582E-1,4.2627215E-2,-7.90006E-2,1.10020734E-1,-2.37318E-2,-1.1658526E-1,1.4232704E-1,5.4599043E-2,-5.07879E-2,8.946122E-2,-3.5493016E-2,-7.784658E-2,-1.11626975E-1,-6.2525764E-2,-1.3296702E-2,-8.021908E-2,6.4455154E-3,1.0751437E-1,3.0635726E-2,1.3543569E-1,-3.7705007E-3,-5.916984E-2,6.5120265E-2,8.6100996E-2,-4.5916837E-2,-3.421716E-3,1.077654E-1,6.5462075E-2,-6.2275298E-2,-4.7927823E-2,6.16809E-2,-2.1968295E-3,3.446515E-2,-1.05163015E-1,2.886756E-2,1.3518915E-1,-3.9139047E-2,5.086214E-2,-1.000327E-1,-3.186813E-2,1.02196485E-1,1.2627666E-1,-1.0719603E-2,6.0067866E-2,-7.132177E-2,-8.879936E-2,1.0114318E-1,4.0055864E-2,-7.996152E-2,1.2356182E-1,-7.727858E-2,1.4177857E-1,-3.511126E-4],"split_indices":[0,0,1,1,1,0,0,1,0,1,7005,1,5661,0,5318,1263,1,0,6873,5956,0,1,6872,7909,0,1,0,0,1590,0,0,6872,0,4342,8016,5187,0,0,6891,405,4301,5287,0,2564,0,1,1,0,0,1475,6917,0,1703,0,4168,6884,5803,7228,6977,7368,0,8047,5803,6612,0,0,0,7208,0,3299,0,0,0,1,1,0,0,0,0,5596,1,0,1399,4192,0,63,7103,1591,5492,4168,0,1,7093,4186,5754,1590,0,0,0,2780,0,7468,1495,1691,0,6758,0,8091,0,0,0,0,0,0,0,0,0,0,0,0,0,0,0,0,0,0,0,0,0,0,0,0,0,0,0,0,0,0,0,0,0,0,0,0,0,0,0,0,0,0,0,0,0,0,0,0,0,0,0,0,0,0,0,0,0],"split_type":[0,0,0,0,0,0,0,0,0,0,0,0,0,0,0,0,0,0,0,0,0,0,0,0,0,0,0,0,0,0,0,0,0,0,0,0,0,0,0,0,0,0,0,0,0,0,0,0,0,0,0,0,0,0,0,0,0,0,0,0,0,0,0,0,0,0,0,0,0,0,0,0,0,0,0,0,0,0,0,0,0,0,0,0,0,0,0,0,0,0,0,0,0,0,0,0,0,0,0,0,0,0,0,0,0,0,0,0,0,0,0,0,0,0,0,0,0,0,0,0,0,0,0,0,0,0,0,0,0,0,0,0,0,0,0,0,0,0,0,0,0,0,0,0,0,0,0,0,0,0,0,0,0,0,0,0,0,0,0,0,0,0,0,0,0],"sum_hessian":[3.9098008E3,3.0171753E3,8.926253E2,2.4256223E3,5.9155304E2,4.843684E2,4.0825693E2,2.196829E3,2.2879333E2,5.267985E2,6.475449E1,3.1529755E2,1.6907085E2,6.56326E2,1.540503E3,6.602252E1,1.6277081E2,1.7435732E1,5.0936282E2,6.2564705E1,2.1897871E0,1.5367545E2,1.616221E2,1.6760497E2,1.465889E0,1.4403496E2,5.12291E2,1.5022308E3,3.8272224E1,6.453468E1,1.4878366E0,1.3935066E2,2.3420149E1,4.6301886E2,4.634396E1,6.1092525E1,1.4721779E0,2.4625938E1,1.2904951E2,1.5667636E2,4.945748E0,1.6587526E2,1.7297064E0,1.2027585E2,2.3759108E1,3.156006E2,1.9669044E2,1.7251581E2,1.329715E3,2.6690138E1,1.15820875E1,1.0799117E1,5.373557E1,1.2891074E2,1.0439922E1,4.269785E2,3.604038E1,2.909386E1,1.7250097E1,5.9855434E1,1.2370917E0,1.1854162E2,1.0507889E1,1.5469084E2,1.985523E0,3.454321E0,1.4914267E0,1.6364401E2,2.2312398E0,1.1905923E2,1.216615E0,1.6312037E1,7.4470706E0,1.642718E2,1.5132877E2,4.8705532E1,1.4798492E2,5.416754E1,1.18348274E2,9.082295E2,4.2148553E2,2.40187E1,2.671439E0,1.0104867E1,1.4772203E0,4.9579163E1,4.1564074E0,7.295782E1,5.5952923E1,2.696982E0,7.742941E0,4.1596207E2,1.1016401E1,2.1633045E1,1.4407333E1,2.3038445E1,6.0554156E0,2.194297E0,1.50558E1,5.8635082E1,1.2203542E0,1.10159096E2,8.382522E0,6.1517463E0,4.356143E0,1.527311E2,1.9597487E0,1.6191423E2,1.7297813E0,1.17374466E2,1.6847647E0,3.610573E0,1.2701465E1,2.0265821E1,1.44006E2,1.802306E1,1.3330571E2,8.076083E0,4.0629448E1,3.7687622E1,1.102973E2,3.1437E1,8.691127E1,8.1091974E2,9.7309746E1,3.5369308E2,6.7792435E1,1.744887E1,6.5698295E0,1.4543462E0,1.2170928E0,8.887494E0,1.2173725E0,4.836488E1,1.2142826E0,2.6972907E0,1.4591168E0,6.876963E1,4.188188E0,5.299542E1,2.9575062E0,1.4702532E0,1.2267286E0,3.0516174E2,1.1080032E2,9.792043E0,1.2243589E0,2.0405859E1,1.2271873E0,8.335046E0,6.072287E0,1.6157743E1,6.880702E0,5.7391514E1,1.2435682E0,1.0547182E2,4.6872797E0,6.9023275E0,1.4801936E0,3.207086E0,2.94466E0,1.5148824E2,1.2428555E0,1.5919023E2,2.7240002E0],"tree_param":{"num_deleted":"0","num_feature":"8114","num_nodes":"165","size_leaf_vector":"1"}},{"base_weights":[6.1973343E-3,-4.580012E-1,1.5692215E0,-6.392319E-1,2.780502E-1,1.1010427E0,1.7314095E0,-7.6103216E-1,-3.227839E-1,3.695949E-1,-6.318821E-1,1.1673595E0,-5.0980514E-1,1.7479138E0,-8.159699E-1,-7.068623E-1,-1.3175259E0,-2.3550478E-1,-1.0730504E0,4.1821766E-1,-7.334405E-1,-3.4428993E-1,-1.4084066E0,1.2207481E0,-8.955601E-1,5.5891436E-1,-1.06303565E-1,1.7763778E0,6.2101275E-1,-7.2238017E-3,-8.833726E-2,-1.2322117E0,-6.454691E-1,-1.3506889E0,1.3212422E-1,-2.86251E-1,6.3178676E-1,-1.1348573E0,9.8934434E-2,4.5603055E-1,-1.1390877E0,-1.0029837E0,9.302636E-2,-4.9483243E-1,1.1936774E0,-1.1491952E-1,-2.2662417E-3,1.2607384E0,-9.66927E-1,-9.175398E-3,-8.781036E-2,-2.9442651E-2,1.0519045E-1,1.7955574E0,2.694281E-1,9.6544886E-1,-9.232242E-2,-1.2575756E0,7.1087636E-2,-6.86347E-1,3.874176E-1,-1.373547E0,4.2363472E-2,-8.105076E-2,1.15078405E-1,-2.4015413E-1,-9.0048546E-1,1.3868772E0,-3.5826647E-1,-1.1984736E0,9.71667E-2,4.9369937E-1,-1.0416194E0,-1.3323207E0,2.6105428E-2,-1.1602825E0,6.2702835E-2,-7.4251795E-1,4.7557285E-1,2.6824987E-2,1.0789724E-1,1.3087679E0,-4.8456955E-1,-9.5159076E-2,-7.3020747E-3,1.8069061E0,-4.3567157E-1,8.901542E-1,-6.7850447E-1,1.295666E0,-5.118257E-2,-1.2907904E0,3.283399E-1,-3.2785106E-1,-7.629579E-1,7.680593E-1,-1.2257955E0,-1.3971958E0,3.2180887E-2,-2.0159313E-1,-1.0572748E0,-9.9771607E-1,7.124313E-2,1.5914835E0,-6.860758E-2,-8.693347E-1,1.2401585E-1,-1.250369E0,6.717056E-2,5.3009087E-1,-9.164193E-1,-1.195938E0,-9.5050195E-3,-1.1119265E-1,-3.829445E-3,-1.318788E0,1.3078889E-2,-9.6279305E-1,6.817058E-1,1.5079592E0,-9.399071E-2,1.3526796E0,-4.837321E-1,-9.1944313E-1,5.575721E-2,1.8155801E0,-4.5386203E-2,1.8233322E-2,-8.026804E-2,1.0161794E0,1.7213091E-2,-8.759857E-2,2.0204946E-2,1.588509E0,-3.1112615E-2,-9.8711945E-2,4.9615E-2,-2.9705591E-2,5.6013316E-2,-2.0794427E-2,-1.0714907E-1,-5.4710824E-2,-9.945276E-2,7.8432865E-2,-9.012866E-2,3.4131512E-2,-1.1121772E-1,-1.0853163E-1,-2.646461E-2,-1.2153991E-2,-7.785532E-2,-9.0192765E-2,6.7569904E-2,-9.102405E-2,6.0530123E-3,1.2813355E-1,-1.5238057E-3,-8.4767975E-2,6.7899376E-2,-9.7787626E-2,6.582702E-2,4.2489663E-2,-6.9112934E-2,-8.129243E-2,2.6943201E-2,-1.0048209E-1,-2.7306166E-3,-1.1009703E-1,2.7987788E-2,-8.3377086E-2,7.236783E-2,1.1348893E-1,-5.063828E-2,1.315079E-1,2.5793685E-2,1.0461683E-1,-3.942484E-2,-7.50351E-2,5.7433285E-2,-1.0030529E-1,5.583297E-3,1.369936E-1,-8.832486E-3,9.0947315E-2,1.9362247E-2,1.2949423E-1,1.8957913E-2],"categories":[],"categories_nodes":[],"categories_segments":[],"categories_sizes":[],"default_left":[0,0,0,0,0,0,0,0,0,0,0,0,0,0,0,0,0,0,0,0,0,0,0,0,0,0,0,0,0,0,0,0,0,0,0,0,0,0,0,0,0,0,0,0,0,0,0,0,0,0,0,0,0,0,0,0,0,0,0,0,0,0,0,0,0,0,0,0,0,0,0,0,0,0,0,0,0,0,0,0,0,0,0,0,0,0,0,0,0,0,0,0,0,0,0,0,0,0,0,0,0,0,0,0,0,0,0,0,0,0,0,0,0,0,0,0,0,0,0,0,0,0,0,0,0,0,0,0,0,0,0,0,0,0,0,0,0,0,0,0,0,0,0,0,0,0,0,0,0,0,0,0,0,0,0,0,0,0,0,0,0,0,0,0,0,0,0,0,0,0,0,0,0,0,0,0,0,0,0,0,0,0,0,0,0,0,0],"id":2,"left_children":[1,3,5,7,9,11,13,15,17,19,21,23,25,27,29,31,33,35,37,39,41,43,45,47,49,51,-1,53,55,-1,-1,57,59,61,63,65,67,69,-1,71,73,75,-1,77,79,-1,-1,81,83,-1,-1,-1,-1,85,87,89,-1,91,-1,93,95,97,-1,-1,-1,99,101,103,105,107,-1,109,111,113,-1,115,-1,117,119,-1,-1,121,123,-1,-1,125,127,129,131,133,-1,135,137,139,141,143,145,147,-1,149,151,153,-1,155,-1,157,-1,159,-1,161,163,165,-1,-1,-1,167,-1,169,171,173,-1,175,177,179,-1,181,-1,-1,-1,183,-1,-1,-1,185,-1,-1,-1,-1,-1,-1,-1,-1,-1,-1,-1,-1,-1,-1,-1,-1,-1,-1,-1,-1,-1,-1,-1,-1,-1,-1,-1,-1,-1,-1,-1,-1,-1,-1,-1,-1,-1,-1,-1,-1,-1,-1,-1,-1,-1,-1,-1,-1,-1,-1,-1,-1,-1],"loss_changes":[2.8122703E3,3.9882922E2,6.5487305E1,9.219531E1,4.9475666E1,2.528305E1,2.9066772E1,5.125177E1,4.3509293E1,2.9147163E1,1.1665062E1,2.5573273E1,1.0330716E1,1.9859375E1,1.1661804E0,5.0153076E1,7.5050354E0,2.6585213E1,1.1752289E1,3.0885551E1,1.3515903E1,1.0089213E1,2.4083233E0,2.0210999E1,1.1728945E0,4.7513447E0,0E0,1.7923828E1,1.2439487E1,0E0,0E0,1.0270523E1,6.007251E1,7.303314E0,9.003788E0,1.5851093E1,2.552174E1,1.2089874E1,0E0,2.8956505E1,4.0587616E0,7.0008106E0,0E0,9.5045185E0,2.9449558E-1,0E0,0E0,1.8541351E1,1.0479503E0,0E0,0E0,0E0,0E0,1.6707153E1,6.0059013E0,9.281932E0,0E0,8.995605E0,0E0,3.718164E1,3.4446747E1,6.892212E0,0E0,0E0,0E0,1.6461855E1,8.009439E0,1.0495846E1,1.7146414E1,8.393654E0,0E0,2.5757645E1,1.6402187E0,2.0955296E0,0E0,4.381466E0,0E0,1.0294752E1,1.679549E1,0E0,0E0,1.7039917E1,4.128575E0,0E0,0E0,1.419043E1,1.977673E0,2.646904E-1,2.2634811E0,7.271572E0,0E0,8.774963E0,1.5495343E0,1.3066036E1,2.018811E1,2.574289E1,5.3430576E0,7.093292E0,0E0,1.6587221E1,7.801832E0,8.895519E0,0E0,3.4269638E0,0E0,6.967869E0,0E0,8.623222E0,0E0,2.5948654E1,3.1147003E0,1.7424507E0,0E0,0E0,0E0,5.0044518E0,0E0,8.829037E0,6.3250804E0,1.020833E0,0E0,1.6864899E1,4.4556828E0,2.2642708E0,0E0,1.3480957E1,0E0,0E0,0E0,3.913827E-1,0E0,0E0,0E0,1.6806698E0,0E0,0E0,0E0,0E0,0E0,0E0,0E0,0E0,0E0,0E0,0E0,0E0,0E0,0E0,0E0,0E0,0E0,0E0,0E0,0E0,0E0,0E0,0E0,0E0,0E0,0E0,0E0,0E0,0E0,0E0,0E0,0E0,0E0,0E0,0E0,0E0,0E0,0E0,0E0,0E0,0E0,0E0,0E0,0E0,0E0,0E0,0E0,0E0,0E0,0E0,0E0,0E0,0E0],"parents":[2147483647,0,0,1,1,2,2,3,3,4,4,5,5,6,6,7,7,8,8,9,9,10,10,11,11,12,12,13,13,14,14,15,15,16,16,17,17,18,18,19,19,20,20,21,21,22,22,23,23,24,24,25,25,27,27,28,28,31,31,32,32,33,33,34,34,35,35,36,36,37,37,39,39,40,40,41,41,43,43,44,44,47,47,48,48,53,53,54,54,55,55,57,57,59,59,60,60,61,61,65,65,66,66,67,67,68,68,69,69,71,71,72,72,73,73,75,75,77,77,78,78,81,81,82,82,85,85,86,86,87,87,88,88,89,89,91,91,92,92,93,93,94,94,95,95,96,96,97,97,99,99,100,100,101,101,103,103,105,105,107,107,109,109,110,110,111,111,115,115,117,117,118,118,119,119,121,121,122,122,123,123,125,125,129,129,133,133],"right_children":[2,4,6,8,10,12,14,16,18,20,22,24,26,28,30,32,34,36,38,40,42,44,46,48,50,52,-1,54,56,-1,-1,58,60,62,64,66,68,70,-1,72,74,76,-1,78,80,-1,-1,82,84,-1,-1,-1,-1,86,88,90,-1,92,-1,94,96,98,-1,-1,-1,100,102,104,106,108,-1,110,112,114,-1,116,-1,118,120,-1,-1,122,124,-1,-1,126,128,130,132,134,-1,136,138,140,142,144,146,148,-1,150,152,154,-1,156,-1,158,-1,160,-1,162,164,166,-1,-1,-1,168,-1,170,172,174,-1,176,178,180,-1,182,-1,-1,-1,184,-1,-1,-1,186,-1,-1,-1,-1,-1,-1,-1,-1,-1,-1,-1,-1,-1,-1,-1,-1,-1,-1,-1,-1,-1,-1,-1,-1,-1,-1,-1,-1,-1,-1,-1,-1,-1,-1,-1,-1,-1,-1,-1,-1,-1,-1,-1,-1,-1,-1,-1,-1,-1,-1,-1,-1,-1],"split_conditions":[9.375E-1,9.0625E-1,9.53125E-1,8.75E-1,3.2738E-2,1.1688298E-1,9.5238E-2,5.9520006E-3,3.3333E-2,1.8341001E-2,3.3613995E-2,5.0000012E-2,1.8110014E-3,1.0898E-2,1.9231E-2,6.875E-1,1.4141399E-1,1.30435E-1,6.36364E-1,6.5359995E-3,1.1888102E-1,1.4102499E-1,3.3333302E-1,3.1746E-2,1.0588202E-1,7.463E-3,-1.06303565E-1,2.9411E-2,4.8626E-2,-7.2238017E-3,-8.833726E-2,1.57895E-1,1E0,2.10526E-1,5.013E-3,6.5010004E-3,5.519986E-4,4.329E-3,9.8934434E-2,2.7273E-2,7.519E-3,9.2308E-2,9.302636E-2,4.5948E-2,2.4800003E-4,-1.1491952E-1,-2.2662417E-3,3.7037E-2,2.19178E-1,-9.175398E-3,-8.781036E-2,-2.9442651E-2,1.0519045E-1,1.5595E-2,1.098901E-2,6.793E-3,-9.232242E-2,2.57576E-1,7.1087636E-2,7.8125E-1,1.4979998E-3,4.09091E-1,4.2363472E-2,-8.105076E-2,1.15078405E-1,9.741001E-3,1.73913E-1,3.63636E-1,5.43478E-1,2E-1,9.71667E-2,7.3530003E-3,6.4516E-2,1.0210001E-3,2.6105428E-2,1.1628E-2,6.2702835E-2,2.72727E-1,2.923999E-3,2.6824987E-2,1.0789724E-1,5E-2,1.2658E-2,-9.5159076E-2,-7.3020747E-3,1.5440006E-3,1.17647E-1,1.6670004E-3,9.259E-3,9.1228E-2,-5.118257E-2,7.519E-3,6.25E-1,3.7520006E-3,4.925996E-3,2.1700002E-4,1.19050145E-2,1.72414E-1,3.2180887E-2,1.0582E-2,2.3959987E-3,6.0606E-2,7.124313E-2,3.8462E-2,-6.860758E-2,8.939998E-4,1.2401585E-1,1.0256E-2,6.717056E-2,2.4999999E-2,7.812E-3,1.0638E-2,-9.5050195E-3,-1.1119265E-1,-3.829445E-3,2.22222E-1,1.3078889E-2,9.7222E-2,1.6681999E-1,8E-2,-9.399071E-2,2.9444002E-2,5.128E-3,1.66667E-1,5.575721E-2,9.901E-3,-4.5386203E-2,1.8233322E-2,-8.026804E-2,2.833E-3,1.7213091E-2,-8.759857E-2,2.0204946E-2,3.4299865E-4,-3.1112615E-2,-9.8711945E-2,4.9615E-2,-2.9705591E-2,5.6013316E-2,-2.0794427E-2,-1.0714907E-1,-5.4710824E-2,-9.945276E-2,7.8432865E-2,-9.012866E-2,3.4131512E-2,-1.1121772E-1,-1.0853163E-1,-2.646461E-2,-1.2153991E-2,-7.785532E-2,-9.0192765E-2,6.7569904E-2,-9.102405E-2,6.0530123E-3,1.2813355E-1,-1.5238057E-3,-8.4767975E-2,6.7899376E-2,-9.7787626E-2,6.582702E-2,4.2489663E-2,-6.9112934E-2,-8.129243E-2,2.6943201E-2,-1.0048209E-1,-2.7306166E-3,-1.1009703E-1,2.7987788E-2,-8.3377086E-2,7.236783E-2,1.1348893E-1,-5.063828E-2,1.315079E-1,2.5793685E-2,1.0461683E-1,-3.942484E-2,-7.50351E-2,5.7433285E-2,-1.0030529E-1,5.583297E-3,1.369936E-1,-8.832486E-3,9.0947315E-2,1.9362247E-2,1.2949423E-1,1.8957913E-2],"split_indices":[0,0,0,0,8040,5752,5598,5799,8040,7988,6891,7340,8040,6993,188,0,7184,709,1443,5833,8099,8022,5811,5258,7340,1592,0,7468,7228,0,0,591,709,1868,6889,6993,6896,453,0,8053,1543,5135,0,6999,7005,0,0,8025,2554,0,0,0,0,5617,7572,6910,0,2112,0,0,7201,6896,0,0,0,5756,4402,1778,5720,4301,0,7047,1813,7179,0,240,0,8040,7086,0,0,5544,2624,0,0,7895,209,7364,604,8038,0,90,0,7267,5804,6982,5752,658,0,6064,6072,7097,0,4670,0,8061,0,736,0,6884,241,5347,0,0,0,1253,0,1174,7807,6999,0,6996,2630,5321,0,7252,0,0,0,1123,0,0,0,7116,0,0,0,0,0,0,0,0,0,0,0,0,0,0,0,0,0,0,0,0,0,0,0,0,0,0,0,0,0,0,0,0,0,0,0,0,0,0,0,0,0,0,0,0,0,0,0,0,0,0,0,0,0],"split_type":[0,0,0,0,0,0,0,0,0,0,0,0,0,0,0,0,0,0,0,0,0,0,0,0,0,0,0,0,0,0,0,0,0,0,0,0,0,0,0,0,0,0,0,0,0,0,0,0,0,0,0,0,0,0,0,0,0,0,0,0,0,0,0,0,0,0,0,0,0,0,0,0,0,0,0,0,0,0,0,0,0,0,0,0,0,0,0,0,0,0,0,0,0,0,0,0,0,0,0,0,0,0,0,0,0,0,0,0,0,0,0,0,0,0,0,0,0,0,0,0,0,0,0,0,0,0,0,0,0,0,0,0,0,0,0,0,0,0,0,0,0,0,0,0,0,0,0,0,0,0,0,0,0,0,0,0,0,0,0,0,0,0,0,0,0,0,0,0,0,0,0,0,0,0,0,0,0,0,0,0,0,0,0,0,0,0,0],"sum_hessian":[3.8740437E3,2.9875007E3,8.865431E2,2.397355E3,5.9014575E2,2.3010399E2,6.5643915E2,1.730055E3,6.672998E2,5.3674023E2,5.3405487E1,2.212699E2,8.834097E0,6.525253E2,3.9138198E0,1.5786565E3,1.5139856E2,5.9893866E2,6.836113E1,5.146738E2,2.2066425E1,4.0025204E1,1.3380283E1,2.160858E2,5.184094E0,4.233311E0,4.600786E0,6.358873E2,1.6637974E1,1.7331586E0,2.1806612E0,1.6318544E2,1.4154711E3,1.4807927E2,3.3192878E0,5.664642E2,3.2474518E1,6.715172E1,1.2094117E0,5.031637E2,1.1510139E1,1.9847832E1,2.2185924E0,3.707446E1,2.9507434E0,1.2174416E1,1.2058679E0,2.126228E2,3.4629936E0,1.7401394E0,3.4439547E0,2.2407472E0,1.9925642E0,6.277067E2,8.180606E0,1.4432475E1,2.205499E0,1.6172696E2,1.4584816E0,1.3619072E3,5.356384E1,1.4661269E2,1.4665767E0,1.902852E0,1.4164357E0,5.282139E2,3.8250248E1,1.8196026E1,1.4278493E1,6.593281E1,1.2189102E0,4.9147253E2,1.1691144E1,1.0278702E1,1.2314383E0,1.8623932E1,1.2239017E0,2.9722858E1,7.3516026E0,1.2261379E0,1.7246054E0,2.0717172E2,5.4510803E0,2.229828E0,1.2331657E0,6.2471936E2,2.987344E0,4.9803324E0,3.2002735E0,1.2201226E1,2.2312484E0,1.5859157E2,3.1353896E0,2.407255E2,1.1211818E3,4.3761982E1,9.801856E0,1.4493617E2,1.6765242E0,5.0560068E2,2.2613247E1,3.67785E1,1.47175E0,1.6993887E1,1.2021383E0,1.1838897E1,2.4395967E0,6.473154E1,1.2012722E0,4.797164E2,1.1756146E1,9.740898E0,1.9502466E0,9.059247E0,1.2194545E0,1.665757E1,1.9663608E0,2.6022171E1,3.7006874E0,4.682852E0,2.6687508E0,2.024574E2,4.714326E0,4.2110724E0,1.2400079E0,6.2272723E2,1.9921191E0,1.7414485E0,1.2458956E0,3.7305338E0,1.2497984E0,1.9573627E0,1.242911E0,1.047858E1,1.7226462E0,1.568789E2,1.712666E0,1.1677153E0,1.9676743E0,2.3134494E2,9.380559E0,1.0604253E3,6.075647E1,3.8765633E1,4.9963503E0,1.198226E0,8.60363E0,1.3795956E2,6.9766097E0,4.8391974E2,2.1680935E1,2.141051E1,1.2027384E0,3.0538275E1,6.240224E0,1.5788219E1,1.2056679E0,1.0638047E1,1.2008494E0,6.352289E1,1.2086502E0,4.6856424E2,1.1152158E1,1.0524699E1,1.2314467E0,8.52772E0,1.2131774E0,1.5429602E1,1.2279681E0,2.4549217E1,1.4729538E0,2.2231674E0,1.47752E0,3.4491441E0,1.2337077E0,1.9825935E2,4.198039E0,3.4760945E0,1.2382313E0,2.7211246E0,1.4899477E0,6.192588E2,3.4684756E0,2.486402E0,1.2441317E0,9.231653E0,1.2469274E0],"tree_param":{"num_deleted":"0","num_feature":"8114","num_nodes":"187","size_leaf_vector":"1"}},{"base_weights":[-2.64081E-3,-4.3426326E-1,1.4577006E0,-6.598384E-1,6.9200724E-2,1.1452657E0,1.3714164E-1,-6.9337803E-1,3.936423E-1,-2.4162476E-1,6.751089E-1,1.008936E0,1.6967827E0,-4.0481356E-1,-8.1757206E-1,5.3197575E-1,-9.9312E-2,1.5558251E0,-3.321627E-1,4.881603E-1,1.4116687E0,1.0477943E0,-9.453236E-1,1.7261176E0,-1.9655589E-2,-1.0848618E0,-2.0774204E-1,-8.3378786E-1,8.080418E-1,-1.0328129E-1,9.0300244E-1,7.230072E-1,1.5311548E-1,-8.325417E-1,-6.00799E-2,5.492543E-1,-1.178957E0,1.4723505E0,-6.908295E-2,1.1119727E0,-7.537173E-2,-9.013691E-2,1.9049335E-2,1.7568412E0,-6.3716765E-3,-1.396529E0,3.85037E-1,-1.08526364E-1,-1.2349713E0,-7.817956E-1,-1.2454726E0,-2.9094583E-1,1.3282295E-1,1.5114854E-1,-6.653674E-1,3.5791406E-1,1.3756172E-1,-9.906405E-2,1.2901407E-1,-8.790192E-1,1.3253523E-1,1.185013E-2,-9.2445314E-1,5.993881E-1,-7.350446E-1,-1.0927175E-1,1.2478604E-2,1.5198494E0,-7.98141E-3,1.1424868E0,-8.032408E-1,6.1971456E-1,-1.1065238E0,1.7961439E0,3.5963082E-1,-1.421644E0,3.9077315E-2,1.232502E0,-1.0325362E-1,8.766985E-1,-2.0089562E-1,-1.3423555E0,5.9396297E-2,-1.1245003E-1,-7.519159E-1,-1.2899859E0,4.8738098E-1,1.3698494E-1,-8.244276E-2,-7.702984E-1,3.6728278E-2,4.8256347E-1,-7.468374E-2,-9.066586E-1,9.855667E-2,-3.4042798E-2,1.4316618E0,-1.0853409E0,6.415328E-2,6.534047E-1,-6.7125905E-1,-1.2012119E0,3.2667318E-1,1.5580932E0,-1.1797831E-2,1.1869817E0,-2.693289E-1,-1.1314574E0,2.137157E-2,9.3376553E-1,-8.525661E-2,-1.107516E-1,4.9778007E-2,1.3626099E-1,1.4840259E-2,-4.861317E-2,8.409985E-2,-1.0854919E-1,1.4453051E-2,-8.898544E-2,1.4138499E-1,-9.693952E-2,8.271721E-2,-8.053444E-2,-4.458891E-3,-1.13189735E-1,-4.73248E-2,8.554007E-2,-6.0229357E-2,-9.8859005E-2,9.451391E-3,8.288711E-2,-3.9194264E-2,-4.448411E-2,1.022306E-1,-6.788623E-2,1.5900418E-2,4.532901E-2,-7.238665E-2,-7.004085E-2,8.108778E-2,-1.8552924E-2,1.7057786E-2,1.2211332E-1,-5.23321E-3,-9.485144E-2,4.7960516E-2,5.1441956E-2,-1.002492E-1,-7.259224E-2,5.965888E-2,-4.096754E-2,-1.0422073E-1,-3.9050408E-2,7.161878E-2,1.1992336E-1,1.9283798E-4,9.1397636E-2,-3.8554356E-2,1.170034E-2,-9.875879E-2,-1.3840483E-2,-1.0477699E-1,8.8006824E-2,-4.7263186E-2],"categories":[],"categories_nodes":[],"categories_segments":[],"categories_sizes":[],"default_left":[0,0,0,0,0,0,0,0,0,0,0,0,0,0,0,0,0,0,0,0,0,0,0,0,0,0,0,0,0,0,0,0,0,0,0,0,0,0,0,0,0,0,0,0,0,0,0,0,0,0,0,0,0,0,0,0,0,0,0,0,0,0,0,0,0,0,0,0,0,0,0,0,0,0,0,0,0,0,0,0,0,0,0,0,0,0,0,0,0,0,0,0,0,0,0,0,0,0,0,0,0,0,0,0,0,0,0,0,0,0,0,0,0,0,0,0,0,0,0,0,0,0,0,0,0,0,0,0,0,0,0,0,0,0,0,0,0,0,0,0,0,0,0,0,0,0,0,0,0,0,0,0,0,0,0,0,0,0,0,0,0,0,0,0,0],"id":3,"left_children":[1,3,5,7,9,11,-1,13,15,17,19,21,23,25,27,29,-1,31,33,35,37,39,41,43,-1,45,47,49,51,53,55,57,-1,59,61,63,65,67,-1,69,71,-1,-1,73,-1,75,77,79,81,83,85,87,-1,-1,89,91,-1,-1,-1,93,-1,95,97,99,101,-1,-1,103,-1,105,107,109,111,113,115,117,-1,119,-1,121,123,125,-1,-1,127,129,131,133,-1,135,-1,137,-1,139,-1,141,143,145,-1,147,149,151,153,155,-1,157,159,161,-1,163,-1,-1,-1,-1,-1,-1,-1,-1,-1,-1,-1,-1,-1,-1,-1,-1,-1,-1,-1,-1,-1,-1,-1,-1,-1,-1,-1,-1,-1,-1,-1,-1,-1,-1,-1,-1,-1,-1,-1,-1,-1,-1,-1,-1,-1,-1,-1,-1,-1,-1,-1,-1,-1,-1,-1],"loss_changes":[2.4235513E3,3.3709564E2,9.954224E1,7.269287E1,1.7327478E2,3.4285156E1,0E0,7.086963E1,1.5883762E1,9.9504234E1,4.2261917E1,3.0328705E1,5.820709E0,8.015413E1,3.7261658E1,1.4195242E1,0E0,1.0394402E1,7.890286E1,2.6141422E1,1.0219673E1,2.7423431E1,2.7840571E0,5.278137E0,0E0,6.2163345E1,4.738459E1,2.8452148E1,1.5559726E1,2.8679585E1,1.8566528E1,2.745966E1,0E0,2.6224472E1,2.3434124E1,1.603115E1,3.6706676E0,4.7670135E0,0E0,2.1888916E1,1.6050753E1,0E0,0E0,4.333893E0,0E0,6.096176E0,3.8002033E1,3.8969254E1,9.980598E0,2.5099792E1,1.2389191E1,2.7440975E0,0E0,0E0,2.6674395E0,4.721137E0,0E0,0E0,0E0,1.3391495E1,0E0,2.2774923E1,9.219606E0,1.6471512E1,5.1171794E0,0E0,0E0,4.073227E0,0E0,2.2534119E1,2.542108E0,8.47879E0,6.871648E0,2.54599E0,3.5912592E0,4.840225E0,0E0,2.8989716E1,0E0,1.9446035E1,4.8155865E1,3.7095642E0,0E0,0E0,1.1477197E2,6.098831E0,3.4128704E0,5.99307E0,0E0,2.537943E0,0E0,4.7607207E0,0E0,1.1796249E1,0E0,1.8956942E1,3.3426743E0,9.159277E0,0E0,1.5436256E1,5.128834E0,8.589268E-2,2.466214E0,3.712799E0,0E0,1.9095245E1,5.382125E0,9.934807E-1,0E0,5.22069E0,0E0,0E0,0E0,0E0,0E0,0E0,0E0,0E0,0E0,0E0,0E0,0E0,0E0,0E0,0E0,0E0,0E0,0E0,0E0,0E0,0E0,0E0,0E0,0E0,0E0,0E0,0E0,0E0,0E0,0E0,0E0,0E0,0E0,0E0,0E0,0E0,0E0,0E0,0E0,0E0,0E0,0E0,0E0,0E0,0E0,0E0,0E0,0E0,0E0,0E0,0E0,0E0,0E0,0E0,0E0],"parents":[2147483647,0,0,1,1,2,2,3,3,4,4,5,5,7,7,8,8,9,9,10,10,11,11,12,12,13,13,14,14,15,15,17,17,18,18,19,19,20,20,21,21,22,22,23,23,25,25,26,26,27,27,28,28,29,29,30,30,31,31,33,33,34,34,35,35,36,36,37,37,39,39,40,40,43,43,45,45,46,46,47,47,48,48,49,49,50,50,51,51,54,54,55,55,59,59,61,61,62,62,63,63,64,64,67,67,69,69,70,70,71,71,72,72,73,73,74,74,75,75,77,77,79,79,80,80,81,81,84,84,85,85,86,86,87,87,89,89,91,91,93,93,95,95,96,96,97,97,99,99,100,100,101,101,102,102,103,103,105,105,106,106,107,107,109,109],"right_children":[2,4,6,8,10,12,-1,14,16,18,20,22,24,26,28,30,-1,32,34,36,38,40,42,44,-1,46,48,50,52,54,56,58,-1,60,62,64,66,68,-1,70,72,-1,-1,74,-1,76,78,80,82,84,86,88,-1,-1,90,92,-1,-1,-1,94,-1,96,98,100,102,-1,-1,104,-1,106,108,110,112,114,116,118,-1,120,-1,122,124,126,-1,-1,128,130,132,134,-1,136,-1,138,-1,140,-1,142,144,146,-1,148,150,152,154,156,-1,158,160,162,-1,164,-1,-1,-1,-1,-1,-1,-1,-1,-1,-1,-1,-1,-1,-1,-1,-1,-1,-1,-1,-1,-1,-1,-1,-1,-1,-1,-1,-1,-1,-1,-1,-1,-1,-1,-1,-1,-1,-1,-1,-1,-1,-1,-1,-1,-1,-1,-1,-1,-1,-1,-1,-1,-1,-1,-1],"split_conditions":[9.375E-1,8.90625E-1,1E0,9.84375E-1,9.53125E-1,9.84375E-1,1.3714164E-1,8.4375E-1,2.319999E-4,8.125E-1,1E0,8.529399E-2,1.1900011E-3,7.03125E-1,3.33333E-1,8.59375E-1,-9.9312E-2,7.96875E-1,9.0625E-1,1.1818202E-1,3.0769706E-3,2.4999999E-2,6.66667E-1,2E-1,-1.9655589E-2,8.28125E-1,4.525006E-3,4.0908996E-2,8.3333E-2,8.4375E-1,1E0,9.0625E-1,1.5311548E-1,4.32836E-1,5.9524E-2,1.8675E-2,3.14286E-1,2.19512E-1,-6.908295E-2,6.3492E-2,1.2367994E-2,-9.013691E-2,1.9049335E-2,2E-2,-6.3716765E-3,1.17072985E-1,6.71875E-1,7.1875E-1,2.5E-1,6.71875E-1,6.66667E-1,1.3333303E-1,1.3282295E-1,1.5114854E-1,6.7797E-2,7.576E-3,1.3756172E-1,-9.906405E-2,1.2901407E-1,4E-1,1.3253523E-1,3.02326E-1,1.5500002E-4,7.176999E-3,9.259E-3,-1.0927175E-1,1.2478604E-2,1.5070066E-3,-7.98141E-3,2.9913992E-2,7.576E-3,1E-2,2.0979E-2,7.619001E-3,5.2632E-2,3.2258E-2,3.9077315E-2,4.53125E-1,-1.0325362E-1,6.875E-1,7.5E-1,1.66667E-1,5.9396297E-2,-1.1245003E-1,7.1875E-1,5.6725003E-2,8.85E-3,1.53846E-1,-8.244276E-2,4.008E-3,3.6728278E-2,9.0909E-2,-7.468374E-2,1.25E-1,9.855667E-2,9.21875E-1,2.54902E-1,1.45455E-1,6.415328E-2,3.1578995E-2,2.5973998E-2,5.6691002E-2,3.354E-3,4.016E-3,-1.1797831E-2,4.7368E-2,1.3229996E-3,1.33333E-1,2.137157E-2,2.85714E-1,-8.525661E-2,-1.107516E-1,4.9778007E-2,1.3626099E-1,1.4840259E-2,-4.861317E-2,8.409985E-2,-1.0854919E-1,1.4453051E-2,-8.898544E-2,1.4138499E-1,-9.693952E-2,8.271721E-2,-8.053444E-2,-4.458891E-3,-1.13189735E-1,-4.73248E-2,8.554007E-2,-6.0229357E-2,-9.8859005E-2,9.451391E-3,8.288711E-2,-3.9194264E-2,-4.448411E-2,1.022306E-1,-6.788623E-2,1.5900418E-2,4.532901E-2,-7.238665E-2,-7.004085E-2,8.108778E-2,-1.8552924E-2,1.7057786E-2,1.2211332E-1,-5.23321E-3,-9.485144E-2,4.7960516E-2,5.1441956E-2,-1.002492E-1,-7.259224E-2,5.965888E-2,-4.096754E-2,-1.0422073E-1,-3.9050408E-2,7.161878E-2,1.1992336E-1,1.9283798E-4,9.1397636E-2,-3.8554356E-2,1.170034E-2,-9.875879E-2,-1.3840483E-2,-1.0477699E-1,8.8006824E-2,-4.7263186E-2],"split_indices":[0,0,1,1,1,0,0,1,6993,1,1,5598,5955,0,5721,0,0,1,0,6896,5752,6889,2894,4412,0,1,6891,8040,8042,0,1,0,0,4190,7208,6893,4192,815,0,7936,7000,0,0,6974,0,7484,0,1,7099,0,2894,7338,0,0,3362,2735,0,0,0,587,0,1694,7016,8034,4294,0,0,5698,0,7340,2735,5353,4301,5704,6974,1847,0,0,0,1,1,6891,0,0,0,7340,2605,4169,0,4503,0,342,0,6223,0,0,4660,4190,0,6197,8012,6893,6997,4649,0,6909,7184,5232,0,6889,0,0,0,0,0,0,0,0,0,0,0,0,0,0,0,0,0,0,0,0,0,0,0,0,0,0,0,0,0,0,0,0,0,0,0,0,0,0,0,0,0,0,0,0,0,0,0,0,0,0,0,0,0,0,0],"split_type":[0,0,0,0,0,0,0,0,0,0,0,0,0,0,0,0,0,0,0,0,0,0,0,0,0,0,0,0,0,0,0,0,0,0,0,0,0,0,0,0,0,0,0,0,0,0,0,0,0,0,0,0,0,0,0,0,0,0,0,0,0,0,0,0,0,0,0,0,0,0,0,0,0,0,0,0,0,0,0,0,0,0,0,0,0,0,0,0,0,0,0,0,0,0,0,0,0,0,0,0,0,0,0,0,0,0,0,0,0,0,0,0,0,0,0,0,0,0,0,0,0,0,0,0,0,0,0,0,0,0,0,0,0,0,0,0,0,0,0,0,0,0,0,0,0,0,0,0,0,0,0,0,0,0,0,0,0,0,0,0,0,0,0,0,0],"sum_hessian":[3.8429734E3,2.9668005E3,8.761729E2,2.0486155E3,9.1818494E2,4.7776077E2,3.9841214E2,1.9857373E3,6.2878174E1,6.072648E2,3.1092017E2,3.853383E2,9.242247E1,5.9876587E2,1.3869716E3,5.883088E1,4.0472946E0,2.8345114E1,5.789197E2,2.4930583E2,6.161434E1,3.7828046E2,7.0578394E0,9.117587E1,1.2465941E0,1.3351874E2,4.6524713E2,1.3737551E3,1.321638E1,2.1957596E1,3.6873283E1,1.1358353E1,1.6986761E1,2.0318626E2,3.7573337E2,2.4113945E2,8.166379E0,6.0411713E1,1.2026298E0,3.5784308E2,2.0437386E1,5.8125873E0,1.2452524E0,8.968439E1,1.4914863E0,1.1020215E2,2.3316591E1,4.252771E2,3.9970036E1,1.2222894E3,1.5146567E2,6.4980474E0,6.7183323E0,4.0619645E0,1.7895632E1,2.4131382E1,1.2741901E1,3.6180544E0,7.7402983E0,2.0026772E2,2.9185486E0,3.4777878E2,2.7954605E1,2.3259326E2,8.546196E0,6.6991134E0,1.4672657E0,5.8683475E1,1.7282363E0,3.526283E2,5.2147827E0,1.2446421E1,7.990964E0,8.6952934E1,2.7314558E0,1.0903272E2,1.1694254E0,1.5946279E1,7.3703127E0,3.5726067E1,3.8955103E2,3.827975E1,1.6902847E0,4.6897865E1,1.1753916E3,1.4792145E2,3.544222E0,4.7917123E0,1.7063351E0,1.6710697E1,1.1849341E0,2.2685965E1,1.4454181E0,1.9835448E2,1.9132395E0,3.3783487E2,9.943897E0,2.599499E1,1.9596164E0,2.2357463E2,9.018627E0,5.847399E0,2.698797E0,5.7444572E1,1.2389058E0,3.4200876E2,1.0619521E1,3.9758487E0,1.2389342E0,1.0955923E1,1.4904982E0,6.7461348E0,1.2448292E0,8.570782E1,1.245118E0,1.2399366E0,1.4915192E0,1.0742741E2,1.6053196E0,3.2143438E0,1.2731935E1,2.9284263E0,3.2797638E1,5.340139E1,3.3614963E2,3.0098843E1,8.180909E0,3.0367863E1,1.1450237E3,1.4510748E2,2.813962E0,2.140604E0,1.403618E0,3.326884E0,1.4648281E0,1.476262E1,1.9480773E0,2.1462458E1,1.2235072E0,1.9619814E2,2.1563451E0,1.8607706E2,1.5175781E2,8.71838E0,1.2255175E0,2.378827E1,2.206718E0,2.2062819E2,2.9464445E0,7.7843566E0,1.2342708E0,2.1772833E0,3.6701157E0,1.2219352E0,1.4768617E0,5.5946167E1,1.4984049E0,3.3603928E2,5.9694996E0,8.157941E0,2.4615803E0,1.242052E0,2.7337966E0,9.716642E0,1.2392801E0],"tree_param":{"num_deleted":"0","num_feature":"8114","num_nodes":"165","size_leaf_vector":"1"}},{"base_weights":[-9.9755945E-3,-4.1445634E-1,1.3567123E0,-6.2529033E-1,5.334464E-2,1.0492363E0,1.2914738E-1,-5.6223714E-1,-1.0797832E0,-2.391336E-1,6.092917E-1,8.517637E-1,1.4201635E0,-5.981195E-1,4.3087488E-1,-1.1189427E0,4.4753942E-1,1.361868E0,-3.173364E-1,4.263221E-1,1.3717912E0,5.14491E-1,1.1566967E0,1.4491011E0,-6.0581855E-2,-1.1620133E0,-5.46323E-1,-8.815942E-2,1.7996722E0,-1.1388429E0,6.534376E-2,1.2556064E-1,-8.119102E-2,5.4110116E-1,1.4069761E-1,-7.764038E-1,-7.123314E-2,4.8468608E-1,-1.2244028E0,1.4203529E0,-4.0665485E-2,1.3028829E-1,2.6749274E-1,1.2292274E0,-6.117752E-1,1.4815116E0,-4.6689007E-1,-1.1845896E0,6.2402125E-2,-2.032247E-1,-6.672379E-1,-3.2234982E-1,1.4262674E0,1.4370896E-1,3.3478443E-2,-1.1681219E0,2.1107398E-1,-9.727365E-2,1.20110504E-1,-8.135974E-1,1.1620137E-1,2.3101089E-3,-8.4508973E-1,5.274162E-1,-1.0822694E0,-1.0479679E-1,-5.1747784E-3,1.4687854E0,-3.6920045E-2,3.5005748E-1,-9.2661905E-1,1.2785803E0,-6.3594675E-1,3.20294E-2,-8.8628255E-2,1.5036695E0,-5.5058658E-2,-6.7841825E-3,-4.709762E-2,-1.2253113E0,7.0816286E-2,-3.8211492E-1,1.6411164E-1,1.0089722E0,-7.0756376E-1,-9.4314307E-1,3.5557482E-1,1.3208814E-1,-2.202606E-3,-9.418514E-1,-1.3808904E0,1.1653011E0,-7.866803E-2,-8.415348E-1,1.1245643E-1,-6.0142487E-2,8.476523E-1,-1.0335387E0,8.7679386E-2,5.6594574E-1,-9.459701E-2,-1.0787249E-1,9.741378E-3,1.5095618E0,-1.6525302E-2,4.498499E-1,-6.495202E-1,-1.2901832E0,4.8083216E-2,1.3166273E0,-8.0258965E-2,1.9971829E-2,-7.777126E-2,1.5253744E0,-5.0621964E-2,-9.504299E-2,2.589049E-3,5.2247807E-2,-6.79797E-2,-5.8901545E-2,5.2406495E-3,8.6757876E-2,-2.061933E-2,8.819236E-2,-8.636266E-2,-5.942008E-2,-4.3759793E-3,-7.864176E-2,3.5307825E-2,7.419779E-2,-7.309804E-2,-7.480295E-2,4.1133642E-2,-1.0565915E-1,-1.4132445E-2,5.0697727E-3,1.2150954E-1,-6.539939E-2,6.83238E-2,6.4607407E-4,-6.408107E-2,8.6668596E-2,-7.544541E-2,-9.563326E-2,-6.097468E-4,4.569637E-2,-6.481591E-2,1.15285784E-1,1.1678569E-2,2.5240228E-2,1.17116034E-1,-7.236904E-2,6.284399E-2,-1.1337107E-1,-9.232144E-3,1.01102196E-1,-8.257863E-2,1.1606843E-1,-3.5219047E-2],"categories":[],"categories_nodes":[],"categories_segments":[],"categories_sizes":[],"default_left":[0,0,0,0,0,0,0,0,0,0,0,0,0,0,0,0,0,0,0,0,0,0,0,0,0,0,0,0,0,0,0,0,0,0,0,0,0,0,0,0,0,0,0,0,0,0,0,0,0,0,0,0,0,0,0,0,0,0,0,0,0,0,0,0,0,0,0,0,0,0,0,0,0,0,0,0,0,0,0,0,0,0,0,0,0,0,0,0,0,0,0,0,0,0,0,0,0,0,0,0,0,0,0,0,0,0,0,0,0,0,0,0,0,0,0,0,0,0,0,0,0,0,0,0,0,0,0,0,0,0,0,0,0,0,0,0,0,0,0,0,0,0,0,0,0,0,0,0,0,0,0,0,0,0,0,0,0,0,0],"id":4,"left_children":[1,3,5,7,9,11,-1,13,15,17,19,21,23,25,27,29,31,33,35,37,39,41,43,45,-1,47,49,51,53,55,-1,-1,-1,57,-1,59,61,63,65,67,-1,-1,69,71,73,75,77,79,-1,81,83,85,87,-1,-1,89,91,-1,-1,93,-1,95,97,99,101,-1,-1,103,-1,105,107,109,111,-1,-1,113,-1,-1,-1,115,117,119,121,123,125,127,129,-1,-1,131,133,135,-1,137,-1,139,141,143,-1,145,-1,-1,-1,147,-1,149,151,153,-1,155,-1,-1,-1,157,-1,-1,-1,-1,-1,-1,-1,-1,-1,-1,-1,-1,-1,-1,-1,-1,-1,-1,-1,-1,-1,-1,-1,-1,-1,-1,-1,-1,-1,-1,-1,-1,-1,-1,-1,-1,-1,-1,-1,-1,-1,-1,-1,-1,-1],"loss_changes":[2.0980737E3,2.8887646E2,9.5534546E1,5.7247314E1,1.4823755E2,3.3447876E1,0E0,6.3509094E1,1.5146332E1,7.524232E1,4.3257362E1,3.1417587E1,1.1671722E1,4.9412354E1,4.454541E1,1.045929E1,1.4641598E1,1.08064E1,6.439815E1,2.5149872E1,6.3807373E0,4.4714275E1,2.1617584E1,1.0699066E1,0E0,7.4351196E0,6.504785E1,1.686399E1,1.8589363E0,9.617828E0,0E0,0E0,0E0,2.584613E1,0E0,1.8474747E1,2.1201345E1,1.7102161E1,1.6989393E0,6.2018967E0,0E0,0E0,1.2711283E1,1.522789E1,4.694433E0,8.895599E0,1.5184653E-1,7.349884E0,0E0,2.7062582E1,7.921515E1,1.753719E1,3.161479E0,0E0,0E0,9.879303E0,8.292349E0,0E0,0E0,1.3961182E1,0E0,1.8062346E1,1.34797325E1,1.7324196E1,3.1567135E0,0E0,0E0,4.323036E0,0E0,1.2086583E1,5.6145835E0,1.5071335E1,1.9782338E0,0E0,0E0,8.475769E0,0E0,0E0,0E0,7.3155365E0,3.9393632E0,5.047058E1,5.9267197E1,1.1342089E1,6.2349915E1,3.7144814E0,1.8046804E1,0E0,0E0,1.0119194E1,3.644699E0,1.7976351E0,0E0,1.1193161E1,0E0,1.7408106E1,1.4596745E1,7.444462E0,0E0,1.5192986E1,0E0,0E0,0E0,1.8778381E0,0E0,1.3091528E1,6.035695E0,1.6617565E0,0E0,1.2940643E1,0E0,0E0,0E0,7.646942E0,0E0,0E0,0E0,0E0,0E0,0E0,0E0,0E0,0E0,0E0,0E0,0E0,0E0,0E0,0E0,0E0,0E0,0E0,0E0,0E0,0E0,0E0,0E0,0E0,0E0,0E0,0E0,0E0,0E0,0E0,0E0,0E0,0E0,0E0,0E0,0E0,0E0,0E0,0E0,0E0,0E0,0E0,0E0,0E0,0E0],"parents":[2147483647,0,0,1,1,2,2,3,3,4,4,5,5,7,7,8,8,9,9,10,10,11,11,12,12,13,13,14,14,15,15,16,16,17,17,18,18,19,19,20,20,21,21,22,22,23,23,25,25,26,26,27,27,28,28,29,29,33,33,35,35,36,36,37,37,38,38,39,39,42,42,43,43,44,44,45,45,46,46,47,47,49,49,50,50,51,51,52,52,55,55,56,56,59,59,61,61,62,62,63,63,64,64,67,67,69,69,70,70,71,71,72,72,75,75,79,79,80,80,81,81,82,82,83,83,84,84,85,85,86,86,89,89,90,90,91,91,93,93,95,95,96,96,97,97,99,99,103,103,105,105,106,106,107,107,109,109,113,113],"right_children":[2,4,6,8,10,12,-1,14,16,18,20,22,24,26,28,30,32,34,36,38,40,42,44,46,-1,48,50,52,54,56,-1,-1,-1,58,-1,60,62,64,66,68,-1,-1,70,72,74,76,78,80,-1,82,84,86,88,-1,-1,90,92,-1,-1,94,-1,96,98,100,102,-1,-1,104,-1,106,108,110,112,-1,-1,114,-1,-1,-1,116,118,120,122,124,126,128,130,-1,-1,132,134,136,-1,138,-1,140,142,144,-1,146,-1,-1,-1,148,-1,150,152,154,-1,156,-1,-1,-1,158,-1,-1,-1,-1,-1,-1,-1,-1,-1,-1,-1,-1,-1,-1,-1,-1,-1,-1,-1,-1,-1,-1,-1,-1,-1,-1,-1,-1,-1,-1,-1,-1,-1,-1,-1,-1,-1,-1,-1,-1,-1,-1,-1,-1,-1],"split_conditions":[9.375E-1,8.90625E-1,1E0,2.1639988E-3,9.53125E-1,9.6875E-1,1.2914738E-1,1E0,5.79362E-1,8.125E-1,1E0,9.53125E-1,1.7857E-2,6.875E-1,4.545501E-2,3.3333302E-1,8.00997E-4,7.96875E-1,9.0625E-1,1.16959E-1,4.975E-3,8.75E-1,2.4999999E-2,9.5238E-2,-6.0581855E-2,1.25E-1,8.4375E-1,3.14286E-1,5.3125E-1,1.30682E-1,6.534376E-2,1.2556064E-1,-8.119102E-2,9.0625E-1,1.4069761E-1,4.32836E-1,1.44610405E-2,3.4091003E-2,3.14286E-1,1.9609993E-3,-4.0665485E-2,1.3028829E-1,2.0360053E-3,5.4945007E-2,2.319999E-4,4.7430996E-2,5E-1,2.8571E-2,6.2402125E-2,8.4375E-1,7.1875E-1,8.92857E-1,2.684E-3,1.4370896E-1,3.3478443E-2,2.5640994E-2,3.3333302E-1,-9.727365E-2,1.20110504E-1,4E-1,1.1620137E-1,2.92683E-1,1.875E-1,3.9885998E-2,2.77778E-1,-1.0479679E-1,-5.1747784E-3,3.4375E-1,-3.6920045E-2,2.5974E-2,1.4493E-2,6.993E-3,1.8182E-2,3.20294E-2,-8.8628255E-2,3.4091003E-2,-5.5058658E-2,-6.7841825E-3,-4.709762E-2,4.5455E-2,6.667E-3,7.8125E-1,7.8125E-1,7.463E-3,9.6875E-1,2.10526E-1,1.5384603E-1,1.3208814E-1,-2.202606E-3,2E-1,2.4999999E-1,6.8966E-2,-7.866803E-2,1.03448E-1,1.1245643E-1,1.8675E-2,8.3333E-2,2.5641E-2,8.7679386E-2,6.757021E-3,-9.459701E-2,-1.0787249E-1,9.741378E-3,7.812E-3,-1.6525302E-2,6.6667E-2,2.2727E-2,2.9412E-2,4.8083216E-2,2.0000003E-2,-8.0258965E-2,1.9971829E-2,-7.777126E-2,2.8571E-2,-5.0621964E-2,-9.504299E-2,2.589049E-3,5.2247807E-2,-6.79797E-2,-5.8901545E-2,5.2406495E-3,8.6757876E-2,-2.061933E-2,8.819236E-2,-8.636266E-2,-5.942008E-2,-4.3759793E-3,-7.864176E-2,3.5307825E-2,7.419779E-2,-7.309804E-2,-7.480295E-2,4.1133642E-2,-1.0565915E-1,-1.4132445E-2,5.0697727E-3,1.2150954E-1,-6.539939E-2,6.83238E-2,6.4607407E-4,-6.408107E-2,8.6668596E-2,-7.544541E-2,-9.563326E-2,-6.097468E-4,4.569637E-2,-6.481591E-2,1.15285784E-1,1.1678569E-2,2.5240228E-2,1.17116034E-1,-7.236904E-2,6.284399E-2,-1.1337107E-1,-9.232144E-3,1.01102196E-1,-8.257863E-2,1.1606843E-1,-3.5219047E-2],"split_indices":[0,0,1,6889,1,0,0,709,6894,1,1,1,7909,0,7001,5694,6536,1,0,6896,3151,1,6889,7208,0,5268,1,7102,6952,7184,0,0,0,0,0,4190,5754,6222,4192,7005,0,0,7016,6872,6993,7401,4504,4317,0,0,0,2944,6917,0,0,7207,6536,0,0,587,0,4662,5694,7092,3518,0,0,3887,0,5754,7007,1244,4272,0,0,5953,0,0,0,4816,7103,1,1,2611,1,1809,6923,0,0,1584,6872,1495,0,4711,0,6998,2868,5594,0,5756,0,0,0,825,0,312,7105,1610,0,6612,0,0,0,6427,0,0,0,0,0,0,0,0,0,0,0,0,0,0,0,0,0,0,0,0,0,0,0,0,0,0,0,0,0,0,0,0,0,0,0,0,0,0,0,0,0,0,0,0,0],"split_type":[0,0,0,0,0,0,0,0,0,0,0,0,0,0,0,0,0,0,0,0,0,0,0,0,0,0,0,0,0,0,0,0,0,0,0,0,0,0,0,0,0,0,0,0,0,0,0,0,0,0,0,0,0,0,0,0,0,0,0,0,0,0,0,0,0,0,0,0,0,0,0,0,0,0,0,0,0,0,0,0,0,0,0,0,0,0,0,0,0,0,0,0,0,0,0,0,0,0,0,0,0,0,0,0,0,0,0,0,0,0,0,0,0,0,0,0,0,0,0,0,0,0,0,0,0,0,0,0,0,0,0,0,0,0,0,0,0,0,0,0,0,0,0,0,0,0,0,0,0,0,0,0,0,0,0,0,0,0,0],"sum_hessian":[3.7933481E3,2.927601E3,8.657471E2,2.0178406E3,9.097605E2,4.721531E2,3.9359396E2,1.7739695E3,2.4387105E2,5.9651154E2,3.1324896E2,3.1026953E2,1.6188358E2,1.7124928E3,6.1476707E1,2.3803535E2,5.8356824E0,2.7015903E1,5.6949567E2,2.538856E2,5.936335E1,1.4859854E2,1.6167099E2,1.6015298E2,1.7305918E0,1.4226456E2,1.5702283E3,4.5252865E1,1.622384E1,2.3610231E2,1.9330465E0,3.1868095E0,2.6488729E0,1.1195184E1,1.5820721E1,1.9800095E2,3.7149472E2,2.4589787E2,7.987729E0,5.814599E1,1.2173617E0,2.3959843E1,1.24638695E2,1.5559448E2,6.076513E0,1.5771191E2,2.441059E0,1.4107327E2,1.1912823E0,4.0987646E2,1.1603518E3,3.9873924E1,5.378941E0,1.4555488E1,1.6683537E0,2.3122191E2,4.880403E0,4.0140176E0,7.1811657E0,1.9552429E2,2.4766543E0,3.401643E2,3.1330406E1,2.4001616E2,5.881716E0,6.7659626E0,1.2217664E0,5.693627E1,1.2097178E0,1.17239235E2,7.399453E0,1.5188994E2,3.7045374E0,2.2415228E0,3.8349898E0,1.5646846E2,1.2434657E0,1.1994798E0,1.2415793E0,1.3666426E2,4.409009E0,2.756141E2,1.3426236E2,2.6695377E1,1.1336564E3,2.0609785E1,1.926414E1,4.2022095E0,1.1767318E0,1.1468536E2,1.16536545E2,2.8199222E0,2.0604806E0,1.9381944E2,1.7048459E0,3.1762735E2,2.253697E1,2.9095057E1,2.2353494E0,2.3562433E2,4.3918366E0,4.402161E0,1.4795547E0,5.5697998E1,1.238273E0,1.070972E2,1.0142044E1,6.1502223E0,1.2492309E0,1.499011E2,1.9888535E0,1.243242E0,2.4612954E0,1.5522188E2,1.2465739E0,1.3225674E2,4.407524E0,2.862768E0,1.546241E0,1.4527278E2,1.3034134E2,4.0670837E1,9.359152E1,2.5203766E1,1.4916105E0,1.002623E3,1.3103343E2,1.9420315E1,1.1894703E0,1.3221538E1,6.042601E0,1.10885086E2,3.8002753E0,1.1369517E2,2.8413773E0,1.1626163E0,1.6573061E0,1.9100244E2,2.8170042E0,2.9323257E2,2.439477E1,1.964929E1,2.8876789E0,2.3350504E1,5.744554E0,2.2925111E2,6.373208E0,5.445323E1,1.2447655E0,9.837292E1,8.7242775E0,8.657561E0,1.4844822E0,4.9213037E0,1.2289184E0,1.4841582E2,1.4852691E0,1.5373502E2,1.4868672E0],"tree_param":{"num_deleted":"0","num_feature":"8114","num_nodes":"159","size_leaf_vector":"1"}},{"base_weights":[-1.4194482E-3,-3.81801E-1,1.2757734E0,-5.30972E-1,2.0786338E-1,9.8535997E-1,1.22554205E-1,-6.0292774E-1,1.320196E-1,9.246262E-2,1.140497E0,8.0222446E-1,1.3227966E0,-3.4304255E-1,-7.149527E-1,-5.3937954E-1,3.9862823E-1,1.2120417E-1,4.0432733E-2,1.2151438E0,-7.86416E-2,5.103209E-1,1.0824623E0,1.3697752E0,-1.4037898E-1,-1.0144835E0,-1.6981032E-1,-7.388854E-1,1.5156463E-1,-1.0380975E-1,-3.5527158E-1,1.7434992E-1,1.2995133E-1,1.0769131E-1,-6.886286E-1,1.276858E0,-7.701419E-2,1.23172075E-1,2.9143175E-1,1.1514232E0,-5.793292E-1,1.4086119E0,-2.4241568E-1,-7.193234E-1,7.614857E-2,-1.2970729E0,2.9062656E-1,-7.383943E-2,-8.541691E-1,-6.9159317E-1,-1.126145E0,-3.2770982E-1,1.0527947E0,-4.312236E-1,1.0873603E-1,2.7291682E-1,-9.007873E-1,5.657153E-2,1.1583929E0,-8.4241045E-1,1.0949228E-1,1.3182E0,-1.9175638E-2,3.614504E-1,-9.5487215E-2,1.1866685E0,-7.612725E-2,-9.4939405E-1,4.7571752E-2,1.44079E0,-3.4444112E-2,-6.486841E-1,3.7506983E-2,-8.212468E-2,1.4784966E-2,-1.3223261E0,2.798967E-2,1.0311128E0,-9.7565375E-2,-1.2428195E-1,1.4730507E0,-9.389187E-1,7.497286E-2,-1.05139785E-1,-6.65038E-1,-1.1529455E0,9.001688E-2,-4.8821476E-1,1.11763485E-1,1.5380914E0,-2.7439388E-2,-5.2783626E-1,5.981429E-1,1.7542218E-1,1.5780312E0,-1.1622704E0,5.7883795E-2,8.8080585E-2,-1.241524E0,1.4459089E0,-6.329838E-2,-9.6146965E-1,7.403702E-1,1.3566873E0,-2.128982E-2,4.186998E-1,-9.7226374E-2,1.2185017E0,-9.1275275E-2,-1.3386108E-2,-9.2880644E-2,1.4712462E0,-3.749702E-2,-8.210164E-2,6.71819E-3,-1.0116929E-1,1.2939998E-2,-8.72434E-2,1.3350819E-1,5.6232996E-2,-1.5212234E-2,1.2673812E-1,-1.727309E-2,-8.42191E-2,8.396555E-3,7.384157E-2,-5.295698E-2,-8.9240514E-2,1.5483023E-2,-6.7621395E-2,2.8864048E-2,2.48338E-2,1.2469946E-1,6.6707E-2,-8.281097E-2,-4.4766884E-2,7.815504E-2,8.575853E-2,-3.6968477E-2,1.9102413E-2,-8.28647E-2,4.5075536E-2,1.2948972E-1,-9.87489E-2,6.232206E-3,8.796478E-3,-9.429276E-2,-1.0454109E-1,-2.2440366E-3,1.22122385E-1,-5.9780862E-2,-8.113002E-2,6.283007E-2,8.626732E-2,-1.7467826E-3,1.0469996E-1,-1.9834083E-2,3.786041E-2,-6.1745852E-2,9.435443E-2,-4.180476E-2,1.1202646E-1,-5.373429E-2],"categories":[],"categories_nodes":[],"categories_segments":[],"categories_sizes":[],"default_left":[0,0,0,0,0,0,0,0,0,0,0,0,0,0,0,0,0,0,0,0,0,0,0,0,0,0,0,0,0,0,0,0,0,0,0,0,0,0,0,0,0,0,0,0,0,0,0,0,0,0,0,0,0,0,0,0,0,0,0,0,0,0,0,0,0,0,0,0,0,0,0,0,0,0,0,0,0,0,0,0,0,0,0,0,0,0,0,0,0,0,0,0,0,0,0,0,0,0,0,0,0,0,0,0,0,0,0,0,0,0,0,0,0,0,0,0,0,0,0,0,0,0,0,0,0,0,0,0,0,0,0,0,0,0,0,0,0,0,0,0,0,0,0,0,0,0,0,0,0,0,0,0,0,0,0,0,0,0,0,0,0,0,0],"id":5,"left_children":[1,3,5,7,9,11,-1,13,15,17,19,21,23,25,27,29,31,-1,33,35,-1,37,39,41,43,45,47,49,51,-1,53,55,-1,57,59,61,-1,-1,63,65,67,69,71,73,-1,75,77,79,81,83,85,87,89,91,-1,93,95,97,99,101,-1,103,-1,105,-1,107,-1,109,-1,111,-1,113,-1,-1,-1,115,-1,117,-1,119,121,123,-1,-1,125,127,-1,129,-1,131,133,135,137,139,141,143,-1,145,147,149,-1,151,153,155,-1,157,-1,159,-1,-1,-1,161,-1,-1,-1,-1,-1,-1,-1,-1,-1,-1,-1,-1,-1,-1,-1,-1,-1,-1,-1,-1,-1,-1,-1,-1,-1,-1,-1,-1,-1,-1,-1,-1,-1,-1,-1,-1,-1,-1,-1,-1,-1,-1,-1,-1,-1,-1,-1,-1,-1,-1,-1],"loss_changes":[1.8325618E3,2.5576581E2,8.845801E1,1.10754456E2,6.3128983E1,2.86391E1,0E0,6.0688904E1,4.101926E1,4.1467762E1,1.1831169E1,2.5139801E1,1.1708435E1,7.33807E1,3.0423218E1,9.651073E0,4.8688644E1,0E0,2.4967272E1,1.0019585E1,0E0,3.8107197E1,1.8928131E1,1.0510864E1,4.8243623E0,4.8133514E1,3.3030422E1,2.5273438E1,1.7671646E1,0E0,8.15084E0,1.5218273E1,0E0,2.494481E1,1.544136E1,4.2461395E0,0E0,0E0,1.488915E1,1.2912643E1,3.7524893E0,1.0202972E1,1.7342625E0,1.82092E0,0E0,4.99086E0,2.9464798E1,3.4749596E1,1.0659775E1,2.3026978E1,1.0936691E1,8.591005E0,7.467374E0,5.630925E0,0E0,1.62885E1,6.187891E0,1.8314266E1,1.3628336E1,8.395424E0,0E0,4.0994873E0,0E0,1.2581627E1,0E0,1.3062973E1,0E0,1.065855E0,0E0,9.9739685E0,0E0,1.2360585E0,0E0,0E0,0E0,4.417694E0,0E0,2.975538E1,0E0,2.9668869E1,5.5838356E0,1.1666767E1,0E0,0E0,8.37525E1,7.8751526E0,0E0,9.556769E0,0E0,9.215069E-1,6.2863617E0,5.9765472E0,3.5709062E0,1.2690767E1,2.5712967E-1,2.1975698E0,0E0,1.725771E1,1.9175987E0,9.15863E0,0E0,9.205688E0,1.0964314E0,4.1292877E0,0E0,1.36088295E1,0E0,1.1228973E1,0E0,0E0,0E0,8.636993E0,0E0,0E0,0E0,0E0,0E0,0E0,0E0,0E0,0E0,0E0,0E0,0E0,0E0,0E0,0E0,0E0,0E0,0E0,0E0,0E0,0E0,0E0,0E0,0E0,0E0,0E0,0E0,0E0,0E0,0E0,0E0,0E0,0E0,0E0,0E0,0E0,0E0,0E0,0E0,0E0,0E0,0E0,0E0,0E0,0E0,0E0,0E0,0E0,0E0,0E0,0E0],"parents":[2147483647,0,0,1,1,2,2,3,3,4,4,5,5,7,7,8,8,9,9,10,10,11,11,12,12,13,13,14,14,15,15,16,16,18,18,19,19,21,21,22,22,23,23,24,24,25,25,26,26,27,27,28,28,30,30,31,31,33,33,34,34,35,35,38,38,39,39,40,40,41,41,42,42,43,43,45,45,46,46,47,47,48,48,49,49,50,50,51,51,52,52,53,53,55,55,56,56,57,57,58,58,59,59,61,61,63,63,65,65,67,67,69,69,71,71,75,75,77,77,79,79,80,80,81,81,84,84,85,85,87,87,89,89,90,90,91,91,92,92,93,93,94,94,95,95,97,97,98,98,99,99,101,101,102,102,103,103,105,105,107,107,111,111],"right_children":[2,4,6,8,10,12,-1,14,16,18,20,22,24,26,28,30,32,-1,34,36,-1,38,40,42,44,46,48,50,52,-1,54,56,-1,58,60,62,-1,-1,64,66,68,70,72,74,-1,76,78,80,82,84,86,88,90,92,-1,94,96,98,100,102,-1,104,-1,106,-1,108,-1,110,-1,112,-1,114,-1,-1,-1,116,-1,118,-1,120,122,124,-1,-1,126,128,-1,130,-1,132,134,136,138,140,142,144,-1,146,148,150,-1,152,154,156,-1,158,-1,160,-1,-1,-1,162,-1,-1,-1,-1,-1,-1,-1,-1,-1,-1,-1,-1,-1,-1,-1,-1,-1,-1,-1,-1,-1,-1,-1,-1,-1,-1,-1,-1,-1,-1,-1,-1,-1,-1,-1,-1,-1,-1,-1,-1,-1,-1,-1,-1,-1,-1,-1,-1,-1,-1,-1],"split_conditions":[9.375E-1,9.0625E-1,1E0,9.6875E-1,9.84375E-1,9.6875E-1,1.22554205E-1,8.4375E-1,8.59375E-1,8.125E-1,7.7647E-2,9.53125E-1,3.8462E-2,7.03125E-1,3.33333E-1,8.28125E-1,1E0,1.2120417E-1,1.6897E-2,1.5500002E-4,-7.86416E-2,8.75E-1,2.4999999E-2,1.9445E-2,1.7544E-2,8.28125E-1,1.8110014E-3,3.01601E-3,2.1875E-1,-1.0380975E-1,9.901E-3,4.9707003E-2,1.2995133E-1,5.55556E-1,1.46853E-1,6.522E-3,-7.701419E-2,1.23172075E-1,8.621E-3,6.993E-3,3.3954997E-2,5.5556E-2,5.45E-3,1.08059004E-1,7.614857E-2,1.71429E-1,6.71875E-1,2.08333E-1,3.8961E-2,6.71875E-1,1.73913E-1,1.48148E-1,1.45299E-1,1.6393E-2,1.0873603E-1,7.64706E-1,3.4325E-2,6.5359995E-3,4.8077002E-2,1.087E-2,1.0949228E-1,4.425E-3,-1.9175638E-2,2.4800003E-4,-9.5487215E-2,5.2632E-2,-7.612725E-2,5.128E-3,4.7571752E-2,6.5789E-2,-3.4444112E-2,7.1429014E-2,3.7506983E-2,-8.212468E-2,1.4784966E-2,6.3636E-2,2.798967E-2,4.53125E-1,-9.7565375E-2,7.1875E-1,3.46154E-1,1.79487E-1,7.497286E-2,-1.05139785E-1,7.1875E-1,8E-2,9.001688E-2,8.75E-1,1.11763485E-1,8.197E-3,1.11111E-1,6.024E-3,3.7037E-2,3.9519966E-3,1.2529939E-3,3.861E-3,5.7883795E-2,1.4034998E-2,6.7797E-2,2.82609E-1,-6.329838E-2,7.0833E-2,7.8947E-2,2.457E-3,-2.128982E-2,1.0753E-2,-9.7226374E-2,1.1159001E-2,-9.1275275E-2,-1.3386108E-2,-9.2880644E-2,3.8462E-2,-3.749702E-2,-8.210164E-2,6.71819E-3,-1.0116929E-1,1.2939998E-2,-8.72434E-2,1.3350819E-1,5.6232996E-2,-1.5212234E-2,1.2673812E-1,-1.727309E-2,-8.42191E-2,8.396555E-3,7.384157E-2,-5.295698E-2,-8.9240514E-2,1.5483023E-2,-6.7621395E-2,2.8864048E-2,2.48338E-2,1.2469946E-1,6.6707E-2,-8.281097E-2,-4.4766884E-2,7.815504E-2,8.575853E-2,-3.6968477E-2,1.9102413E-2,-8.28647E-2,4.5075536E-2,1.2948972E-1,-9.87489E-2,6.232206E-3,8.796478E-3,-9.429276E-2,-1.0454109E-1,-2.2440366E-3,1.22122385E-1,-5.9780862E-2,-8.113002E-2,6.283007E-2,8.626732E-2,-1.7467826E-3,1.0469996E-1,-1.9834083E-2,3.786041E-2,-6.1745852E-2,9.435443E-2,-4.180476E-2,1.1202646E-1,-5.373429E-2],"split_indices":[0,0,1,1,1,0,0,1,0,1,8042,1,7106,0,5318,0,1,0,6889,6059,0,1,6889,7988,1596,1,7208,5596,4199,0,2920,6872,0,403,6897,7002,0,0,7468,1244,6998,7093,5080,7106,0,3299,0,1800,5753,0,5315,1475,7207,1703,0,2944,7124,5833,8016,611,0,5251,0,6005,0,5468,0,2630,0,7209,0,7988,0,0,0,4206,0,0,0,1,7111,1703,0,0,0,4346,0,0,0,5364,8038,193,7111,6879,6998,1575,0,8093,4163,1592,0,8036,1800,5383,0,1613,0,6040,0,0,0,1980,0,0,0,0,0,0,0,0,0,0,0,0,0,0,0,0,0,0,0,0,0,0,0,0,0,0,0,0,0,0,0,0,0,0,0,0,0,0,0,0,0,0,0,0,0,0,0,0,0,0,0],"split_type":[0,0,0,0,0,0,0,0,0,0,0,0,0,0,0,0,0,0,0,0,0,0,0,0,0,0,0,0,0,0,0,0,0,0,0,0,0,0,0,0,0,0,0,0,0,0,0,0,0,0,0,0,0,0,0,0,0,0,0,0,0,0,0,0,0,0,0,0,0,0,0,0,0,0,0,0,0,0,0,0,0,0,0,0,0,0,0,0,0,0,0,0,0,0,0,0,0,0,0,0,0,0,0,0,0,0,0,0,0,0,0,0,0,0,0,0,0,0,0,0,0,0,0,0,0,0,0,0,0,0,0,0,0,0,0,0,0,0,0,0,0,0,0,0,0,0,0,0,0,0,0,0,0,0,0,0,0,0,0,0,0,0,0],"sum_hessian":[3.770093E3,2.905469E3,8.646239E2,2.3189338E3,5.865353E2,4.796135E2,3.8501044E2,2.091978E3,2.269557E2,5.229291E2,6.3606224E1,3.1307632E2,1.6653717E2,6.313591E2,1.460619E3,6.421651E1,1.627392E2,1.6275415E1,5.0665363E2,6.1939003E1,1.6672235E0,1.5472818E2,1.5834816E2,1.614183E2,5.1188645E0,1.2848814E2,5.028709E2,1.4215051E3,3.911384E1,1.0324788E1,5.3891716E1,1.4028543E2,2.2453758E1,4.6464108E2,4.2012554E1,6.069867E1,1.2403333E0,2.4017925E1,1.3071025E2,1.5233374E2,6.014415E0,1.577446E2,3.6737056E0,3.6619792E0,1.4568856E0,1.05624016E2,2.2864124E1,4.4199567E2,6.0875267E1,1.2692855E3,1.5221959E2,2.5949997E1,1.3163842E1,5.2446064E1,1.4456501E0,1.2918785E2,1.1097586E1,4.4408868E2,2.0552402E1,3.9773647E1,2.2389076E0,5.9240437E1,1.4582305E0,1.2584732E2,4.862931E0,1.5034016E2,1.993581E0,4.7758484E0,1.2385666E0,1.5529788E2,2.4467056E0,2.4561622E0,1.2175431E0,2.4591238E0,1.2028552E0,1.0425606E2,1.3679584E0,1.5844274E1,7.019851E0,4.289284E2,1.3067264E1,5.868587E1,2.1893969E0,4.3878475E1,1.2254071E3,1.509846E2,1.2349898E0,2.4516802E1,1.4331964E0,8.790739E0,4.3731027E0,4.8391438E1,4.054626E0,1.21263626E2,7.924225E0,9.861048E0,1.2365377E0,4.344747E2,9.613986E0,1.821487E1,2.337531E0,3.7356197E1,2.417447E0,5.8000225E1,1.240212E0,1.2236896E2,3.478369E0,1.4886177E2,1.4783928E0,1.7433136E0,3.0325348E0,1.5313664E2,2.161249E0,1.2301793E0,1.2259829E0,1.025294E2,1.7266576E0,3.8911564E0,1.1953117E1,3.466309E1,3.942653E2,1.1598969E1,1.4682941E0,4.9883045E1,8.802828E0,2.9199238E1,1.1962079E3,1.4711296E2,3.8716443E0,1.6616213E1,7.900588E0,1.1646118E0,7.6261277E0,2.455807E0,1.9172957E0,4.6946205E1,1.445236E0,2.671437E0,1.3831891E0,1.1494704E2,6.3165894E0,1.7114184E0,6.2128067E0,8.722523E0,1.1385252E0,4.261364E2,8.338267E0,8.4064455E0,1.2075403E0,1.7098545E1,1.1163265E0,3.538944E1,1.9667594E0,1.2437261E0,1.1737211E0,5.6762634E1,1.2375916E0,1.1499029E2,7.3786645E0,1.4590343E2,2.9583337E0,1.5189584E2,1.2407995E0],"tree_param":{"num_deleted":"0","num_feature":"8114","num_nodes":"163","size_leaf_vector":"1"}},{"base_weights":[-7.4451007E-3,-3.2727408E-1,9.682525E-1,-3.8722688E-1,2.1552308E-1,4.790557E-1,1.4315661E0,-3.3481175E-1,-1.0066379E0,2.8354174E-1,-8.158884E-1,5.556207E-1,-7.901148E-1,1.4422405E0,-7.5029336E-2,-3.6706966E-1,4.2485526E-1,-1.1610292E0,-3.165654E-1,3.31673E-1,-1.1219237E0,-1.0491787E0,8.1597984E-2,5.892349E-1,-1.1500658E0,-1.0853097E0,3.7939972E-1,1.4515133E0,-7.126738E-2,-1.047732E-1,-3.4977078E-1,8.786247E-1,-3.143728E-1,-1.2233772E0,2.663965E-1,2.4516654E-1,-1.3169972E0,3.738049E-1,-1.079956E0,-9.581631E-2,-1.3300591E-2,-1.2493334E0,5.753597E-2,6.2533677E-1,-9.4326E-1,-1.0346072E-1,8.530027E-3,-1.3070077E0,4.1621994E-2,8.917032E-2,-7.297586E-2,1.458015E0,-4.5090813E-2,-1.1994414E-1,-4.3339056E-1,1.0664829E0,-8.7439907E-1,7.968476E-2,-1.01951584E-1,-1.2613386E0,4.1598687E-1,-5.8275074E-1,1.2148424E0,-4.8703066E-1,1.5162191E0,-1.0409106E-1,-1.8347258E-2,4.188696E-1,-8.5455084E-1,-1.2970732E0,5.2620736E-3,-1.4237887E0,8.408724E-3,6.624703E-1,-7.7916193E-1,-1.1842476E0,3.318479E-2,-1.399601E0,4.3205717E-3,1.4641511E0,-4.0249605E-2,-6.1929293E-2,-1.0431032E0,-3.9876685E-1,-9.7741336E-1,-2.0308077E-1,1.3220834E0,-8.941034E-2,1.9008944E-2,1.0679424E0,-7.244544E-1,-1.2851957E0,5.6450773E-2,8.1117555E-2,-5.797288E-2,-7.448283E-2,2.3346527E-3,1.1122606E-1,2.4533069E-2,-1.1623787E0,4.6860215E-1,-4.1968253E-2,1.5049511E-1,4.5738494E-1,-9.6157986E-1,-9.120548E-2,2.6527653E-2,-1.06738254E-1,-2.8789118E-2,-1.11284345E-1,-3.090378E-2,6.943711E-1,-9.4174993E-1,-1.0256584E0,3.6206618E-2,-1.0619245E-1,1.0125995E-2,-1.1230502E-1,-2.353426E-3,1.4690695E0,-1.9429177E-2,-1.0514692E-3,-7.071879E-2,-8.510731E-2,6.1464053E-2,-2.749095E-2,-7.765824E-2,-7.803188E-2,6.118162E-2,-5.1835034E-2,7.876628E-2,1.0656361E-1,-6.740525E-2,1.1483874E-1,-4.93692E-2,4.2862475E-2,-7.453939E-2,-9.818216E-2,3.1165222E-2,-2.6338192E-2,-9.9300936E-2,1.1273181E-1,-8.034429E-2,3.679163E-2,-8.2551666E-2,-8.741484E-2,9.0878595E-5,5.4622263E-2,-5.4977756E-2,-8.915293E-2,2.0268675E-2,-8.592026E-2,-8.31088E-3,1.1054236E-1,-1.7703913E-2],"categories":[],"categories_nodes":[],"categories_segments":[],"categories_sizes":[],"default_left":[0,0,0,0,0,0,0,0,0,0,0,0,0,0,0,0,0,0,0,0,0,0,0,0,0,0,0,0,0,0,0,0,0,0,0,0,0,0,0,0,0,0,0,0,0,0,0,0,0,0,0,0,0,0,0,0,0,0,0,0,0,0,0,0,0,0,0,0,0,0,0,0,0,0,0,0,0,0,0,0,0,0,0,0,0,0,0,0,0,0,0,0,0,0,0,0,0,0,0,0,0,0,0,0,0,0,0,0,0,0,0,0,0,0,0,0,0,0,0,0,0,0,0,0,0,0,0,0,0,0,0,0,0,0,0,0,0,0,0,0,0,0,0,0,0,0,0,0,0,0,0,0,0,0,0],"id":6,"left_children":[1,3,5,7,9,11,13,15,17,19,21,23,25,27,-1,29,31,33,35,37,39,41,-1,43,45,47,49,51,-1,-1,53,55,57,59,61,63,65,67,69,-1,-1,71,-1,73,75,-1,-1,77,-1,-1,-1,79,-1,81,83,85,87,89,-1,91,93,95,97,99,101,-1,-1,103,105,107,-1,109,-1,111,113,115,-1,117,-1,119,-1,121,123,125,127,129,131,-1,-1,133,135,137,-1,-1,-1,-1,-1,-1,-1,139,141,-1,-1,143,145,-1,-1,-1,-1,-1,-1,147,149,151,-1,-1,-1,-1,-1,153,-1,-1,-1,-1,-1,-1,-1,-1,-1,-1,-1,-1,-1,-1,-1,-1,-1,-1,-1,-1,-1,-1,-1,-1,-1,-1,-1,-1,-1,-1,-1,-1,-1,-1,-1],"loss_changes":[1.1545762E3,9.076166E1,2.063382E2,8.11434E1,1.9720524E1,4.3758568E1,1.3607727E1,5.6894806E1,2.0440414E1,1.8052029E1,8.88957E0,2.4816849E1,9.310568E0,1.1739075E1,0E0,3.9091858E1,3.206809E1,1.4496201E1,2.1161922E1,1.5478958E1,1.0791378E0,6.7931423E0,0E0,2.3469452E1,2.6141796E0,8.30378E0,7.655574E0,7.089905E0,0E0,0E0,4.1963135E1,2.0359436E1,1.52561245E1,1.0029907E1,6.735931E0,2.3624134E1,6.8598175E-1,1.4023605E1,1.989584E0,0E0,0E0,3.683567E0,0E0,2.1619003E1,3.8355236E0,0E0,0E0,2.4380093E0,0E0,0E0,0E0,6.4697266E0,0E0,3.1245613E1,2.9797272E1,1.770451E1,2.5452223E0,2.275284E1,0E0,8.151978E0,4.166606E0,1.1959642E0,4.3378544E-1,1.1102941E1,1.0519564E1,0E0,0E0,1.3136738E1,4.38998E0,1.9615173E-1,0E0,1.9142914E-1,0E0,2.08553E1,3.880033E0,2.855898E0,0E0,2.2961693E0,0E0,4.3065796E0,0E0,2.324802E1,6.8208275E0,3.0564453E1,1.1605957E1,6.7641144E0,1.1116524E1,0E0,0E0,1.1253228E1,6.100032E0,6.5657196E0,0E0,0E0,0E0,0E0,0E0,0E0,0E0,8.2954216E-1,1.35364065E1,0E0,0E0,1.2581787E1,1.3375216E0,0E0,0E0,0E0,0E0,0E0,0E0,1.930481E1,2.751958E0,9.0712357E-1,0E0,0E0,0E0,0E0,0E0,4.1521606E0,0E0,0E0,0E0,0E0,0E0,0E0,0E0,0E0,0E0,0E0,0E0,0E0,0E0,0E0,0E0,0E0,0E0,0E0,0E0,0E0,0E0,0E0,0E0,0E0,0E0,0E0,0E0,0E0,0E0,0E0,0E0,0E0,0E0,0E0,0E0],"parents":[2147483647,0,0,1,1,2,2,3,3,4,4,5,5,6,6,7,7,8,8,9,9,10,10,11,11,12,12,13,13,15,15,16,16,17,17,18,18,19,19,20,20,21,21,23,23,24,24,25,25,26,26,27,27,30,30,31,31,32,32,33,33,34,34,35,35,36,36,37,37,38,38,41,41,43,43,44,44,47,47,51,51,53,53,54,54,55,55,56,56,57,57,59,59,60,60,61,61,62,62,63,63,64,64,67,67,68,68,69,69,71,71,73,73,74,74,75,75,77,77,79,79,81,81,82,82,83,83,84,84,85,85,86,86,89,89,90,90,91,91,99,99,100,100,103,103,104,104,111,111,112,112,113,113,119,119],"right_children":[2,4,6,8,10,12,14,16,18,20,22,24,26,28,-1,30,32,34,36,38,40,42,-1,44,46,48,50,52,-1,-1,54,56,58,60,62,64,66,68,70,-1,-1,72,-1,74,76,-1,-1,78,-1,-1,-1,80,-1,82,84,86,88,90,-1,92,94,96,98,100,102,-1,-1,104,106,108,-1,110,-1,112,114,116,-1,118,-1,120,-1,122,124,126,128,130,132,-1,-1,134,136,138,-1,-1,-1,-1,-1,-1,-1,140,142,-1,-1,144,146,-1,-1,-1,-1,-1,-1,148,150,152,-1,-1,-1,-1,-1,154,-1,-1,-1,-1,-1,-1,-1,-1,-1,-1,-1,-1,-1,-1,-1,-1,-1,-1,-1,-1,-1,-1,-1,-1,-1,-1,-1,-1,-1,-1,-1,-1,-1,-1,-1],"split_conditions":[9.6875E-1,9.53125E-1,1E0,7.842999E-3,2.9762E-2,4.7877E-2,7.842999E-3,1E0,9.6774E-2,1.8647999E-2,1E-2,4.9767E-2,4.2734995E-2,3.1590015E-2,-7.5029336E-2,6.875E-1,6.6728994E-2,6.3291E-2,1.6883105E-1,4.1799992E-4,1.45455E-1,4.1667E-2,8.1597984E-2,2.8571E-2,9.375E-2,7.1429E-2,5.2631002E-2,4.7799945E-4,-7.126738E-2,-1.047732E-1,8.4375E-1,1.6666701E-1,1.4979998E-3,1.42857E-1,1.6667008E-2,2.86667E-1,2.7479E-2,4.3478E-2,7.812E-3,-9.581631E-2,-1.3300591E-2,2.6000012E-4,5.753597E-2,6.0605973E-2,3.3333E-2,-1.0346072E-1,8.530027E-3,7.8431E-2,4.1621994E-2,8.917032E-2,-7.297586E-2,7.937E-3,-4.5090813E-2,1.4034998E-2,4.5289993E-3,2.26562E-1,1.07843E-1,5.392E-3,-1.01951584E-1,3.4483E-2,1.02041E-1,1.03448E-1,8.333E-3,1.37931E-1,2.86667E-1,-1.0409106E-1,-1.8347258E-2,7.1429E-2,6.3636E-2,6.25E-2,5.2620736E-3,3.6E-1,8.408724E-3,3.4188002E-2,6E-1,3.10345E-1,3.318479E-2,6.3291E-2,4.3205717E-3,6.92308E-1,-4.0249605E-2,2.833E-3,2.833E-3,9.80401E-3,2E-1,8.8235E-2,8.3334E-2,-8.941034E-2,1.9008944E-2,8.90625E-1,8.75E-1,1.03448E-1,5.6450773E-2,8.1117555E-2,-5.797288E-2,-7.448283E-2,2.3346527E-3,1.1122606E-1,2.4533069E-2,5.115E-3,1.9022E-2,-4.1968253E-2,1.5049511E-1,4.8226E-2,3.5399944E-4,-9.120548E-2,2.6527653E-2,-1.06738254E-1,-2.8789118E-2,-1.11284345E-1,-3.090378E-2,3.5714E-2,1.94444E-1,1.2048E-2,3.6206618E-2,-1.0619245E-1,1.0125995E-2,-1.1230502E-1,-2.353426E-3,1.4270004E-3,-1.9429177E-2,-1.0514692E-3,-7.071879E-2,-8.510731E-2,6.1464053E-2,-2.749095E-2,-7.765824E-2,-7.803188E-2,6.118162E-2,-5.1835034E-2,7.876628E-2,1.0656361E-1,-6.740525E-2,1.1483874E-1,-4.93692E-2,4.2862475E-2,-7.453939E-2,-9.818216E-2,3.1165222E-2,-2.6338192E-2,-9.9300936E-2,1.1273181E-1,-8.034429E-2,3.679163E-2,-8.2551666E-2,-8.741484E-2,9.0878595E-5,5.4622263E-2,-5.4977756E-2,-8.915293E-2,2.0268675E-2,-8.592026E-2,-8.31088E-3,1.1054236E-1,-1.7703913E-2],"split_indices":[1,1,1,5799,6897,6896,7002,3413,342,7600,136,6480,5750,7357,0,1,5752,2604,7027,5487,1287,4274,0,6876,5390,2899,7103,7988,0,0,1,7080,7201,1960,6998,4556,7372,6900,56,0,0,6901,0,7000,293,0,0,6887,0,0,0,6891,0,7210,7012,4662,7111,7228,0,1323,2605,391,6977,1672,1852,0,0,6913,4195,3982,0,2630,0,6888,1488,1468,0,5335,0,1535,0,6886,2841,6376,4403,3056,7190,0,0,1,660,3034,0,0,0,0,0,0,0,1587,7215,0,0,6876,7008,0,0,0,0,0,0,6868,6888,4658,0,0,0,0,0,8059,0,0,0,0,0,0,0,0,0,0,0,0,0,0,0,0,0,0,0,0,0,0,0,0,0,0,0,0,0,0,0,0,0,0,0],"split_type":[0,0,0,0,0,0,0,0,0,0,0,0,0,0,0,0,0,0,0,0,0,0,0,0,0,0,0,0,0,0,0,0,0,0,0,0,0,0,0,0,0,0,0,0,0,0,0,0,0,0,0,0,0,0,0,0,0,0,0,0,0,0,0,0,0,0,0,0,0,0,0,0,0,0,0,0,0,0,0,0,0,0,0,0,0,0,0,0,0,0,0,0,0,0,0,0,0,0,0,0,0,0,0,0,0,0,0,0,0,0,0,0,0,0,0,0,0,0,0,0,0,0,0,0,0,0,0,0,0,0,0,0,0,0,0,0,0,0,0,0,0,0,0,0,0,0,0,0,0,0,0,0,0,0,0],"sum_hessian":[3.6978809E3,2.7854788E3,9.1240204E2,2.508678E3,2.7680084E2,4.4479373E2,4.6760828E2,2.314374E3,1.9430392E2,2.6035617E2,1.6444662E1,4.2001764E2,2.4776089E1,4.6597E2,1.6382895E0,2.2205972E3,9.377689E1,1.5822209E2,3.6081825E1,2.5247401E2,7.882157E0,1.5049488E1,1.3951738E0,4.1254214E2,7.475489E0,1.984025E1,4.93584E0,4.645627E2,1.4072679E0,3.5364758E1,2.1852324E3,5.7990997E1,3.5785896E1,1.5173737E2,6.4847326E0,2.3590786E1,1.249104E1,2.4587088E2,6.6031365E0,6.464568E0,1.417589E0,1.38368635E1,1.2126247E0,4.0362567E2,8.916493E0,6.2495184E0,1.2259707E0,1.7656923E1,2.183325E0,3.1632378E0,1.7726023E0,4.6338477E2,1.177961E0,5.836155E2,1.6016168E3,5.273177E1,5.2592287E0,2.66573E1,9.128594E0,1.4852861E2,3.2087502E0,3.6249099E0,2.8598228E0,1.5359618E1,8.231168E0,1.1440594E1,1.0504463E0,2.378055E2,8.06538E0,5.4470725E0,1.1560643E0,1.222462E1,1.6122432E0,3.937438E2,9.881866E0,7.719423E0,1.1970704E0,1.6510967E1,1.1459572E0,4.622288E2,1.155984E0,5.5011145E2,3.350403E1,1.5074124E3,9.4204544E1,8.871692E0,4.3860077E1,4.058787E0,1.200442E0,1.18123255E1,1.48449745E1,1.4714745E2,1.3811716E0,2.1150603E0,1.0936899E0,1.8023562E0,1.8225536E0,1.6813512E0,1.1784714E0,8.872826E0,6.4867926E0,1.5459659E0,6.6852016E0,2.320012E2,5.8042955E0,6.202925E0,1.8624543E0,4.295501E0,1.1515712E0,1.1099756E1,1.1248637E0,3.8662274E2,7.121046E0,8.423655E0,1.4582119E0,6.5041027E0,1.21532E0,1.5321395E1,1.1895719E0,4.610603E2,1.1684679E0,5.227019E2,2.7409555E1,3.2305046E1,1.1989805E0,1.4362998E3,7.1112465E1,9.141212E1,2.79243E0,6.7080317E0,2.1636603E0,4.2337452E1,1.5226254E0,9.402149E0,2.4101765E0,2.3618891E0,1.2483086E1,1.4533539E2,1.8120636E0,2.0013201E0,6.8715057E0,3.8943906E0,2.592402E0,2.2783592E2,4.1652846E0,4.615916E0,1.1883795E0,3.781255E2,8.497271E0,5.9316397E0,1.1894064E0,7.2242513E0,1.1994034E0,4.598936E2,1.1667349E0],"tree_param":{"num_deleted":"0","num_feature":"8114","num_nodes":"155","size_leaf_vector":"1"}},{"base_weights":[1.2103121E-3,-3.4026998E-1,1.173817E0,-5.816004E-1,-2.3971511E-2,9.15944E-1,1.1262986E-1,-3.43436E-1,-6.921133E-1,1.4095889E-1,-7.6439776E-2,9.694693E-1,-1.2240887E-1,-7.168609E-1,2.7205281E-2,-3.490446E-1,-7.5265276E-1,-1.8692483E-1,8.8531303E-1,8.631171E-1,1.4042923E0,4.0841052E-1,-1.0899069E0,-8.3852684E-1,1.0637337E0,-9.910868E-2,1.22584276E-1,-1.01228215E-1,3.191765E-2,-8.8267833E-1,-5.565899E-1,-4.2383242E-1,7.249174E-2,9.714275E-1,-5.77435E-1,8.9199275E-1,-8.7849754E-1,1.4359884E0,-3.369163E-2,8.2517785E-1,-8.221591E-2,-1.00418225E-1,2.152678E-2,-5.0508E-1,-9.908544E-1,1.3262836E0,-7.626025E-2,2.3843333E-1,-8.8574207E-1,-9.974793E-1,3.354032E-1,-8.9723843E-1,4.7794583E-1,-1.083905E-1,-4.680125E-1,-5.827907E-1,4.401674E-2,1.4656076E-1,-5.9967387E-1,1.0193309E0,-9.1113865E-2,2.238767E-1,-9.0013884E-2,9.1843206E-1,-8.850644E-1,-1.03476524E-1,-4.991156E-2,1.4671576E0,-1.5936768E-2,1.1015724E0,-5.9939027E-2,-1.0159815E-1,2.3321496E-1,-1.10443614E-1,-6.922229E-1,1.528311E0,-4.0940277E-2,2.97553E-1,-1.1510383E0,-1.0065025E0,5.0046586E-2,7.2965175E-2,-1.081432E-1,1.3722969E0,-1.6833666E-1,-9.0922374E-1,6.6080374E-1,1.0809345E0,-5.2736826E-2,4.9869478E-1,-6.248431E-1,-6.034461E-1,1.2081444E0,-3.904728E-1,4.0587816E-1,8.605154E-2,9.080684E-1,-2.4586758E-1,-1.0217242E0,1.0638475E0,-9.0630636E-2,-3.4424532E-2,7.599051E-2,9.572426E-1,-3.3174697E-1,-9.3428165E-2,1.7347137E-2,-7.4964516E-2,6.990455E-2,1.5054705E0,1.6309313E-3,1.2785399E0,-1.6195342E-2,5.020534E-2,-1.1081868E-1,-8.797911E-2,-1.4277925E-2,1.2689056E-1,-7.3769446E-3,2.7574124E-2,-6.9896095E-2,-9.956915E-2,8.7291875E-4,-8.537565E-2,3.6555696E-2,3.7977338E-2,-8.741011E-2,1.1432995E-1,-6.9002025E-2,-5.2435312E-2,1.13005236E-1,-6.885045E-2,7.5013585E-2,-4.605592E-2,1.21255316E-1,1.1644076E-2,9.910259E-2,6.6656694E-2,-2.7364666E-2,-5.9478402E-2,-1.5873719E-2,-4.710244E-2,5.090811E-2,1.17701836E-1,-8.280666E-4,-3.4399394E-2,8.4048875E-2,3.6699176E-2,-8.657717E-2,8.703922E-3,-9.56767E-2,9.897413E-2,-4.243025E-2,-4.453005E-2,5.0035674E-2,2.5317911E-2,-9.63096E-2,8.296792E-2,-8.224368E-2,7.4043766E-2,-5.5830453E-2,-4.8895027E-2,6.986354E-2,1.14627324E-1,-1.421941E-3,1.0514713E-1,1.1545426E-2],"categories":[],"categories_nodes":[],"categories_segments":[],"categories_sizes":[],"default_left":[0,0,0,0,0,0,0,0,0,0,0,0,0,0,0,0,0,0,0,0,0,0,0,0,0,0,0,0,0,0,0,0,0,0,0,0,0,0,0,0,0,0,0,0,0,0,0,0,0,0,0,0,0,0,0,0,0,0,0,0,0,0,0,0,0,0,0,0,0,0,0,0,0,0,0,0,0,0,0,0,0,0,0,0,0,0,0,0,0,0,0,0,0,0,0,0,0,0,0,0,0,0,0,0,0,0,0,0,0,0,0,0,0,0,0,0,0,0,0,0,0,0,0,0,0,0,0,0,0,0,0,0,0,0,0,0,0,0,0,0,0,0,0,0,0,0,0,0,0,0,0,0,0,0,0,0,0,0,0,0,0,0,0,0,0,0,0],"id":7,"left_children":[1,3,5,7,9,11,-1,13,15,-1,17,19,21,23,25,27,29,31,33,35,37,39,41,43,45,-1,47,-1,49,51,53,55,57,59,61,63,65,67,-1,69,-1,-1,-1,71,73,75,-1,77,79,81,83,85,87,-1,89,91,93,95,97,99,-1,101,-1,103,105,-1,107,109,-1,111,-1,-1,113,-1,115,117,-1,119,121,123,-1,125,-1,127,129,131,133,135,-1,137,139,141,143,145,147,149,151,153,155,157,-1,-1,-1,159,161,-1,-1,-1,-1,163,-1,165,-1,-1,-1,-1,-1,-1,-1,-1,-1,-1,-1,-1,-1,-1,-1,-1,-1,-1,-1,-1,-1,-1,-1,-1,-1,-1,-1,-1,-1,-1,-1,-1,-1,-1,-1,-1,-1,-1,-1,-1,-1,-1,-1,-1,-1,-1,-1,-1,-1,-1,-1,-1,-1,-1,-1],"loss_changes":[1.4695887E3,2.1695065E2,6.861804E1,4.2195923E1,1.2309881E2,2.601355E1,0E0,7.101813E1,2.2588257E1,0E0,1.2758045E2,1.9282959E1,1.2630945E1,5.6256454E1,3.3401928E1,6.3666073E1,2.3328003E1,6.618161E1,1.6146545E1,1.8822174E1,5.6681824E0,1.096855E1,3.359908E0,1.1678528E1,1.051796E1,0E0,2.8509958E1,0E0,3.8402374E1,1.1524292E1,2.8861443E1,4.187542E1,2.5709515E1,1.3515274E1,4.014536E0,1.7414001E1,2.5697389E0,4.643341E0,0E0,6.7790375E0,0E0,0E0,0E0,4.8755444E1,2.250853E1,6.6359673E0,0E0,1.8256577E1,5.3934574E0,1.3424223E1,4.9777004E1,1.0955109E1,5.447953E0,0E0,5.2272774E1,1.6269485E1,2.2742178E1,2.131836E1,7.4056625E0,1.2715553E1,0E0,2.6886878E0,0E0,1.7233887E1,2.5786285E0,0E0,4.132198E0,4.5561066E0,0E0,2.991969E0,0E0,0E0,3.2459908E1,0E0,2.4594463E1,3.9201279E0,0E0,1.8440292E1,1.8845663E0,5.234398E0,0E0,5.5095463E0,0E0,1.2254604E1,5.8608772E1,1.0152313E1,6.857154E0,8.524246E-1,0E0,1.6626215E1,2.035788E1,1.3539917E1,2.2734122E0,7.2917128E0,1.0831872E1,1.7767033E1,2.1417364E1,9.673515E0,8.66091E0,1.1610458E1,0E0,0E0,0E0,1.8014679E1,5.1536775E0,0E0,0E0,0E0,0E0,2.8457336E0,0E0,1.229578E0,0E0,0E0,0E0,0E0,0E0,0E0,0E0,0E0,0E0,0E0,0E0,0E0,0E0,0E0,0E0,0E0,0E0,0E0,0E0,0E0,0E0,0E0,0E0,0E0,0E0,0E0,0E0,0E0,0E0,0E0,0E0,0E0,0E0,0E0,0E0,0E0,0E0,0E0,0E0,0E0,0E0,0E0,0E0,0E0,0E0,0E0,0E0,0E0,0E0,0E0,0E0,0E0,0E0,0E0,0E0],"parents":[2147483647,0,0,1,1,2,2,3,3,4,4,5,5,7,7,8,8,10,10,11,11,12,12,13,13,14,14,15,15,16,16,17,17,18,18,19,19,20,20,21,21,22,22,23,23,24,24,26,26,28,28,29,29,30,30,31,31,32,32,33,33,34,34,35,35,36,36,37,37,39,39,43,43,44,44,45,45,47,47,48,48,49,49,50,50,51,51,52,52,54,54,55,55,56,56,57,57,58,58,59,59,61,61,63,63,64,64,66,66,67,67,69,69,72,72,74,74,75,75,77,77,78,78,79,79,81,81,83,83,84,84,85,85,86,86,87,87,89,89,90,90,91,91,92,92,93,93,94,94,95,95,96,96,97,97,98,98,99,99,103,103,104,104,109,109,111,111],"right_children":[2,4,6,8,10,12,-1,14,16,-1,18,20,22,24,26,28,30,32,34,36,38,40,42,44,46,-1,48,-1,50,52,54,56,58,60,62,64,66,68,-1,70,-1,-1,-1,72,74,76,-1,78,80,82,84,86,88,-1,90,92,94,96,98,100,-1,102,-1,104,106,-1,108,110,-1,112,-1,-1,114,-1,116,118,-1,120,122,124,-1,126,-1,128,130,132,134,136,-1,138,140,142,144,146,148,150,152,154,156,158,-1,-1,-1,160,162,-1,-1,-1,-1,164,-1,166,-1,-1,-1,-1,-1,-1,-1,-1,-1,-1,-1,-1,-1,-1,-1,-1,-1,-1,-1,-1,-1,-1,-1,-1,-1,-1,-1,-1,-1,-1,-1,-1,-1,-1,-1,-1,-1,-1,-1,-1,-1,-1,-1,-1,-1,-1,-1,-1,-1,-1,-1,-1,-1,-1,-1],"split_conditions":[9.375E-1,8.75E-1,1E0,8.4375E-1,7.8125E-1,2.4999999E-2,1.1262986E-1,7.8125E-1,7.8125E-1,1.4095889E-1,9.84375E-1,9.84375E-1,2.5640994E-2,8.59375E-1,5.3125E-1,6.71875E-1,9.21875E-1,9.0625E-1,5.519986E-4,3.4723E-2,1.2986988E-2,4.7699995E-3,9.5238E-2,7.1875E-1,7.812E-3,-9.910868E-2,4.525006E-3,-1.01228215E-1,8.59375E-1,1E0,8.125E-1,9.53125E-1,2.7450979E-2,5.9499964E-4,1.1127001E-2,6.3492E-2,9.53125E-1,1.3889E-2,-3.369163E-2,7.519E-3,-8.221591E-2,-1.00418225E-1,2.152678E-2,6.875E-1,7.5E-1,3.8299896E-4,-7.626025E-2,7.519E-3,3.7037E-2,7.03125E-1,8.75E-1,2.96296E-1,3.03031E-1,-1.083905E-1,8.28125E-1,8.88889E-1,8.90625E-1,9.259E-3,2.857098E-2,1.5151024E-2,-9.1113865E-2,4.008E-3,-9.0013884E-2,2.1427989E-2,7.576E-3,-1.03476524E-1,9.375E-1,2E-2,-1.5936768E-2,1.17647E-1,-5.9939027E-2,-1.0159815E-1,7.65625E-1,-1.10443614E-1,7.34375E-1,2.1700002E-4,-4.0940277E-2,2.833E-3,1.6349E-2,5.5556E-2,5.0046586E-2,1.0960028E-3,-1.081432E-1,1.4881E-2,7.65625E-1,5.38462E-1,3.861E-3,1.1364E-2,-5.2736826E-2,9.53125E-1,9.6875E-1,8.1081E-2,1.5070066E-3,7.937E-3,9.1345996E-2,1.8796999E-2,2.3511E-2,1.9046992E-2,1.2539007E-2,9.769993E-4,-9.0630636E-2,-3.4424532E-2,7.599051E-2,3.6239997E-3,1.32075E-1,-9.3428165E-2,1.7347137E-2,-7.4964516E-2,6.990455E-2,1.71429E-1,1.6309313E-3,5.4054E-2,-1.6195342E-2,5.020534E-2,-1.1081868E-1,-8.797911E-2,-1.4277925E-2,1.2689056E-1,-7.3769446E-3,2.7574124E-2,-6.9896095E-2,-9.956915E-2,8.7291875E-4,-8.537565E-2,3.6555696E-2,3.7977338E-2,-8.741011E-2,1.1432995E-1,-6.9002025E-2,-5.2435312E-2,1.13005236E-1,-6.885045E-2,7.5013585E-2,-4.605592E-2,1.21255316E-1,1.1644076E-2,9.910259E-2,6.6656694E-2,-2.7364666E-2,-5.9478402E-2,-1.5873719E-2,-4.710244E-2,5.090811E-2,1.17701836E-1,-8.280666E-4,-3.4399394E-2,8.4048875E-2,3.6699176E-2,-8.657717E-2,8.703922E-3,-9.56767E-2,9.897413E-2,-4.243025E-2,-4.453005E-2,5.0035674E-2,2.5317911E-2,-9.63096E-2,8.296792E-2,-8.224368E-2,7.4043766E-2,-5.5830453E-2,-4.8895027E-2,6.986354E-2,1.14627324E-1,-1.421941E-3,1.0514713E-1,1.1545426E-2],"split_indices":[0,0,1,1,1,6889,0,1,0,0,1,0,6952,0,0,0,1,0,6896,5570,7116,7018,1802,1,1464,0,6891,0,1,3099,0,1,8040,7883,6999,7936,0,2676,0,4265,0,0,0,1,1,5806,0,4584,1682,0,1,4274,5803,0,0,134,0,1638,5752,5645,0,1799,0,6123,2735,0,1,6974,0,383,0,0,0,0,0,6982,0,6886,1679,5332,0,7839,0,6916,0,973,4378,1694,0,1,1,350,5698,3884,6896,8093,6889,7000,7000,7115,0,0,0,6518,3211,0,0,0,0,4277,0,4193,0,0,0,0,0,0,0,0,0,0,0,0,0,0,0,0,0,0,0,0,0,0,0,0,0,0,0,0,0,0,0,0,0,0,0,0,0,0,0,0,0,0,0,0,0,0,0,0,0,0,0,0,0,0,0],"split_type":[0,0,0,0,0,0,0,0,0,0,0,0,0,0,0,0,0,0,0,0,0,0,0,0,0,0,0,0,0,0,0,0,0,0,0,0,0,0,0,0,0,0,0,0,0,0,0,0,0,0,0,0,0,0,0,0,0,0,0,0,0,0,0,0,0,0,0,0,0,0,0,0,0,0,0,0,0,0,0,0,0,0,0,0,0,0,0,0,0,0,0,0,0,0,0,0,0,0,0,0,0,0,0,0,0,0,0,0,0,0,0,0,0,0,0,0,0,0,0,0,0,0,0,0,0,0,0,0,0,0,0,0,0,0,0,0,0,0,0,0,0,0,0,0,0,0,0,0,0,0,0,0,0,0,0,0,0,0,0,0,0,0,0,0,0,0,0],"sum_hessian":[3.6681016E3,2.8413645E3,8.2673724E2,1.611204E3,1.2301604E3,4.649176E2,3.6181964E2,5.1197107E2,1.0992329E3,3.2065887E1,1.1980945E3,4.421898E2,2.2727816E1,2.5456256E2,2.574085E2,1.6589507E2,9.333378E2,1.0753636E3,1.2273089E2,3.5768863E2,8.450117E1,1.5049017E1,7.6787987E0,2.3877634E2,1.5786231E1,1.615288E1,2.4125563E2,4.5041824E1,1.2085324E2,5.5907E2,3.742678E2,5.6173517E2,5.136285E2,1.1622445E2,6.5064425E0,3.523348E2,5.353811E0,8.3301926E1,1.1992431E0,1.2138367E1,2.9106503E0,6.526217E0,1.1525816E0,7.622801E1,1.6254832E2,1.4339243E1,1.4469882E0,2.1707849E2,2.4177137E1,2.6996542E1,9.38567E1,5.534877E2,5.582335E0,3.253706E1,3.4173074E2,4.1909583E2,1.4263933E2,4.633516E2,5.0276882E1,1.1425478E2,1.9696674E0,3.1253989E0,3.3810437E0,3.4764566E2,4.68915E0,2.9215395E0,2.4322712E0,8.1864044E1,1.4378806E0,1.0648338E1,1.4900285E0,3.5055054E1,4.1172955E1,6.070042E1,1.018479E2,1.3108358E1,1.2308843E0,2.089729E2,8.105593E0,2.275933E1,1.4178083E0,8.165388E0,1.8831154E1,3.0124493E1,6.373221E1,5.496757E2,3.8119578E0,3.7517593E0,1.8305755E0,4.7396683E1,2.9433405E2,4.1497287E2,4.122971E0,6.4779305E1,7.786002E1,4.3027505E2,3.307655E1,2.8210484E1,2.2066397E1,1.1252859E2,1.7261895E0,1.900086E0,1.2253128E0,3.3740555E2,1.024011E1,3.456611E0,1.2325388E0,1.2274195E0,1.2048517E0,7.9709656E1,2.1543846E0,9.4135E0,1.234839E0,3.329316E1,7.8797975E0,5.133014E1,5.051776E1,1.1874303E1,1.2340554E0,1.9836385E2,1.0609062E1,6.9138937E0,1.191699E0,2.1132383E1,1.6269462E0,6.4865093E0,1.6788788E0,2.8564175E1,1.5603185E0,4.883871E1,1.4893494E1,5.4767596E2,1.999799E0,1.7867155E0,2.0252423E0,1.1128724E0,2.638887E0,3.2629185E1,1.4767499E1,2.0852762E2,8.5806435E1,4.0766614E2,7.30673E0,2.959059E0,1.1639119E0,6.2648903E1,2.1303995E0,7.4558876E1,3.3011482E0,4.21895E2,8.380066E0,2.59376E1,7.1389494E0,2.0680637E1,7.529846E0,3.5241637E0,1.8542234E1,1.1084164E2,1.6869538E0,3.3197128E2,5.4342775E0,8.555546E0,1.6845648E0,7.8527756E1,1.1819003E0,8.260322E0,1.1531776E0],"tree_param":{"num_deleted":"0","num_feature":"8114","num_nodes":"167","size_leaf_vector":"1"}},{"base_weights":[3.117032E-3,-3.1532174E-1,1.116619E0,-5.353188E-1,-2.6172549E-2,8.6501306E-1,1.0858115E-1,-4.798649E-1,-9.8432034E-1,1.3168769E-1,-7.679182E-2,7.5803083E-1,1.3333944E0,-1.1846329E0,-4.395663E-1,-1.007258E0,9.676169E-2,-2.9190722E-1,3.5211408E-1,7.918956E-1,-8.6914766E-1,1.3642669E0,-3.3844173E-2,-1.2310656E0,1.1122449E-1,-1.8031499E-1,-5.577013E-1,-1.0358597E0,8.4080595E-1,-5.318648E-1,-2.934527E-2,2.1002737E-1,1.0692587E0,8.310959E-1,-5.452847E-1,-1.0661647E0,9.941161E-3,1.3955886E0,-3.1109193E-2,-1.261114E0,2.7718376E-2,-5.3717304E-2,5.9763093E-2,-5.906866E-1,2.1766026E-1,1.16983846E-1,-6.5259707E-1,-1.0565858E0,8.677987E-2,-2.334975E-2,1.18823506E-1,-5.5638564E-1,8.5662013E-1,1.0647107E-1,-6.253323E-2,-2.3473512E-1,3.53923E-1,1.1184034E0,-6.673892E-2,8.878695E-1,-9.218628E-2,-1.0116347E-1,2.3006539E-1,-1.2148391E0,-1.5500601E-2,1.4280399E0,-1.8819794E-2,-1.2823298E0,6.781637E-3,-7.106315E-1,9.9525154E-1,1.4734443E-1,1.3909699E0,-9.33323E-1,4.1098148E-1,-7.5613815E-1,-3.8232335E-1,-1.0771811E0,8.406445E-2,-5.0542593E-1,-1.1466357E0,1.434362E0,-6.6240616E-2,-2.876763E-2,-1.213406E0,-1.4462288E-1,-9.609813E-2,3.9914548E-1,-1.0414542E0,1.1628182E0,-4.8159864E-2,9.32153E-1,-2.5437814E-1,2.1877956E-1,-8.9724116E-2,7.0382655E-1,-5.227273E-2,-1.0090621E-1,-2.6984496E-2,1.4677688E0,9.845123E-2,-9.780591E-2,6.0043274E-3,-1.0108021E-2,-7.0409596E-2,9.128809E-2,-6.6223845E-2,6.345697E-2,2.8797027E-3,1.24312416E-1,-3.999964E-2,-9.8217875E-3,-1.03660665E-1,7.864497E-3,9.9185914E-2,-5.9414044E-2,-1.0638046E-3,-1.01795204E-1,-2.2833563E-2,-8.3235E-2,3.1104434E-2,-3.9487734E-2,7.725959E-2,-9.558777E-2,4.3346956E-2,9.422415E-3,1.2820107E-1,4.8152576E-4,-9.325016E-2,-1.027394E-1,2.6958322E-4,-1.5295819E-2,9.559972E-2,3.4144707E-2,-5.24879E-2,-1.09925136E-1,4.1464042E-2,8.970187E-2,-2.1139001E-2,7.232779E-2,-5.3038284E-2,-7.609605E-2,5.8466695E-2,3.682033E-2,-7.3463835E-2,8.776253E-2,-2.7832465E-2,1.11885674E-1,-5.4579405E-3,6.728189E-2,-5.5353325E-2],"categories":[],"categories_nodes":[],"categories_segments":[],"categories_sizes":[],"default_left":[0,0,0,0,0,0,0,0,0,0,0,0,0,0,0,0,0,0,0,0,0,0,0,0,0,0,0,0,0,0,0,0,0,0,0,0,0,0,0,0,0,0,0,0,0,0,0,0,0,0,0,0,0,0,0,0,0,0,0,0,0,0,0,0,0,0,0,0,0,0,0,0,0,0,0,0,0,0,0,0,0,0,0,0,0,0,0,0,0,0,0,0,0,0,0,0,0,0,0,0,0,0,0,0,0,0,0,0,0,0,0,0,0,0,0,0,0,0,0,0,0,0,0,0,0,0,0,0,0,0,0,0,0,0,0,0,0,0,0,0,0,0,0,0,0,0,0,0,0,0,0],"id":8,"left_children":[1,3,5,7,9,11,-1,13,15,-1,17,19,21,23,25,27,-1,29,31,33,35,37,-1,39,41,43,45,47,49,51,53,55,57,59,61,63,-1,65,-1,67,-1,-1,-1,69,71,73,75,77,-1,-1,-1,79,81,-1,83,85,87,89,-1,91,93,-1,95,97,-1,99,-1,101,-1,103,105,107,109,111,113,115,117,119,-1,121,123,125,-1,127,129,131,-1,133,135,137,-1,139,141,143,-1,145,-1,-1,-1,147,149,-1,-1,-1,-1,-1,-1,-1,-1,-1,-1,-1,-1,-1,-1,-1,-1,-1,-1,-1,-1,-1,-1,-1,-1,-1,-1,-1,-1,-1,-1,-1,-1,-1,-1,-1,-1,-1,-1,-1,-1,-1,-1,-1,-1,-1,-1,-1,-1,-1,-1],"loss_changes":[1.2836973E3,1.790679E2,6.58233E1,3.9334564E1,1.099565E2,2.2037384E1,0E0,3.994937E1,1.0418823E1,0E0,1.0941854E2,2.1449158E1,5.2552032E0,4.7388153E0,4.1229004E1,1.0047668E1,0E0,4.9732666E1,4.01472E1,1.9826767E1,1.7513022E0,5.205246E0,0E0,4.021324E0,2.5919538E0,6.936009E1,5.9398956E1,9.013458E0,3.2326598E0,1.452108E1,1.8271017E1,2.1326342E1,7.279747E0,1.892453E1,7.2449374E0,6.3417625E-1,0E0,4.729965E0,0E0,2.2029266E0,0E0,0E0,0E0,4.0459045E1,1.7610138E1,3.5925144E1,2.2447083E1,8.845947E0,0E0,0E0,0E0,1.16311035E1,8.858135E0,0E0,1.4366378E1,7.5235457E0,1.626632E1,5.7604218E0,0E0,1.737146E1,7.722556E0,0E0,3.3535826E0,1.5244961E-1,0E0,4.1016693E0,0E0,2.229622E0,0E0,2.5476334E1,7.3729267E0,1.5561768E1,7.0850773E0,8.994066E0,2.5147566E1,1.5673004E1,1.6826351E1,8.696472E0,0E0,1.2694756E1,7.677395E0,1.9627657E0,0E0,1.54388685E1,2.01153E0,6.6913233E0,0E0,1.5368221E1,6.330662E0,3.354454E0,0E0,1.7916138E1,1.1345798E1,6.2859206E0,0E0,2.8462522E0,0E0,0E0,0E0,2.996582E0,2.9362757E0,0E0,0E0,0E0,0E0,0E0,0E0,0E0,0E0,0E0,0E0,0E0,0E0,0E0,0E0,0E0,0E0,0E0,0E0,0E0,0E0,0E0,0E0,0E0,0E0,0E0,0E0,0E0,0E0,0E0,0E0,0E0,0E0,0E0,0E0,0E0,0E0,0E0,0E0,0E0,0E0,0E0,0E0,0E0,0E0,0E0,0E0,0E0,0E0,0E0,0E0],"parents":[2147483647,0,0,1,1,2,2,3,3,4,4,5,5,7,7,8,8,10,10,11,11,12,12,13,13,14,14,15,15,17,17,18,18,19,19,20,20,21,21,23,23,24,24,25,25,26,26,27,27,28,28,29,29,30,30,31,31,32,32,33,33,34,34,35,35,37,37,39,39,43,43,44,44,45,45,46,46,47,47,51,51,52,52,54,54,55,55,56,56,57,57,59,59,60,60,62,62,63,63,65,65,67,67,69,69,70,70,71,71,72,72,73,73,74,74,75,75,76,76,77,77,79,79,80,80,81,81,83,83,84,84,85,85,87,87,88,88,89,89,91,91,92,92,93,93,95,95,99,99,100,100],"right_children":[2,4,6,8,10,12,-1,14,16,-1,18,20,22,24,26,28,-1,30,32,34,36,38,-1,40,42,44,46,48,50,52,54,56,58,60,62,64,-1,66,-1,68,-1,-1,-1,70,72,74,76,78,-1,-1,-1,80,82,-1,84,86,88,90,-1,92,94,-1,96,98,-1,100,-1,102,-1,104,106,108,110,112,114,116,118,120,-1,122,124,126,-1,128,130,132,-1,134,136,138,-1,140,142,144,-1,146,-1,-1,-1,148,150,-1,-1,-1,-1,-1,-1,-1,-1,-1,-1,-1,-1,-1,-1,-1,-1,-1,-1,-1,-1,-1,-1,-1,-1,-1,-1,-1,-1,-1,-1,-1,-1,-1,-1,-1,-1,-1,-1,-1,-1,-1,-1,-1,-1,-1,-1,-1,-1,-1,-1],"split_conditions":[9.375E-1,8.75E-1,1E0,5.7839993E-3,7.8125E-1,9.84375E-1,1.0858115E-1,6.09375E-1,7.64706E-1,1.3168769E-1,9.53125E-1,8.529399E-2,7.519E-3,2.381E-2,8.4375E-1,2.43243E-1,9.676169E-2,9.0625E-1,1E0,2.2727E-2,6.66667E-1,1.1900011E-3,-3.3844173E-2,1.1900011E-3,8.28125E-1,7.8125E-1,7.8125E-1,5.29412E-1,4.3939E-2,5.55556E-1,8.125E-1,8.90625E-1,3.0769706E-3,2.4999999E-2,9.53125E-1,2.44444E-1,9.941161E-3,3.2051E-2,-3.1109193E-2,8.349996E-4,2.7718376E-2,-5.3717304E-2,5.9763093E-2,8.59375E-1,7.77778E-1,8.59375E-1,9.375E-1,1.57895E-1,8.677987E-2,-2.334975E-2,1.18823506E-1,9.027803E-2,9.749979E-4,1.0647107E-1,1.9594003E-2,1.9609993E-3,2.0408E-2,3.8800016E-4,-6.673892E-2,1.1831999E-2,1.66667E-1,-1.0116347E-1,6.25E-3,2.1700002E-4,-1.5500601E-2,2E-2,-1.8819794E-2,4.2734995E-2,6.781637E-3,7.1875E-1,6.667E-3,7.96875E-1,1.6666701E-1,7.03125E-1,7.65625E-1,3.33333E-1,8.125E-1,2.1277E-2,8.406445E-2,2.33286E-1,1.6666599E-1,2E-3,-6.6240616E-2,4.5946002E-2,1.21951E-1,2.833E-3,-9.609813E-2,4.878E-2,2.6087E-1,6.024E-3,-4.8159864E-2,2.039E-2,9.53125E-1,4.7699995E-3,-8.9724116E-2,8.85E-3,-5.227273E-2,-1.0090621E-1,-2.6984496E-2,2.3899674E-3,9.375E-1,-9.780591E-2,6.0043274E-3,-1.0108021E-2,-7.0409596E-2,9.128809E-2,-6.6223845E-2,6.345697E-2,2.8797027E-3,1.24312416E-1,-3.999964E-2,-9.8217875E-3,-1.03660665E-1,7.864497E-3,9.9185914E-2,-5.9414044E-2,-1.0638046E-3,-1.01795204E-1,-2.2833563E-2,-8.3235E-2,3.1104434E-2,-3.9487734E-2,7.725959E-2,-9.558777E-2,4.3346956E-2,9.422415E-3,1.2820107E-1,4.8152576E-4,-9.325016E-2,-1.027394E-1,2.6958322E-4,-1.5295819E-2,9.559972E-2,3.4144707E-2,-5.24879E-2,-1.09925136E-1,4.1464042E-2,8.970187E-2,-2.1139001E-2,7.232779E-2,-5.3038284E-2,-7.609605E-2,5.8466695E-2,3.682033E-2,-7.3463835E-2,8.776253E-2,-2.7832465E-2,1.11885674E-1,-5.4579405E-3,6.728189E-2,-5.5353325E-2],"split_indices":[0,0,1,6995,1,0,0,0,4242,0,1,5598,194,1613,1,4195,0,0,1,2992,2894,5955,0,6344,1,1,0,3299,6995,3315,1,0,5752,6889,1,1540,0,7116,0,7776,0,0,0,0,709,1,1,330,0,0,0,5752,7027,0,7047,7005,7600,6983,0,7730,5803,0,1613,6982,0,6974,0,7063,0,1,4401,1,6889,0,0,4662,0,1601,0,7002,8022,4407,0,6508,1612,3154,0,6897,4503,3355,0,6866,1,7018,0,394,0,0,0,5512,1,0,0,0,0,0,0,0,0,0,0,0,0,0,0,0,0,0,0,0,0,0,0,0,0,0,0,0,0,0,0,0,0,0,0,0,0,0,0,0,0,0,0,0,0,0,0,0,0,0,0],"split_type":[0,0,0,0,0,0,0,0,0,0,0,0,0,0,0,0,0,0,0,0,0,0,0,0,0,0,0,0,0,0,0,0,0,0,0,0,0,0,0,0,0,0,0,0,0,0,0,0,0,0,0,0,0,0,0,0,0,0,0,0,0,0,0,0,0,0,0,0,0,0,0,0,0,0,0,0,0,0,0,0,0,0,0,0,0,0,0,0,0,0,0,0,0,0,0,0,0,0,0,0,0,0,0,0,0,0,0,0,0,0,0,0,0,0,0,0,0,0,0,0,0,0,0,0,0,0,0,0,0,0,0,0,0,0,0,0,0,0,0,0,0,0,0,0,0,0,0,0,0,0,0],"sum_hessian":[3.6183164E3,2.8142231E3,8.040934E2,1.5977416E3,1.2164814E3,4.5896506E2,3.4512833E2,1.4239459E3,1.7379561E2,3.2670135E1,1.1838113E3,3.7575732E2,8.320774E1,7.548136E1,1.3484646E3,1.72612E2,1.1836157E0,7.8860846E2,3.9520282E2,3.6859937E2,7.1579595E0,8.202436E1,1.1833757E0,7.291857E1,2.5627894E0,4.2290686E2,9.2555774E2,1.7041408E2,2.1979296E0,4.1150497E2,3.7710352E2,3.3092923E2,6.427361E1,3.5846912E2,1.0130262E1,5.927717E0,1.2302425E0,8.0817055E1,1.2073097E0,7.1783134E1,1.1354433E0,1.1410412E0,1.4217483E0,2.0797229E2,2.1493457E2,1.1410032E2,8.1145746E2,1.6933183E2,1.0822324E0,1.0900544E0,1.1078752E0,4.0495273E2,6.552235E0,7.508612E0,3.695949E2,8.0740295E1,2.5018892E2,6.311938E1,1.1542342E0,3.377395E2,2.072961E1,4.611407E0,5.5188556E0,4.7010827E0,1.2266344E0,7.938514E1,1.4319105E0,7.0724144E1,1.0589875E0,1.9386235E2,1.4109936E1,2.0384389E2,1.1090681E1,2.447801E1,8.962231E1,5.853961E2,2.260613E2,1.6824579E2,1.0860522E0,3.7447815E2,3.0474586E1,5.0506473E0,1.5015877E0,3.6005618E2,9.538736E0,7.538746E1,5.3528376E0,2.4302667E2,7.162249E0,6.1897343E1,1.2220402E0,3.2531152E2,1.2427987E1,1.6799965E1,3.929645E0,3.811676E0,1.7071797E0,3.5807524E0,1.1203305E0,7.698098E1,2.4041624E0,6.965498E1,1.0691617E0,5.5465187E1,1.3839717E2,1.2933712E1,1.176224E0,2.6583391E1,1.772605E2,9.863205E0,1.2274756E0,9.244019E0,1.5233991E1,6.792507E1,2.1697235E1,5.58207E2,2.7189138E1,1.5506254E1,2.1055504E2,1.6489664E2,3.349155E0,3.7005585E2,4.4222965E0,2.8614021E1,1.860564E0,1.12992E0,3.9207273E0,3.508852E2,9.170991E0,8.340866E0,1.1978703E0,7.318488E1,2.202577E0,2.317772E2,1.124946E1,5.7207546E0,1.4414942E0,6.067481E1,1.2225329E0,3.1944525E2,5.866271E0,7.1726985E0,5.255289E0,1.4171604E1,2.628361E0,2.5965848E0,1.2150913E0,7.58293E1,1.1516813E0,1.1928517E0,1.2113106E0],"tree_param":{"num_deleted":"0","num_feature":"8114","num_nodes":"151","size_leaf_vector":"1"}},{"base_weights":[-1.7079528E-3,-3.027916E-1,1.0548348E0,-5.1133054E-1,-3.1290285E-2,7.9409254E-1,1.05098866E-1,-4.5729664E-1,-9.488459E-1,1.2482193E-1,-7.749291E-2,6.2955636E-1,1.1184037E0,-1.1846049E0,-4.177265E-1,-7.563856E-1,-1.2586802E0,-2.7556857E-1,3.1866318E-1,6.815243E-1,-7.3018867E-1,1.1564306E0,-4.204211E-1,-1.2151039E0,2.941083E-2,-1.8647686E-1,-5.236422E-1,-8.72931E-1,8.80997E-2,-1.2864258E0,1.5396504E-2,-5.047464E-1,-2.7404802E-2,1.8422055E-1,1.0454421E0,4.058405E-1,9.3698406E-1,-1.1217571E0,7.5899296E-2,1.188574E0,-5.0726604E-2,8.1320135E-3,-6.5833636E-2,-1.2470727E0,2.8100425E-2,-5.66098E-1,1.7442572E-1,4.8300546E-2,-6.083078E-1,-9.072685E-1,7.966047E-2,1.232904E0,-6.441317E-1,-1.3142831E0,1.4113071E-2,-5.25604E-1,1.3209524E0,4.6595342E-2,-7.7325433E-1,-2.6946092E-1,3.2940787E-1,1.0962573E0,-6.4624116E-2,1.1145287E-1,1.9289036E-1,9.8540527E-1,-8.3169293E-1,-1.2909651E0,4.989648E-3,1.224412E0,-4.9052662E-1,-1.2698328E0,9.256088E-3,-6.996314E-1,1.0316367E0,2.4665415E-1,-1.0970587E0,-8.7374204E-1,2.984032E-1,-6.4332944E-1,1.8119721E-1,-9.6821177E-1,4.1476414E-1,1.2661643E-1,-2.817052E-2,-1.0126843E0,6.719853E-2,-1.0096373E-1,-1.6250711E-2,-5.4556847E-1,1.1530936E0,1.1197075E-1,3.1914584E-2,8.680889E-2,-1.1555488E0,-9.897743E-1,8.074773E-1,-3.4759432E-1,9.7140115E-1,3.6766726E-1,-9.5677845E-2,1.1418875E0,-2.3137301E-2,2.7546108E-1,-1.021955E0,1.0258846E0,-7.3868744E-2,-1.05543755E-1,3.2703873E-2,-1.4527115E0,-6.619652E-3,1.2582824E0,-3.2426253E-1,2.8751684E-2,-7.673128E-2,-9.688956E-2,5.7589067E-3,-9.8731425E-3,-6.9270805E-2,9.4264075E-2,-7.2891355E-2,2.3229714E-2,-9.232555E-2,-9.790884E-2,1.704156E-2,-1.0559767E-2,-1.0013944E-1,3.247082E-2,-9.770354E-2,-5.5774238E-2,-2.8940612E-2,-2.3079861E-2,9.634525E-2,-7.538204E-2,6.3902676E-2,1.0647852E-1,-5.0863698E-2,-8.9186564E-2,-2.277015E-3,-4.237283E-2,7.083971E-2,1.3922253E-1,-3.3595305E-2,1.4956621E-3,7.032342E-2,-1.0089743E-1,-3.3276542E-3,-8.757944E-2,4.6180002E-2,9.649447E-2,-3.2170236E-2,-1.8767277E-2,-9.458348E-2,1.3754252E-2,9.621729E-2,3.0694501E-2,-8.896587E-2,8.857733E-2,-2.8758105E-2,2.7829105E-2,-7.2250396E-2,-9.82312E-2,2.2463296E-2,7.974069E-2,-7.30445E-2,-1.1867878E-1,-2.6456065E-2,9.617702E-2,-4.78152E-2,-6.348264E-2,1.7978594E-2],"categories":[],"categories_nodes":[],"categories_segments":[],"categories_sizes":[],"default_left":[0,0,0,0,0,0,0,0,0,0,0,0,0,0,0,0,0,0,0,0,0,0,0,0,0,0,0,0,0,0,0,0,0,0,0,0,0,0,0,0,0,0,0,0,0,0,0,0,0,0,0,0,0,0,0,0,0,0,0,0,0,0,0,0,0,0,0,0,0,0,0,0,0,0,0,0,0,0,0,0,0,0,0,0,0,0,0,0,0,0,0,0,0,0,0,0,0,0,0,0,0,0,0,0,0,0,0,0,0,0,0,0,0,0,0,0,0,0,0,0,0,0,0,0,0,0,0,0,0,0,0,0,0,0,0,0,0,0,0,0,0,0,0,0,0,0,0,0,0,0,0,0,0,0,0,0,0,0,0,0,0,0,0,0,0,0,0,0,0,0,0],"id":9,"left_children":[1,3,5,7,9,11,-1,13,15,-1,17,19,21,23,25,27,29,31,33,35,37,39,41,43,-1,45,47,49,51,53,-1,55,57,59,61,63,65,67,-1,69,-1,-1,-1,71,-1,73,75,77,79,81,-1,83,85,87,-1,89,91,93,95,97,99,101,-1,-1,103,105,107,109,-1,111,113,115,-1,117,119,121,123,125,127,129,131,133,135,-1,-1,137,-1,-1,-1,139,141,-1,-1,143,145,147,149,151,153,155,-1,157,-1,159,161,163,-1,-1,-1,165,-1,167,169,-1,-1,-1,-1,-1,-1,-1,-1,-1,-1,-1,-1,-1,-1,-1,-1,-1,-1,-1,-1,-1,-1,-1,-1,-1,-1,-1,-1,-1,-1,-1,-1,-1,-1,-1,-1,-1,-1,-1,-1,-1,-1,-1,-1,-1,-1,-1,-1,-1,-1,-1,-1,-1,-1,-1,-1,-1,-1],"loss_changes":[1.1287393E3,1.563292E2,6.9979126E1,3.6486053E1,9.418918E1,2.3378784E1,0E0,3.9565704E1,9.229431E0,0E0,9.187819E1,2.1816933E1,9.299835E0,3.9042816E0,3.227452E1,1.0689247E1,2.8602676E0,4.436946E1,3.795177E1,2.0121735E1,9.041052E0,9.478806E0,1.1511102E0,4.0335617E0,0E0,5.719527E1,4.3898956E1,7.2654495E0,1.2516851E1,2.8297195E0,0E0,1.614154E1,2.0773687E1,2.1868649E1,6.829689E0,3.232646E1,1.3694489E1,2.0838127E0,0E0,9.330673E0,0E0,0E0,0E0,2.3095703E0,0E0,4.4104614E1,1.9960838E1,2.741288E1,2.1937958E1,7.953087E0,0E0,4.880827E0,6.121435E0,1.8730011E0,0E0,1.4094711E1,1.1420441E-1,1.667016E1,1.2425949E1,8.162989E0,1.5879591E1,4.1720505E0,0E0,0E0,1.227669E1,1.2717743E1,3.9323878E0,1.5733652E0,0E0,7.873886E0,2.1354318E0,2.115715E0,0E0,2.3827522E1,8.480806E0,1.9366495E1,3.5277843E0,8.3951645E0,2.0676388E1,1.9237762E1,1.890062E1,6.891548E0,6.268266E0,0E0,0E0,1.3301878E0,0E0,0E0,0E0,1.2033119E1,6.509651E0,0E0,0E0,1.8903515E1,2.29432E0,9.383574E0,3.302449E0,6.503587E0,1.0030179E0,1.6376507E1,0E0,3.9116287E0,0E0,1.3710367E1,3.3673363E0,1.1807938E1,0E0,0E0,0E0,5.3232574E-1,0E0,7.1848297E0,1.3341525E0,0E0,0E0,0E0,0E0,0E0,0E0,0E0,0E0,0E0,0E0,0E0,0E0,0E0,0E0,0E0,0E0,0E0,0E0,0E0,0E0,0E0,0E0,0E0,0E0,0E0,0E0,0E0,0E0,0E0,0E0,0E0,0E0,0E0,0E0,0E0,0E0,0E0,0E0,0E0,0E0,0E0,0E0,0E0,0E0,0E0,0E0,0E0,0E0,0E0,0E0,0E0,0E0,0E0,0E0,0E0,0E0,0E0,0E0],"parents":[2147483647,0,0,1,1,2,2,3,3,4,4,5,5,7,7,8,8,10,10,11,11,12,12,13,13,14,14,15,15,16,16,17,17,18,18,19,19,20,20,21,21,22,22,23,23,25,25,26,26,27,27,28,28,29,29,31,31,32,32,33,33,34,34,35,35,36,36,37,37,39,39,43,43,45,45,46,46,47,47,48,48,49,49,51,51,52,52,53,53,55,55,56,56,57,57,58,58,59,59,60,60,61,61,64,64,65,65,66,66,67,67,69,69,70,70,71,71,73,73,74,74,75,75,76,76,77,77,78,78,79,79,80,80,81,81,82,82,85,85,89,89,90,90,93,93,94,94,95,95,96,96,97,97,98,98,99,99,101,101,103,103,104,104,105,105,109,109,111,111,112,112],"right_children":[2,4,6,8,10,12,-1,14,16,-1,18,20,22,24,26,28,30,32,34,36,38,40,42,44,-1,46,48,50,52,54,-1,56,58,60,62,64,66,68,-1,70,-1,-1,-1,72,-1,74,76,78,80,82,-1,84,86,88,-1,90,92,94,96,98,100,102,-1,-1,104,106,108,110,-1,112,114,116,-1,118,120,122,124,126,128,130,132,134,136,-1,-1,138,-1,-1,-1,140,142,-1,-1,144,146,148,150,152,154,156,-1,158,-1,160,162,164,-1,-1,-1,166,-1,168,170,-1,-1,-1,-1,-1,-1,-1,-1,-1,-1,-1,-1,-1,-1,-1,-1,-1,-1,-1,-1,-1,-1,-1,-1,-1,-1,-1,-1,-1,-1,-1,-1,-1,-1,-1,-1,-1,-1,-1,-1,-1,-1,-1,-1,-1,-1,-1,-1,-1,-1,-1,-1,-1,-1,-1,-1,-1,-1],"split_conditions":[9.375E-1,8.75E-1,1E0,4.221E-3,7.8125E-1,9.6875E-1,1.05098866E-1,6.09375E-1,8.772001E-3,1.2482193E-1,9.53125E-1,2.8340004E-2,1.8341001E-2,3.91304E-1,8.4375E-1,5.5556E-2,1.0625E-1,9.0625E-1,1E0,9.53125E-1,1.6557798E-1,1.8868E-2,2.833E-3,7.576E-3,2.941083E-2,7.8125E-1,7.8125E-1,1.42857E-1,2.7027E-2,1.3846204E-1,1.5396504E-2,4.32836E-1,3.7433013E-2,8.90625E-1,3.0769706E-3,8.75E-1,4.7619E-2,4.5455E-2,7.5899296E-2,6.6667E-2,-5.0726604E-2,8.1320135E-3,-6.5833636E-2,1.5152E-2,2.8100425E-2,8.59375E-1,1.5379973E-3,8.59375E-1,9.23077E-1,2.5641E-2,